{"learner":{"attributes":{},"feature_names":[],"feature_types":[],"gradient_booster":{"model":{"cats":{"enc":[],"feature_segments":[],"sorted_idx":[]},"gbtree_model_param":{"num_parallel_tree":"1","num_trees":"300"},"iteration_indptr":[0,1,2,3,4,5,6,7,8,9,10,11,12,13,14,15,16,17,18,19,20,21,22,23,24,25,26,27,28,29,30,31,32,33,34,35,36,37,38,39,40,41,42,43,44,45,46,47,48,49,50,51,52,53,54,55,56,57,58,59,60,61,62,63,64,65,66,67,68,69,70,71,72,73,74,75,76,77,78,79,80,81,82,83,84,85,86,87,88,89,90,91,92,93,94,95,96,97,98,99,100,101,102,103,104,105,106,107,108,109,110,111,112,113,114,115,116,117,118,119,120,121,122,123,124,125,126,127,128,129,130,131,132,133,134,135,136,137,138,139,140,141,142,143,144,145,146,147,148,149,150,151,152,153,154,155,156,157,158,159,160,161,162,163,164,165,166,167,168,169,170,171,172,173,174,175,176,177,178,179,180,181,182,183,184,185,186,187,188,189,190,191,192,193,194,195,196,197,198,199,200,201,202,203,204,205,206,207,208,209,210,211,212,213,214,215,216,217,218,219,220,221,222,223,224,225,226,227,228,229,230,231,232,233,234,235,236,237,238,239,240,241,242,243,244,245,246,247,248,249,250,251,252,253,254,255,256,257,258,259,260,261,262,263,264,265,266,267,268,269,270,271,272,273,274,275,276,277,278,279,280,281,282,283,284,285,286,287,288,289,290,291,292,293,294,295,296,297,298,299,300],"tree_info":[0,0,0,0,0,0,0,0,0,0,0,0,0,0,0,0,0,0,0,0,0,0,0,0,0,0,0,0,0,0,0,0,0,0,0,0,0,0,0,0,0,0,0,0,0,0,0,0,0,0,0,0,0,0,0,0,0,0,0,0,0,0,0,0,0,0,0,0,0,0,0,0,0,0,0,0,0,0,0,0,0,0,0,0,0,0,0,0,0,0,0,0,0,0,0,0,0,0,0,0,0,0,0,0,0,0,0,0,0,0,0,0,0,0,0,0,0,0,0,0,0,0,0,0,0,0,0,0,0,0,0,0,0,0,0,0,0,0,0,0,0,0,0,0,0,0,0,0,0,0,0,0,0,0,0,0,0,0,0,0,0,0,0,0,0,0,0,0,0,0,0,0,0,0,0,0,0,0,0,0,0,0,0,0,0,0,0,0,0,0,0,0,0,0,0,0,0,0,0,0,0,0,0,0,0,0,0,0,0,0,0,0,0,0,0,0,0,0,0,0,0,0,0,0,0,0,0,0,0,0,0,0,0,0,0,0,0,0,0,0,0,0,0,0,0,0,0,0,0,0,0,0,0,0,0,0,0,0,0,0,0,0,0,0,0,0,0,0,0,0,0,0,0,0,0,0,0,0,0,0,0,0,0,0,0,0,0,0,0,0,0,0,0,0,0,0,0,0,0,0],"trees":[{"base_weights":[1.9466855E-4,-3.5216188E-1,7.5156486E-1,-4.7094372E-1,1.8927312E-1,3.2963288E-1,1.1843365E0,-5.635284E-1,-1.8352851E-1,-4.400619E-2,5.128434E-1,4.874454E-2,6.53697E-1,9.597303E-1,1.7312E0,-7.252064E-1,-4.5554838E-1,-3.434503E-1,3.5450816E-2,-1.3722762E-1,3.645349E-1,3.552429E-1,8.7808084E-1,-1.0594842E-1,3.6070624E-1,4.162855E-1,9.2336255E-1,6.6474336E-1,1.185837E0,1.4454308E0,2.0628955E0,-7.5388575E-1,-5.041954E-1,-5.108362E-1,-2.719173E-1,-5.2087486E-1,-2.5375304E-1,-1.09683834E-1,2.709542E-1,-2.6378447E-1,3.634433E-2,1.7573275E-1,5.513479E-1,1.8855569E-1,6.317452E-1,7.392358E-1,1.1153932E0,-2.0125471E-1,1.6891743E-1,2.521126E-1,7.375835E-1,3.384769E-1,9.092733E-1,7.5279987E-1,1.1903801E0,4.8530778E-1,8.960488E-1,1.0308181E0,1.4692024E0,1.2115167E0,1.7210206E0,1.6851096E0,2.3397653E0,-4.2109083E-2,-3.532382E-2,-2.983982E-2,-1.649748E-2,-2.7405545E-2,-1.7808046E-2,-1.6319951E-2,-3.080479E-3,-3.0935068E-2,-2.0338198E-2,-1.7235396E-2,-5.2228617E-3,-1.0499626E-2,4.7357045E-3,5.4762135E-3,2.735467E-2,-1.9218335E-2,-6.9040167E-3,-5.1752618E-3,7.940315E-3,7.413176E-3,7.053784E-2,2.5329009E-2,7.9130895E-2,2.0629584E-3,1.8090038E-2,2.3141962E-2,4.7022235E-2,3.0234182E-2,4.3798354E-2,2.1159438E-2,5.88241E-2,-1.4573251E-2,-1.7749034E-3,-1.6255946E-3,1.5672995E-2,1.961511E-3,1.8493718E-2,2.9165884E-2,5.8218326E-2,7.790297E-3,2.632535E-2,2.15887E-2,5.1498618E-2,3.0812515E-2,4.7892388E-2,5.460474E-2,8.180144E-2,1.491624E-2,3.4147963E-2,3.922076E-2,6.1622508E-2,4.358228E-2,6.0944784E-2,6.513155E-2,8.9543E-2,5.5046678E-2,7.8310095E-2,7.459976E-2,9.877252E-2,6.794792E-2,9.347486E-2,1.0734296E-1,1.3037953E-1],"categories":[],"categories_nodes":[],"categories_segments":[],"categories_sizes":[],"default_left":[0,0,0,0,0,0,0,0,0,0,0,0,0,0,0,0,0,0,0,0,0,0,0,0,0,0,0,0,0,0,0,0,0,0,0,0,0,0,0,0,0,0,0,0,0,0,0,0,0,0,0,0,0,0,0,0,0,0,0,0,0,0,0,0,0,0,0,0,0,0,0,0,0,0,0,0,0,0,0,0,0,0,0,0,0,0,0,0,0,0,0,0,0,0,0,0,0,0,0,0,0,0,0,0,0,0,0,0,0,0,0,0,0,0,0,0,0,0,0,0,0,0,0,0,0,0,0],"id":0,"left_children":[1,3,5,7,9,11,13,15,17,19,21,23,25,27,29,31,33,35,37,39,41,43,45,47,49,51,53,55,57,59,61,63,65,67,69,71,73,75,77,79,81,83,85,87,89,91,93,95,97,99,101,103,105,107,109,111,113,115,117,119,121,123,125,-1,-1,-1,-1,-1,-1,-1,-1,-1,-1,-1,-1,-1,-1,-1,-1,-1,-1,-1,-1,-1,-1,-1,-1,-1,-1,-1,-1,-1,-1,-1,-1,-1,-1,-1,-1,-1,-1,-1,-1,-1,-1,-1,-1,-1,-1,-1,-1,-1,-1,-1,-1,-1,-1,-1,-1,-1,-1,-1,-1,-1,-1,-1,-1],"loss_changes":[1.8651123E4,3.084395E3,4.106288E3,1.0464785E3,6.513589E2,1.0366615E3,1.3619844E3,5.189922E2,3.356397E2,1.9104523E2,2.077732E2,2.9451022E2,3.381621E2,5.242627E2,3.0328027E2,7.511084E1,1.809624E2,8.801825E1,1.3832079E2,8.9721664E1,3.277539E1,1.16348785E2,3.5057617E1,1.0691549E2,8.260831E1,1.0763367E2,1.1182349E2,1.4142737E2,1.9418018E2,1.1001831E2,1.5222119E2,4.352588E1,2.1924622E1,7.8843994E1,4.7301056E1,2.0500488E1,4.994896E1,5.1359123E1,6.8722595E1,3.574936E1,2.9524971E1,1.556604E1,2.0804718E1,4.0253105E1,4.9098877E1,1.2164612E1,1.6416473E1,4.529711E1,3.0610155E1,3.9394608E1,2.9079605E1,8.345145E1,2.1628998E1,4.1772522E1,4.0393433E1,7.1013275E1,5.5063232E1,8.524536E1,8.194702E1,3.530139E1,4.343628E1,3.5647217E1,3.8782227E1,0E0,0E0,0E0,0E0,0E0,0E0,0E0,0E0,0E0,0E0,0E0,0E0,0E0,0E0,0E0,0E0,0E0,0E0,0E0,0E0,0E0,0E0,0E0,0E0,0E0,0E0,0E0,0E0,0E0,0E0,0E0,0E0,0E0,0E0,0E0,0E0,0E0,0E0,0E0,0E0,0E0,0E0,0E0,0E0,0E0,0E0,0E0,0E0,0E0,0E0,0E0,0E0,0E0,0E0,0E0,0E0,0E0,0E0,0E0,0E0,0E0,0E0,0E0,0E0],"parents":[2147483647,0,0,1,1,2,2,3,3,4,4,5,5,6,6,7,7,8,8,9,9,10,10,11,11,12,12,13,13,14,14,15,15,16,16,17,17,18,18,19,19,20,20,21,21,22,22,23,23,24,24,25,25,26,26,27,27,28,28,29,29,30,30,31,31,32,32,33,33,34,34,35,35,36,36,37,37,38,38,39,39,40,40,41,41,42,42,43,43,44,44,45,45,46,46,47,47,48,48,49,49,50,50,51,51,52,52,53,53,54,54,55,55,56,56,57,57,58,58,59,59,60,60,61,61,62,62],"right_children":[2,4,6,8,10,12,14,16,18,20,22,24,26,28,30,32,34,36,38,40,42,44,46,48,50,52,54,56,58,60,62,64,66,68,70,72,74,76,78,80,82,84,86,88,90,92,94,96,98,100,102,104,106,108,110,112,114,116,118,120,122,124,126,-1,-1,-1,-1,-1,-1,-1,-1,-1,-1,-1,-1,-1,-1,-1,-1,-1,-1,-1,-1,-1,-1,-1,-1,-1,-1,-1,-1,-1,-1,-1,-1,-1,-1,-1,-1,-1,-1,-1,-1,-1,-1,-1,-1,-1,-1,-1,-1,-1,-1,-1,-1,-1,-1,-1,-1,-1,-1,-1,-1,-1,-1,-1,-1],"split_conditions":[5.090242E-1,5.090242E-1,8.7994474E-1,1.3810365E-1,5.090242E-1,5.090242E-1,1.9927064E0,-6.097401E-1,1.3810365E-1,8.7994474E-1,1.2508653E0,5.090242E-1,8.7994474E-1,8.7994474E-1,1.9927064E0,1.3810365E-1,1.3810365E-1,-3.4481576E-1,5.090242E-1,1.3810365E-1,5.090242E-1,8.7994474E-1,1.6217859E0,5.090242E-1,1.2508653E0,1.9927064E0,1.6217859E0,8.7994474E-1,1.9927064E0,1.6217859E0,1.9927064E0,-1.4372774E0,-2.3281689E-1,1.3810365E-1,5.090242E-1,-2.3281689E-1,1.3810365E-1,5.090242E-1,8.7994474E-1,-2.3281689E-1,1.3810365E-1,2.7345474E0,2.564443E0,4.7916636E-1,1.2508653E0,9.1690886E-1,-1.1332492E0,1.3810365E-1,8.7994474E-1,1.3810365E-1,1.6217859E0,5.090242E-1,1.3810365E-1,1.2508653E0,2.7345474E0,5.090242E-1,1.9927064E0,1.2508653E0,2.363627E0,2.363627E0,1.9927064E0,1.6217859E0,2.7345474E0,-4.2109083E-2,-3.532382E-2,-2.983982E-2,-1.649748E-2,-2.7405545E-2,-1.7808046E-2,-1.6319951E-2,-3.080479E-3,-3.0935068E-2,-2.0338198E-2,-1.7235396E-2,-5.2228617E-3,-1.0499626E-2,4.7357045E-3,5.4762135E-3,2.735467E-2,-1.9218335E-2,-6.9040167E-3,-5.1752618E-3,7.940315E-3,7.413176E-3,7.053784E-2,2.5329009E-2,7.9130895E-2,2.0629584E-3,1.8090038E-2,2.3141962E-2,4.7022235E-2,3.0234182E-2,4.3798354E-2,2.1159438E-2,5.88241E-2,-1.4573251E-2,-1.7749034E-3,-1.6255946E-3,1.5672995E-2,1.961511E-3,1.8493718E-2,2.9165884E-2,5.8218326E-2,7.790297E-3,2.632535E-2,2.15887E-2,5.1498618E-2,3.0812515E-2,4.7892388E-2,5.460474E-2,8.180144E-2,1.491624E-2,3.4147963E-2,3.922076E-2,6.1622508E-2,4.358228E-2,6.0944784E-2,6.513155E-2,8.9543E-2,5.5046678E-2,7.8310095E-2,7.459976E-2,9.877252E-2,6.794792E-2,9.347486E-2,1.0734296E-1,1.3037953E-1],"split_indices":[83,74,74,38,20,47,47,84,11,11,47,20,11,38,20,47,2,84,47,47,38,38,11,38,38,83,83,2,83,11,2,75,74,11,20,2,47,20,2,83,38,74,49,31,2,45,24,11,83,11,11,2,38,2,11,47,83,20,74,83,83,83,38,0,0,0,0,0,0,0,0,0,0,0,0,0,0,0,0,0,0,0,0,0,0,0,0,0,0,0,0,0,0,0,0,0,0,0,0,0,0,0,0,0,0,0,0,0,0,0,0,0,0,0,0,0,0,0,0,0,0,0,0,0,0,0,0],"split_type":[0,0,0,0,0,0,0,0,0,0,0,0,0,0,0,0,0,0,0,0,0,0,0,0,0,0,0,0,0,0,0,0,0,0,0,0,0,0,0,0,0,0,0,0,0,0,0,0,0,0,0,0,0,0,0,0,0,0,0,0,0,0,0,0,0,0,0,0,0,0,0,0,0,0,0,0,0,0,0,0,0,0,0,0,0,0,0,0,0,0,0,0,0,0,0,0,0,0,0,0,0,0,0,0,0,0,0,0,0,0,0,0,0,0,0,0,0,0,0,0,0,0,0,0,0,0,0],"sum_hessian":[7.0446E4,4.7957E4,2.2489E4,3.9329E4,8.628E3,1.1388E4,1.1101E4,2.9746E4,9.583E3,5.014E3,3.614E3,6.101E3,5.287E3,7.871E3,3.23E3,1.1909E4,1.7837E4,5.538E3,4.045E3,4.083E3,9.31E2,2.526E3,1.088E3,4.079E3,2.022E3,2.813E3,2.474E3,3.417E3,4.454E3,1.738E3,1.492E3,1.0539E4,1.37E3,1.3708E4,4.129E3,1.858E3,3.68E3,2.503E3,1.542E3,2.361E3,1.722E3,4.64E2,4.67E2,1.577E3,9.49E2,6.89E2,3.99E2,3.029E3,1.05E3,1.571E3,4.51E2,2.431E3,3.82E2,1.512E3,9.62E2,1.926E3,1.491E3,2.882E3,1.572E3,9.43E2,7.95E2,6.34E2,8.58E2,3.676E3,6.863E3,8.93E2,4.77E2,1.1044E4,2.664E3,3.279E3,8.5E2,9.98E2,8.6E2,2.286E3,1.394E3,1.679E3,8.24E2,9.74E2,5.68E2,1.204E3,1.157E3,8.04E2,9.18E2,4.55E2,9E0,4.49E2,1.8E1,8.53E2,7.24E2,6.15E2,3.34E2,3.5E2,3.39E2,3.3E1,3.66E2,1.961E3,1.068E3,4.39E2,6.11E2,5.6E2,1.011E3,3.33E2,1.18E2,1.234E3,1.197E3,7.8E1,3.04E2,9.1E2,6.02E2,7.91E2,1.71E2,9.91E2,9.35E2,1.122E3,3.69E2,1.564E3,1.318E3,1.039E3,5.33E2,7.22E2,2.21E2,4.22E2,3.73E2,2.32E2,4.02E2,5.04E2,3.54E2],"tree_param":{"num_deleted":"0","num_feature":"90","num_nodes":"127","size_leaf_vector":"1"}},{"base_weights":[-4.771936E-4,-3.328898E-1,7.064693E-1,-4.4778362E-1,1.9236444E-1,3.0683997E-1,1.1303282E0,-5.349099E-1,-1.6593571E-1,-4.640643E-2,5.040417E-1,4.4473585E-2,6.128037E-1,8.5785323E-1,1.5208384E0,-6.832651E-1,-4.3527195E-1,-2.7216238E-1,1.3245232E-1,-1.756968E-1,2.517184E-1,2.981817E-1,7.7259153E-1,-9.684295E-2,3.1977397E-1,3.7948456E-1,8.7018317E-1,6.401174E-1,1.1455133E0,1.32893E0,1.934676E0,-7.120963E-1,-4.7301817E-1,-5.2521205E-1,-3.1867802E-1,-3.385589E-1,-9.347958E-3,1.7495306E-2,4.0440363E-1,-2.8627834E-1,4.677156E-3,1.5127343E-1,6.4431936E-1,1.6705503E-1,5.531004E-1,6.07174E-1,1.0630089E0,-1.8251573E-1,1.376278E-1,1.2904553E-1,5.222168E-1,2.210163E-1,6.48033E-1,6.8414956E-1,1.1429945E0,3.8913321E-1,7.9552764E-1,9.711464E-1,1.4816482E0,1.1514735E0,1.6346124E0,1.5998414E0,2.1766589E0,-3.877786E-2,-3.2357533E-2,-3.0931994E-2,-1.8060716E-2,-2.7827531E-2,-1.880152E-2,-1.9692682E-2,-7.827255E-3,-2.0521674E-2,-8.857541E-3,-4.517145E-3,1.3734532E-2,-4.7032344E-3,1.0863121E-2,1.5180725E-2,3.479634E-2,-1.9925442E-2,-9.601647E-3,-8.582021E-3,5.8477107E-3,4.32288E-3,2.6642004E-2,2.5912708E-2,5.659088E-2,-1.9597458E-3,1.5295721E-2,1.5743049E-2,3.6572434E-2,1.4548902E-2,3.474645E-2,4.619005E-2,7.298821E-2,-1.2094189E-2,1.1874421E-3,1.9860868E-3,1.9324442E-2,5.6716445E-4,1.8045528E-2,1.9890515E-2,4.4016052E-2,5.515485E-3,2.4113394E-2,2.6055116E-2,4.603222E-2,2.5927354E-2,4.2270843E-2,4.9156077E-2,7.006264E-2,7.7680736E-3,2.5017435E-2,3.2617733E-2,4.9967088E-2,4.184803E-2,6.1272737E-2,6.7970626E-2,9.798169E-2,5.216032E-2,7.009139E-2,6.4362474E-2,9.1049574E-2,7.136899E-2,9.98119E-2,8.976283E-2,1.17999434E-1],"categories":[],"categories_nodes":[],"categories_segments":[],"categories_sizes":[],"default_left":[0,0,0,0,0,0,0,0,0,0,0,0,0,0,0,0,0,0,0,0,0,0,0,0,0,0,0,0,0,0,0,0,0,0,0,0,0,0,0,0,0,0,0,0,0,0,0,0,0,0,0,0,0,0,0,0,0,0,0,0,0,0,0,0,0,0,0,0,0,0,0,0,0,0,0,0,0,0,0,0,0,0,0,0,0,0,0,0,0,0,0,0,0,0,0,0,0,0,0,0,0,0,0,0,0,0,0,0,0,0,0,0,0,0,0,0,0,0,0,0,0,0,0,0,0,0,0],"id":1,"left_children":[1,3,5,7,9,11,13,15,17,19,21,23,25,27,29,31,33,35,37,39,41,43,45,47,49,51,53,55,57,59,61,63,65,67,69,71,73,75,77,79,81,83,85,87,89,91,93,95,97,99,101,103,105,107,109,111,113,115,117,119,121,123,125,-1,-1,-1,-1,-1,-1,-1,-1,-1,-1,-1,-1,-1,-1,-1,-1,-1,-1,-1,-1,-1,-1,-1,-1,-1,-1,-1,-1,-1,-1,-1,-1,-1,-1,-1,-1,-1,-1,-1,-1,-1,-1,-1,-1,-1,-1,-1,-1,-1,-1,-1,-1,-1,-1,-1,-1,-1,-1,-1,-1,-1,-1,-1,-1],"loss_changes":[1.6613178E4,2.901942E3,3.8294805E3,9.687832E2,6.4233765E2,9.3428894E2,1.1661621E3,4.451963E2,2.953865E2,1.8845056E2,2.0675171E2,2.4384544E2,3.2232666E2,4.041953E2,3.5544922E2,7.305176E1,1.8892456E2,1.19912994E2,7.649277E1,6.801729E1,5.82266E1,7.080553E1,7.7371704E1,8.322862E1,8.202089E1,1.19865906E2,1.2883887E2,1.4330884E2,1.617334E2,1.6535596E2,1.1205859E2,4.3371582E1,2.3595734E1,4.7374268E1,9.567859E1,6.3571167E1,3.1933706E1,3.8374672E1,2.1149689E1,2.2283691E1,2.5696028E1,2.911244E1,1.791185E1,4.0164906E1,3.0362198E1,2.8572266E1,3.1127625E1,3.7158684E1,2.7005432E1,2.9906876E1,4.558136E1,5.1283836E1,3.5714752E1,4.0181824E1,4.1314697E1,3.6580917E1,6.567578E1,6.1626953E1,5.2783203E1,5.150122E1,7.081348E1,3.8305298E1,5.344922E1,0E0,0E0,0E0,0E0,0E0,0E0,0E0,0E0,0E0,0E0,0E0,0E0,0E0,0E0,0E0,0E0,0E0,0E0,0E0,0E0,0E0,0E0,0E0,0E0,0E0,0E0,0E0,0E0,0E0,0E0,0E0,0E0,0E0,0E0,0E0,0E0,0E0,0E0,0E0,0E0,0E0,0E0,0E0,0E0,0E0,0E0,0E0,0E0,0E0,0E0,0E0,0E0,0E0,0E0,0E0,0E0,0E0,0E0,0E0,0E0,0E0,0E0,0E0,0E0],"parents":[2147483647,0,0,1,1,2,2,3,3,4,4,5,5,6,6,7,7,8,8,9,9,10,10,11,11,12,12,13,13,14,14,15,15,16,16,17,17,18,18,19,19,20,20,21,21,22,22,23,23,24,24,25,25,26,26,27,27,28,28,29,29,30,30,31,31,32,32,33,33,34,34,35,35,36,36,37,37,38,38,39,39,40,40,41,41,42,42,43,43,44,44,45,45,46,46,47,47,48,48,49,49,50,50,51,51,52,52,53,53,54,54,55,55,56,56,57,57,58,58,59,59,60,60,61,61,62,62],"right_children":[2,4,6,8,10,12,14,16,18,20,22,24,26,28,30,32,34,36,38,40,42,44,46,48,50,52,54,56,58,60,62,64,66,68,70,72,74,76,78,80,82,84,86,88,90,92,94,96,98,100,102,104,106,108,110,112,114,116,118,120,122,124,126,-1,-1,-1,-1,-1,-1,-1,-1,-1,-1,-1,-1,-1,-1,-1,-1,-1,-1,-1,-1,-1,-1,-1,-1,-1,-1,-1,-1,-1,-1,-1,-1,-1,-1,-1,-1,-1,-1,-1,-1,-1,-1,-1,-1,-1,-1,-1,-1,-1,-1,-1,-1,-1,-1,-1,-1,-1,-1,-1,-1,-1,-1,-1,-1],"split_conditions":[5.090242E-1,5.090242E-1,8.7994474E-1,1.3810365E-1,5.090242E-1,5.090242E-1,1.6217859E0,-6.097401E-1,5.090242E-1,5.090242E-1,8.7994474E-1,5.090242E-1,8.7994474E-1,1.2508653E0,2.363627E0,1.3810365E-1,-2.3281689E-1,5.090242E-1,9.603841E-1,1.3810365E-1,1.2508653E0,8.7994474E-1,1.6217859E0,5.090242E-1,5.090242E-1,8.7994474E-1,1.6217859E0,5.090242E-1,1.9927064E0,1.9927064E0,1.9927064E0,-1.1873312E0,-6.037374E-1,1.3810365E-1,1.3810365E-1,1.3810365E-1,8.7994474E-1,5.090242E-1,1.2508653E0,-2.3281689E-1,-2.3281689E-1,1.4416018E0,1.9927064E0,1.3810365E-1,6.3957226E-1,1.3810365E-1,1.9927064E0,1.2508653E0,8.7994474E-1,1.2508653E0,1.6217859E0,8.7994474E-1,1.6217859E0,8.7994474E-1,1.6217859E0,1.3810365E-1,1.2508653E0,1.6217859E0,2.7345474E0,1.9927064E0,1.2508653E0,2.7345474E0,2.363627E0,-3.877786E-2,-3.2357533E-2,-3.0931994E-2,-1.8060716E-2,-2.7827531E-2,-1.880152E-2,-1.9692682E-2,-7.827255E-3,-2.0521674E-2,-8.857541E-3,-4.517145E-3,1.3734532E-2,-4.7032344E-3,1.0863121E-2,1.5180725E-2,3.479634E-2,-1.9925442E-2,-9.601647E-3,-8.582021E-3,5.8477107E-3,4.32288E-3,2.6642004E-2,2.5912708E-2,5.659088E-2,-1.9597458E-3,1.5295721E-2,1.5743049E-2,3.6572434E-2,1.4548902E-2,3.474645E-2,4.619005E-2,7.298821E-2,-1.2094189E-2,1.1874421E-3,1.9860868E-3,1.9324442E-2,5.6716445E-4,1.8045528E-2,1.9890515E-2,4.4016052E-2,5.515485E-3,2.4113394E-2,2.6055116E-2,4.603222E-2,2.5927354E-2,4.2270843E-2,4.9156077E-2,7.006264E-2,7.7680736E-3,2.5017435E-2,3.2617733E-2,4.9967088E-2,4.184803E-2,6.1272737E-2,6.7970626E-2,9.798169E-2,5.216032E-2,7.009139E-2,6.4362474E-2,9.1049574E-2,7.136899E-2,9.98119E-2,8.976283E-2,1.17999434E-1],"split_indices":[83,74,56,65,65,65,74,84,56,29,56,47,74,65,38,47,29,29,4,47,47,11,65,29,74,11,65,11,83,47,65,84,83,47,11,38,38,47,29,56,83,40,74,38,76,38,11,83,74,83,47,38,83,29,38,74,38,29,11,65,11,83,74,0,0,0,0,0,0,0,0,0,0,0,0,0,0,0,0,0,0,0,0,0,0,0,0,0,0,0,0,0,0,0,0,0,0,0,0,0,0,0,0,0,0,0,0,0,0,0,0,0,0,0,0,0,0,0,0,0,0,0,0,0,0,0,0],"split_type":[0,0,0,0,0,0,0,0,0,0,0,0,0,0,0,0,0,0,0,0,0,0,0,0,0,0,0,0,0,0,0,0,0,0,0,0,0,0,0,0,0,0,0,0,0,0,0,0,0,0,0,0,0,0,0,0,0,0,0,0,0,0,0,0,0,0,0,0,0,0,0,0,0,0,0,0,0,0,0,0,0,0,0,0,0,0,0,0,0,0,0,0,0,0,0,0,0,0,0,0,0,0,0,0,0,0,0,0,0,0,0,0,0,0,0,0,0,0,0,0,0,0,0,0,0,0,0],"sum_hessian":[7.0693E4,4.8084E4,2.2609E4,3.9454E4,8.63E3,1.1638E4,1.0971E4,3.0137E4,9.317E3,4.887E3,3.743E3,6.266E3,5.372E3,6.464E3,4.507E3,1.2106E4,1.8031E4,6.871E3,2.446E3,3.409E3,1.478E3,2.12E3,1.623E3,4.141E3,2.125E3,2.819E3,2.553E3,3.681E3,2.783E3,3.082E3,1.425E3,1.0644E4,1.462E3,1.0177E4,7.854E3,5.485E3,1.386E3,1.72E3,7.26E2,2.113E3,1.296E3,1.178E3,3E2,1.401E3,7.19E2,1.036E3,5.87E2,3.033E3,1.108E3,1.095E3,1.03E3,1.774E3,1.045E3,1.52E3,1.033E3,1.409E3,2.272E3,1.835E3,9.48E2,1.953E3,1.129E3,6.01E2,8.24E2,5.378E3,5.266E3,6.33E2,8.29E2,8.408E3,1.769E3,5.365E3,2.489E3,3.794E3,1.691E3,1.079E3,3.07E2,1.104E3,6.16E2,5.41E2,1.85E2,9.63E2,1.15E3,5.04E2,7.92E2,1.008E3,1.7E2,2.4E2,6E1,5.64E2,8.37E2,3.09E2,4.1E2,2.26E2,8.1E2,4.37E2,1.5E2,2.355E3,6.78E2,7.96E2,3.12E2,7.27E2,3.68E2,7.66E2,2.64E2,1.247E3,5.27E2,7.15E2,3.3E2,7.52E2,7.68E2,6.41E2,3.92E2,4.55E2,9.54E2,1.337E3,9.35E2,1.204E3,6.31E2,7.58E2,1.9E2,1.367E3,5.86E2,3.97E2,7.32E2,4.22E2,1.79E2,2.71E2,5.53E2],"tree_param":{"num_deleted":"0","num_feature":"90","num_nodes":"127","size_leaf_vector":"1"}},{"base_weights":[2.9762188E-4,-2.5364327E-1,8.541774E-1,-3.937797E-1,2.6720616E-1,5.968338E-1,1.3847079E0,-4.936512E-1,-1.0333172E-1,7.138682E-2,6.479422E-1,2.50217E-1,8.364175E-1,1.1937703E0,1.83718E0,-6.394164E-1,-3.8762137E-1,-2.1954428E-1,1.9185826E-1,-9.3575984E-2,3.473017E-1,4.0048736E-1,8.872497E-1,5.5045772E-2,5.0533473E-1,6.812272E-1,1.1722906E0,1.033489E0,1.5233688E0,1.5766447E0,2.165563E0,-6.877305E-1,-5.1119214E-1,-4.506394E-1,-1.981011E-1,-3.1940672E-1,-3.4861982E-2,7.5581074E-2,4.5529956E-1,-1.9396488E-1,1.4249165E-1,1.486884E-1,5.1312166E-1,2.9632524E-1,6.765082E-1,7.342639E-1,1.1783024E0,-7.4379064E-2,2.8289208E-1,2.8163958E-1,6.705875E-1,4.950174E-1,8.723417E-1,1.0111916E0,1.5068693E0,9.042007E-1,1.2365243E0,1.331676E0,1.8901502E0,1.424064E0,1.9809622E0,1.8715844E0,2.3903158E0,-3.7321042E-2,-3.1534445E-2,-2.7372306E-2,-1.25702E-2,-2.4669046E-2,-1.4692999E-2,-1.3261302E-2,1.2300032E-3,-2.1387117E-2,-1.0714207E-2,-5.1975595E-3,1.3336721E-2,-1.6807776E-3,1.3003563E-2,1.9124722E-2,4.8772294E-2,-1.4744192E-2,-1.9270184E-3,2.4126183E-4,1.8042516E-2,-1.8358118E-3,1.3325366E-2,2.277726E-2,4.274942E-2,7.7601927E-3,2.3766512E-2,2.4774747E-2,4.8078544E-2,2.33841E-2,4.2180654E-2,5.1444914E-2,7.26401E-2,-8.921268E-3,4.0621255E-3,3.652962E-3,2.0686103E-2,6.1378963E-3,2.2186648E-2,2.6109619E-2,4.3593112E-2,1.8138733E-2,3.439817E-2,3.4045044E-2,4.9901973E-2,4.738598E-2,7.408869E-2,6.659978E-2,9.726772E-2,3.759141E-2,5.52919E-2,6.081745E-2,1.22198164E-1,6.0055256E-2,8.567821E-2,7.4490786E-2,1.0453623E-1,6.373256E-2,8.747603E-2,7.5818E-2,1.07894175E-1,6.753989E-2,1.00241624E-1,1.2872313E-1,9.708919E-2],"categories":[],"categories_nodes":[],"categories_segments":[],"categories_sizes":[],"default_left":[0,0,0,0,0,0,0,0,0,0,0,0,0,0,0,0,0,0,0,0,0,0,0,0,0,0,0,0,0,0,0,0,0,0,0,0,0,0,0,0,0,0,0,0,0,0,0,0,0,0,0,0,0,0,0,0,0,0,0,0,0,0,0,0,0,0,0,0,0,0,0,0,0,0,0,0,0,0,0,0,0,0,0,0,0,0,0,0,0,0,0,0,0,0,0,0,0,0,0,0,0,0,0,0,0,0,0,0,0,0,0,0,0,0,0,0,0,0,0,0,0,0,0,0,0,0,0],"id":2,"left_children":[1,3,5,7,9,11,13,15,17,19,21,23,25,27,29,31,33,35,37,39,41,43,45,47,49,51,53,55,57,59,61,63,65,67,69,71,73,75,77,79,81,83,85,87,89,91,93,95,97,99,101,103,105,107,109,111,113,115,117,119,121,123,125,-1,-1,-1,-1,-1,-1,-1,-1,-1,-1,-1,-1,-1,-1,-1,-1,-1,-1,-1,-1,-1,-1,-1,-1,-1,-1,-1,-1,-1,-1,-1,-1,-1,-1,-1,-1,-1,-1,-1,-1,-1,-1,-1,-1,-1,-1,-1,-1,-1,-1,-1,-1,-1,-1,-1,-1,-1,-1,-1,-1,-1,-1,-1,-1],"loss_changes":[1.532243E4,3.9755774E3,2.210663E3,1.2449214E3,8.609205E2,9.0571484E2,4.5483105E2,4.9335254E2,3.7681152E2,3.471807E2,2.3189685E2,2.2204291E2,3.3540234E2,1.9510596E2,1.3073682E2,8.295361E1,2.2075244E2,1.4533679E2,9.501735E1,1.1316463E2,9.391748E1,5.528882E1,8.7877075E1,7.456916E1,7.126691E1,1.5665088E2,1.0827124E2,6.471704E1,8.297925E1,5.134375E1,4.1182373E1,3.2216797E1,3.455957E1,9.283789E1,6.901019E1,5.8160583E1,5.7683865E1,4.340259E1,3.5602753E1,5.2534325E1,4.2834694E1,2.8407215E1,3.0218323E1,3.5368027E1,2.6768402E1,3.7763428E1,2.6597961E1,2.613195E1,2.5116203E1,2.1140793E1,3.2728302E1,5.6854614E1,5.170703E1,3.9755005E1,4.8017212E1,4.6360596E1,2.072998E1,3.7932495E1,3.0208374E1,2.8940063E1,1.6290955E1,1.8387573E1,2.7048096E1,0E0,0E0,0E0,0E0,0E0,0E0,0E0,0E0,0E0,0E0,0E0,0E0,0E0,0E0,0E0,0E0,0E0,0E0,0E0,0E0,0E0,0E0,0E0,0E0,0E0,0E0,0E0,0E0,0E0,0E0,0E0,0E0,0E0,0E0,0E0,0E0,0E0,0E0,0E0,0E0,0E0,0E0,0E0,0E0,0E0,0E0,0E0,0E0,0E0,0E0,0E0,0E0,0E0,0E0,0E0,0E0,0E0,0E0,0E0,0E0,0E0,0E0,0E0,0E0],"parents":[2147483647,0,0,1,1,2,2,3,3,4,4,5,5,6,6,7,7,8,8,9,9,10,10,11,11,12,12,13,13,14,14,15,15,16,16,17,17,18,18,19,19,20,20,21,21,22,22,23,23,24,24,25,25,26,26,27,27,28,28,29,29,30,30,31,31,32,32,33,33,34,34,35,35,36,36,37,37,38,38,39,39,40,40,41,41,42,42,43,43,44,44,45,45,46,46,47,47,48,48,49,49,50,50,51,51,52,52,53,53,54,54,55,55,56,56,57,57,58,58,59,59,60,60,61,61,62,62],"right_children":[2,4,6,8,10,12,14,16,18,20,22,24,26,28,30,32,34,36,38,40,42,44,46,48,50,52,54,56,58,60,62,64,66,68,70,72,74,76,78,80,82,84,86,88,90,92,94,96,98,100,102,104,106,108,110,112,114,116,118,120,122,124,126,-1,-1,-1,-1,-1,-1,-1,-1,-1,-1,-1,-1,-1,-1,-1,-1,-1,-1,-1,-1,-1,-1,-1,-1,-1,-1,-1,-1,-1,-1,-1,-1,-1,-1,-1,-1,-1,-1,-1,-1,-1,-1,-1,-1,-1,-1,-1,-1,-1,-1,-1,-1,-1,-1,-1,-1,-1,-1,-1,-1,-1,-1,-1,-1],"split_conditions":[8.7994474E-1,5.090242E-1,1.6217859E0,1.3810365E-1,8.7994474E-1,5.090242E-1,2.363627E0,-5.245524E-1,5.090242E-1,5.090242E-1,8.7994474E-1,5.090242E-1,1.6217859E0,1.9927064E0,2.363627E0,-2.3281689E-1,1.3810365E-1,1.3810365E-1,8.7994474E-1,5.090242E-1,5.090242E-1,1.2508653E0,1.6217859E0,5.090242E-1,5.090242E-1,8.7994474E-1,1.9927064E0,1.6217859E0,2.363627E0,2.7345474E0,2.363627E0,-1.1873312E0,5.090242E-1,1.3810365E-1,5.090242E-1,-2.3281689E-1,8.7994474E-1,5.090242E-1,1.9927064E0,1.3810365E-1,6.3957226E-1,1.3810365E-1,1.9927064E0,6.9896734E-1,1.2508653E0,5.090242E-1,1.9927064E0,1.3810365E-1,1.3810365E-1,5.090242E-1,1.6217859E0,8.7994474E-1,8.7994474E-1,2.7345474E0,2.7345474E0,1.2508653E0,4.58915E0,2.363627E0,1.6217859E0,2.363627E0,7.8696334E-1,3.6910564E-1,6.268908E-1,-3.7321042E-2,-3.1534445E-2,-2.7372306E-2,-1.25702E-2,-2.4669046E-2,-1.4692999E-2,-1.3261302E-2,1.2300032E-3,-2.1387117E-2,-1.0714207E-2,-5.1975595E-3,1.3336721E-2,-1.6807776E-3,1.3003563E-2,1.9124722E-2,4.8772294E-2,-1.4744192E-2,-1.9270184E-3,2.4126183E-4,1.8042516E-2,-1.8358118E-3,1.3325366E-2,2.277726E-2,4.274942E-2,7.7601927E-3,2.3766512E-2,2.4774747E-2,4.8078544E-2,2.33841E-2,4.2180654E-2,5.1444914E-2,7.26401E-2,-8.921268E-3,4.0621255E-3,3.652962E-3,2.0686103E-2,6.1378963E-3,2.2186648E-2,2.6109619E-2,4.3593112E-2,1.8138733E-2,3.439817E-2,3.4045044E-2,4.9901973E-2,4.738598E-2,7.408869E-2,6.659978E-2,9.726772E-2,3.759141E-2,5.52919E-2,6.081745E-2,1.22198164E-1,6.0055256E-2,8.567821E-2,7.4490786E-2,1.0453623E-1,6.373256E-2,8.747603E-2,7.5818E-2,1.07894175E-1,6.753989E-2,1.00241624E-1,1.2872313E-1,9.708919E-2],"split_indices":[83,65,65,74,74,56,47,84,11,2,47,2,74,38,20,47,47,2,38,56,20,2,20,74,20,2,47,56,56,56,2,84,2,20,38,83,47,56,74,47,31,56,38,84,38,56,2,47,65,38,83,20,38,2,83,2,83,74,11,74,30,9,50,0,0,0,0,0,0,0,0,0,0,0,0,0,0,0,0,0,0,0,0,0,0,0,0,0,0,0,0,0,0,0,0,0,0,0,0,0,0,0,0,0,0,0,0,0,0,0,0,0,0,0,0,0,0,0,0,0,0,0,0,0,0,0,0],"split_type":[0,0,0,0,0,0,0,0,0,0,0,0,0,0,0,0,0,0,0,0,0,0,0,0,0,0,0,0,0,0,0,0,0,0,0,0,0,0,0,0,0,0,0,0,0,0,0,0,0,0,0,0,0,0,0,0,0,0,0,0,0,0,0,0,0,0,0,0,0,0,0,0,0,0,0,0,0,0,0,0,0,0,0,0,0,0,0,0,0,0,0,0,0,0,0,0,0,0,0,0,0,0,0,0,0,0,0,0,0,0,0,0,0,0,0,0,0,0,0,0,0,0,0,0,0,0,0],"sum_hessian":[7.0662E4,5.4465E4,1.6197E4,4.2918E4,1.1547E4,1.0908E4,5.289E3,3.1936E4,1.0982E4,7.626E3,3.921E3,4.459E3,6.449E3,3.722E3,1.567E3,1.3446E4,1.849E4,7.88E3,3.102E3,4.773E3,2.853E3,1.929E3,1.992E3,2.527E3,1.932E3,4.413E3,2.036E3,2.507E3,1.215E3,8.77E2,6.9E2,9.763E3,3.683E3,1.3875E4,4.615E3,5.114E3,2.766E3,2.153E3,9.49E2,3.349E3,1.424E3,1.299E3,1.554E3,1.402E3,5.27E2,1.308E3,6.84E2,1.612E3,9.15E2,8.22E2,1.11E3,2.237E3,2.176E3,1.377E3,6.59E2,1.535E3,9.72E2,8.01E2,4.14E2,6.4E2,2.37E2,3.03E2,3.87E2,4.806E3,4.957E3,3.231E3,4.52E2,1.0901E4,2.974E3,3.546E3,1.069E3,2.517E3,2.597E3,2.251E3,5.15E2,1.353E3,8E2,8.34E2,1.15E2,2.03E3,1.319E3,8.74E2,5.5E2,5.05E2,7.94E2,1.332E3,2.22E2,7.85E2,6.17E2,3.24E2,2.03E2,3.82E2,9.26E2,4.46E2,2.38E2,9.66E2,6.46E2,3.52E2,5.63E2,4.16E2,4.06E2,6.41E2,4.69E2,1.329E3,9.08E2,8.65E2,1.311E3,1.216E3,1.61E2,4.74E2,1.85E2,8.77E2,6.58E2,9.58E2,1.4E1,6E2,2.01E2,1.41E2,2.73E2,4.42E2,1.98E2,6.8E1,1.69E2,6.4E1,2.39E2,2.71E2,1.16E2],"tree_param":{"num_deleted":"0","num_feature":"90","num_nodes":"127","size_leaf_vector":"1"}},{"base_weights":[1.4299868E-3,-3.030475E-1,6.488647E-1,-4.4634795E-1,3.5256702E-2,3.5325518E-1,1.1392407E0,-5.142382E-1,-1.968372E-1,-1.4030507E-1,3.5951725E-1,1.4001642E-1,7.180998E-1,8.7607896E-1,1.4712226E0,-6.5655035E-1,-4.3599218E-1,-2.8089568E-1,7.8262225E-2,-2.3784629E-1,1.4632337E-1,1.9853316E-1,6.1535937E-1,-3.5179824E-2,4.0945137E-1,5.292363E-1,9.981597E-1,6.7788607E-1,1.1126406E0,1.2563232E0,1.8510141E0,-6.892001E-1,-5.5582327E-1,-5.062745E-1,-3.319832E-1,-3.5738853E-1,-1.16367504E-1,-2.1458348E-2,3.1323308E-1,-3.2574946E-1,-6.401964E-2,-6.493889E-2,3.1441516E-1,5.422329E-2,3.811371E-1,5.0161415E-1,8.9325255E-1,-1.1023493E-1,3.0612138E-1,2.6146385E-1,6.425109E-1,4.298166E-1,8.980073E-1,8.187106E-1,1.2159823E0,5.4239124E-1,9.1998726E-1,1.0298419E0,1.6158712E0,1.0652388E0,1.5676069E0,1.5939314E0,2.1417778E0,-3.6266636E-2,-3.1222632E-2,-2.9492829E-2,-1.9947354E-2,-2.6677236E-2,-1.7836438E-2,-1.8574923E-2,-5.5439468E-3,-2.6471019E-2,-1.5347992E-2,-1.1373659E-2,-3.02393E-5,-6.7312666E-3,9.149427E-3,1.15207005E-2,3.56065E-2,-1.9362591E-2,-8.048675E-3,-6.5346784E-3,1.0418009E-2,-7.7043967E-3,8.578216E-3,1.183479E-2,2.9347831E-2,-3.6832474E-3,9.564005E-3,1.18401395E-2,2.9880062E-2,1.827031E-2,3.2549452E-2,3.171938E-2,5.534501E-2,-1.099023E-2,2.3349323E-3,-1.5631112E-3,1.9252058E-2,5.5886963E-3,2.186655E-2,2.6248066E-2,4.3369025E-2,7.431409E-3,2.625019E-2,3.7716944E-2,5.828262E-2,2.4855109E-2,4.6211075E-2,5.414487E-2,7.91013E-2,1.9429019E-2,3.4842487E-2,3.7181567E-2,5.6175627E-2,4.5224246E-2,6.304216E-2,6.914194E-2,9.751325E-2,4.3690797E-2,6.044522E-2,6.764242E-2,9.0475045E-2,6.333681E-2,8.8440254E-2,7.999324E-2,1.1161561E-1],"categories":[],"categories_nodes":[],"categories_segments":[],"categories_sizes":[],"default_left":[0,0,0,0,0,0,0,0,0,0,0,0,0,0,0,0,0,0,0,0,0,0,0,0,0,0,0,0,0,0,0,0,0,0,0,0,0,0,0,0,0,0,0,0,0,0,0,0,0,0,0,0,0,0,0,0,0,0,0,0,0,0,0,0,0,0,0,0,0,0,0,0,0,0,0,0,0,0,0,0,0,0,0,0,0,0,0,0,0,0,0,0,0,0,0,0,0,0,0,0,0,0,0,0,0,0,0,0,0,0,0,0,0,0,0,0,0,0,0,0,0,0,0,0,0,0,0],"id":3,"left_children":[1,3,5,7,9,11,13,15,17,19,21,23,25,27,29,31,33,35,37,39,41,43,45,47,49,51,53,55,57,59,61,63,65,67,69,71,73,75,77,79,81,83,85,87,89,91,93,95,97,99,101,103,105,107,109,111,113,115,117,119,121,123,125,-1,-1,-1,-1,-1,-1,-1,-1,-1,-1,-1,-1,-1,-1,-1,-1,-1,-1,-1,-1,-1,-1,-1,-1,-1,-1,-1,-1,-1,-1,-1,-1,-1,-1,-1,-1,-1,-1,-1,-1,-1,-1,-1,-1,-1,-1,-1,-1,-1,-1,-1,-1,-1,-1,-1,-1,-1,-1,-1,-1,-1,-1,-1,-1],"loss_changes":[1.3903135E4,2.3255117E3,3.269746E3,5.706875E2,8.1263715E2,1.0949982E3,7.39916E2,2.946665E2,1.6672607E2,2.5895465E2,2.0638696E2,4.194219E2,2.7409302E2,2.2124536E2,3.037378E2,3.0514404E1,1.2478906E2,6.945404E1,3.9558975E1,1.05563354E2,8.354334E1,8.111577E1,6.074707E1,1.3797806E2,1.20581116E2,1.1337958E2,8.069824E1,8.41012E1,8.821118E1,1.4096655E2,9.7723145E1,1.6136475E1,1.2071106E1,4.1402344E1,6.0209045E1,3.253488E1,2.2559624E1,2.7464684E1,1.645316E1,4.6443085E1,4.2196224E1,2.2017082E1,2.7609146E1,3.0179699E1,4.2317993E1,2.77583E1,3.0324371E1,7.5926895E1,2.586612E1,5.6366745E1,3.546759E1,6.53905E1,2.4422241E1,3.8529785E1,4.4176147E1,3.9071472E1,3.232953E1,5.2575928E1,2.0914246E1,3.989258E1,4.482544E1,3.90708E1,2.7435791E1,0E0,0E0,0E0,0E0,0E0,0E0,0E0,0E0,0E0,0E0,0E0,0E0,0E0,0E0,0E0,0E0,0E0,0E0,0E0,0E0,0E0,0E0,0E0,0E0,0E0,0E0,0E0,0E0,0E0,0E0,0E0,0E0,0E0,0E0,0E0,0E0,0E0,0E0,0E0,0E0,0E0,0E0,0E0,0E0,0E0,0E0,0E0,0E0,0E0,0E0,0E0,0E0,0E0,0E0,0E0,0E0,0E0,0E0,0E0,0E0,0E0,0E0,0E0,0E0],"parents":[2147483647,0,0,1,1,2,2,3,3,4,4,5,5,6,6,7,7,8,8,9,9,10,10,11,11,12,12,13,13,14,14,15,15,16,16,17,17,18,18,19,19,20,20,21,21,22,22,23,23,24,24,25,25,26,26,27,27,28,28,29,29,30,30,31,31,32,32,33,33,34,34,35,35,36,36,37,37,38,38,39,39,40,40,41,41,42,42,43,43,44,44,45,45,46,46,47,47,48,48,49,49,50,50,51,51,52,52,53,53,54,54,55,55,56,56,57,57,58,58,59,59,60,60,61,61,62,62],"right_children":[2,4,6,8,10,12,14,16,18,20,22,24,26,28,30,32,34,36,38,40,42,44,46,48,50,52,54,56,58,60,62,64,66,68,70,72,74,76,78,80,82,84,86,88,90,92,94,96,98,100,102,104,106,108,110,112,114,116,118,120,122,124,126,-1,-1,-1,-1,-1,-1,-1,-1,-1,-1,-1,-1,-1,-1,-1,-1,-1,-1,-1,-1,-1,-1,-1,-1,-1,-1,-1,-1,-1,-1,-1,-1,-1,-1,-1,-1,-1,-1,-1,-1,-1,-1,-1,-1,-1,-1,-1,-1,-1,-1,-1,-1,-1,-1,-1,-1,-1,-1,-1,-1,-1,-1,-1,-1],"split_conditions":[5.090242E-1,1.3810365E-1,1.2508653E0,1.3810365E-1,5.090242E-1,8.7994474E-1,1.6217859E0,-8.091354E-1,5.090242E-1,5.090242E-1,8.7994474E-1,5.090242E-1,1.2508653E0,1.2508653E0,2.363627E0,-2.3281689E-1,-2.3281689E-1,1.3810365E-1,8.7589556E-1,1.3810365E-1,1.3810365E-1,5.090242E-1,1.6217859E0,8.7994474E-1,8.7994474E-1,1.6217859E0,1.6217859E0,1.2508653E0,2.7345474E0,1.9927064E0,2.363627E0,-6.037374E-1,1.3810365E-1,1.3810365E-1,5.090242E-1,-7.192671E-1,2.7022055E-1,5.090242E-1,1.6217859E0,1.3810365E-1,1.12079E0,1.3810365E-1,1.2508653E0,3.1876045E-1,8.7994474E-1,8.7994474E-1,1.2508653E0,1.3810365E-1,-2.3281689E-1,5.090242E-1,1.6217859E0,1.3810365E-1,1.6217859E0,5.090242E-1,2.363627E0,1.2508653E0,1.2508653E0,1.9927064E0,2.363627E0,1.2508653E0,1.9927064E0,8.075582E-1,2.59545E-1,-3.6266636E-2,-3.1222632E-2,-2.9492829E-2,-1.9947354E-2,-2.6677236E-2,-1.7836438E-2,-1.8574923E-2,-5.5439468E-3,-2.6471019E-2,-1.5347992E-2,-1.1373659E-2,-3.02393E-5,-6.7312666E-3,9.149427E-3,1.15207005E-2,3.56065E-2,-1.9362591E-2,-8.048675E-3,-6.5346784E-3,1.0418009E-2,-7.7043967E-3,8.578216E-3,1.183479E-2,2.9347831E-2,-3.6832474E-3,9.564005E-3,1.18401395E-2,2.9880062E-2,1.827031E-2,3.2549452E-2,3.171938E-2,5.534501E-2,-1.099023E-2,2.3349323E-3,-1.5631112E-3,1.9252058E-2,5.5886963E-3,2.186655E-2,2.6248066E-2,4.3369025E-2,7.431409E-3,2.625019E-2,3.7716944E-2,5.828262E-2,2.4855109E-2,4.6211075E-2,5.414487E-2,7.91013E-2,1.9429019E-2,3.4842487E-2,3.7181567E-2,5.6175627E-2,4.5224246E-2,6.304216E-2,6.914194E-2,9.751325E-2,4.3690797E-2,6.044522E-2,6.764242E-2,9.0475045E-2,6.333681E-2,8.8440254E-2,7.999324E-2,1.1161561E-1],"split_indices":[83,74,74,56,29,47,47,84,11,56,47,20,29,56,83,11,47,29,21,47,38,38,11,56,38,11,83,38,29,20,29,83,38,29,11,84,84,29,2,20,76,29,47,67,56,20,74,38,29,2,20,56,56,2,38,83,29,83,11,38,2,21,36,0,0,0,0,0,0,0,0,0,0,0,0,0,0,0,0,0,0,0,0,0,0,0,0,0,0,0,0,0,0,0,0,0,0,0,0,0,0,0,0,0,0,0,0,0,0,0,0,0,0,0,0,0,0,0,0,0,0,0,0,0,0,0,0],"split_type":[0,0,0,0,0,0,0,0,0,0,0,0,0,0,0,0,0,0,0,0,0,0,0,0,0,0,0,0,0,0,0,0,0,0,0,0,0,0,0,0,0,0,0,0,0,0,0,0,0,0,0,0,0,0,0,0,0,0,0,0,0,0,0,0,0,0,0,0,0,0,0,0,0,0,0,0,0,0,0,0,0,0,0,0,0,0,0,0,0,0,0,0,0,0,0,0,0,0,0,0,0,0,0,0,0,0,0,0,0,0,0,0,0,0,0,0,0,0,0,0,0,0,0,0,0,0,0],"sum_hessian":[7.0526E4,4.7968E4,2.2558E4,3.3695E4,1.4273E4,1.4075E4,8.483E3,2.6487E4,7.208E3,9.26E3,5.013E3,8.884E3,5.191E3,4.734E3,3.749E3,9.394E3,1.7093E4,5.521E3,1.687E3,6.909E3,2.351E3,3.078E3,1.935E3,5.384E3,3.5E3,3.102E3,2.089E3,2.578E3,2.156E3,2.397E3,1.352E3,7.09E3,2.304E3,1.0198E4,6.895E3,3.768E3,1.753E3,1.185E3,5.02E2,4.588E3,2.321E3,1.042E3,1.309E3,1.72E3,1.358E3,1.375E3,5.6E2,4.414E3,9.7E2,2.142E3,1.358E3,2.445E3,6.57E2,1.148E3,9.41E2,1.655E3,9.23E2,1.854E3,3.02E2,1.488E3,9.09E2,7.21E2,6.31E2,4.544E3,2.546E3,1.891E3,4.13E2,8.623E3,1.575E3,5.849E3,1.046E3,8.52E2,2.916E3,8.94E2,8.59E2,7.63E2,4.22E2,4.17E2,8.5E1,3.34E3,1.248E3,1.865E3,4.56E2,7.57E2,2.85E2,1.02E3,2.89E2,8.9E2,8.3E2,8.16E2,5.42E2,7.21E2,6.54E2,2.55E2,3.05E2,2.599E3,1.815E3,1.84E2,7.86E2,1.158E3,9.84E2,8.94E2,4.64E2,6.19E2,1.826E3,4.3E2,2.27E2,2.85E2,8.63E2,6.93E2,2.48E2,8.31E2,8.24E2,4.97E2,4.26E2,1.205E3,6.49E2,1.81E2,1.21E2,6.41E2,8.47E2,4.85E2,4.24E2,2.54E2,4.67E2,9.3E1,5.38E2],"tree_param":{"num_deleted":"0","num_feature":"90","num_nodes":"127","size_leaf_vector":"1"}},{"base_weights":[-7.762254E-4,-2.836729E-1,6.018971E-1,-4.2181423E-1,3.993105E-2,2.5352168E-1,9.6157265E-1,-5.3321445E-1,-2.7007404E-1,-1.3162689E-1,3.6230645E-1,7.219346E-2,6.0927534E-1,7.7924126E-1,1.397749E0,-5.708185E-1,-3.2822964E-1,-3.2657325E-1,1.6089048E-2,-2.2270784E-1,1.4109102E-1,1.9018675E-1,6.409541E-1,-7.588396E-2,3.1588766E-1,4.8397896E-1,9.4644433E-1,6.2194806E-1,1.1076618E0,1.1493258E0,1.7043083E0,-6.1337173E-1,-4.5829856E-1,-3.9346337E-1,-1.6350628E-1,-3.6485282E-1,-8.1086084E-2,-1.0341299E-1,2.4400826E-1,-3.4049943E-1,-1.0000344E-1,3.536288E-2,4.2325246E-1,5.5403423E-2,3.74362E-1,4.067922E-1,8.518312E-1,-2.157967E-1,9.378838E-2,2.1086189E-1,6.445643E-1,3.126723E-1,6.801713E-1,8.599201E-1,1.4587033E0,3.836654E-1,7.4366385E-1,9.315649E-1,1.3758823E0,9.4347805E-1,1.3819768E0,1.4651731E0,1.9635844E0,-3.372969E-2,-2.8092995E-2,-2.5041346E-2,-1.5209868E-2,-2.4809789E-2,-1.508558E-2,-8.875101E-3,2.9161904E-2,-2.1689981E-2,-1.3975496E-2,-7.097414E-3,1.3333675E-2,-7.4952166E-3,8.084655E-3,5.8499235E-3,2.6567852E-2,-2.164693E-2,-1.2313006E-2,-8.298566E-3,5.58894E-3,-2.9127763E-3,1.0207761E-2,9.392258E-3,2.8566334E-2,-8.482361E-3,6.5779425E-3,1.1485918E-2,2.9947251E-2,1.4685345E-2,3.4955498E-2,3.8258817E-2,6.7762144E-2,-2.0556703E-2,-7.817009E-3,-3.1373513E-4,1.4598474E-2,3.2535878E-3,1.8414326E-2,2.3253642E-2,4.1858654E-2,8.673265E-3,2.5421996E-2,1.6108654E-2,3.69776E-2,3.7869602E-2,5.8184125E-2,4.699429E-2,8.258815E-2,5.211119E-3,2.4414819E-2,2.635678E-2,4.1862246E-2,3.6157545E-2,5.5560466E-2,6.041315E-2,8.6331464E-2,3.9315306E-2,5.4179948E-2,5.8959376E-2,8.71419E-2,6.383128E-2,9.132402E-2,8.3127156E-2,1.108885E-1],"categories":[],"categories_nodes":[],"categories_segments":[],"categories_sizes":[],"default_left":[0,0,0,0,0,0,0,0,0,0,0,0,0,0,0,0,0,0,0,0,0,0,0,0,0,0,0,0,0,0,0,0,0,0,0,0,0,0,0,0,0,0,0,0,0,0,0,0,0,0,0,0,0,0,0,0,0,0,0,0,0,0,0,0,0,0,0,0,0,0,0,0,0,0,0,0,0,0,0,0,0,0,0,0,0,0,0,0,0,0,0,0,0,0,0,0,0,0,0,0,0,0,0,0,0,0,0,0,0,0,0,0,0,0,0,0,0,0,0,0,0,0,0,0,0,0,0],"id":4,"left_children":[1,3,5,7,9,11,13,15,17,19,21,23,25,27,29,31,33,35,37,39,41,43,45,47,49,51,53,55,57,59,61,63,65,67,69,71,73,75,77,79,81,83,85,87,89,91,93,95,97,99,101,103,105,107,109,111,113,115,117,119,121,123,125,-1,-1,-1,-1,-1,-1,-1,-1,-1,-1,-1,-1,-1,-1,-1,-1,-1,-1,-1,-1,-1,-1,-1,-1,-1,-1,-1,-1,-1,-1,-1,-1,-1,-1,-1,-1,-1,-1,-1,-1,-1,-1,-1,-1,-1,-1,-1,-1,-1,-1,-1,-1,-1,-1,-1,-1,-1,-1,-1,-1,-1,-1,-1,-1],"loss_changes":[1.204849E4,2.1499219E3,2.8284517E3,5.6960156E2,7.958466E2,7.398004E2,8.8223535E2,1.4962305E2,2.3073877E2,2.333231E2,2.3958594E2,2.7420245E2,1.6311865E2,4.040537E2,2.4730078E2,7.834424E1,3.2333405E1,1.11965454E2,6.4140686E1,1.0173337E2,7.015085E1,7.670946E1,9.386932E1,1.12236015E2,9.900415E1,9.473297E1,4.5195984E1,1.5342944E2,1.1850073E2,8.5426025E1,8.783252E1,3.718701E1,2.9404785E1,2.0200745E1,9.060232E0,6.0544067E1,3.4093002E1,1.9066568E1,2.9499687E1,3.1184723E1,4.8217884E1,2.7065037E1,2.2236496E1,3.0632263E1,4.228717E1,2.9744156E1,4.271698E1,3.0027817E1,4.2379852E1,4.9963226E1,2.363794E1,4.1062668E1,2.7737488E1,2.7117249E1,1.3471924E1,5.24028E1,7.062085E1,5.6629883E1,5.688208E1,2.0378235E1,6.000049E1,4.9782837E1,4.9800537E1,0E0,0E0,0E0,0E0,0E0,0E0,0E0,0E0,0E0,0E0,0E0,0E0,0E0,0E0,0E0,0E0,0E0,0E0,0E0,0E0,0E0,0E0,0E0,0E0,0E0,0E0,0E0,0E0,0E0,0E0,0E0,0E0,0E0,0E0,0E0,0E0,0E0,0E0,0E0,0E0,0E0,0E0,0E0,0E0,0E0,0E0,0E0,0E0,0E0,0E0,0E0,0E0,0E0,0E0,0E0,0E0,0E0,0E0,0E0,0E0,0E0,0E0,0E0,0E0],"parents":[2147483647,0,0,1,1,2,2,3,3,4,4,5,5,6,6,7,7,8,8,9,9,10,10,11,11,12,12,13,13,14,14,15,15,16,16,17,17,18,18,19,19,20,20,21,21,22,22,23,23,24,24,25,25,26,26,27,27,28,28,29,29,30,30,31,31,32,32,33,33,34,34,35,35,36,36,37,37,38,38,39,39,40,40,41,41,42,42,43,43,44,44,45,45,46,46,47,47,48,48,49,49,50,50,51,51,52,52,53,53,54,54,55,55,56,56,57,57,58,58,59,59,60,60,61,61,62,62],"right_children":[2,4,6,8,10,12,14,16,18,20,22,24,26,28,30,32,34,36,38,40,42,44,46,48,50,52,54,56,58,60,62,64,66,68,70,72,74,76,78,80,82,84,86,88,90,92,94,96,98,100,102,104,106,108,110,112,114,116,118,120,122,124,126,-1,-1,-1,-1,-1,-1,-1,-1,-1,-1,-1,-1,-1,-1,-1,-1,-1,-1,-1,-1,-1,-1,-1,-1,-1,-1,-1,-1,-1,-1,-1,-1,-1,-1,-1,-1,-1,-1,-1,-1,-1,-1,-1,-1,-1,-1,-1,-1,-1,-1,-1,-1,-1,-1,-1,-1,-1,-1,-1,-1,-1,-1,-1,-1],"split_conditions":[5.090242E-1,1.3810365E-1,8.7994474E-1,-4.8063077E-2,5.090242E-1,8.7994474E-1,1.9927064E0,1.3810365E-1,5.090242E-1,5.090242E-1,8.7994474E-1,5.090242E-1,1.6217859E0,1.6217859E0,1.9927064E0,-2.3281689E-1,1.3810365E-1,5.090242E-1,5.090242E-1,-2.0513358E-3,8.7994474E-1,8.7994474E-1,8.7994474E-1,1.3810365E-1,1.2508653E0,8.7994474E-1,2.7345474E0,5.090242E-1,1.9927064E0,1.6217859E0,2.363627E0,-1.0478481E0,1.3810365E-1,-6.436749E-1,2.363627E0,-2.3281689E-1,8.7994474E-1,8.7994474E-1,8.7994474E-1,-2.3281689E-1,5.090242E-1,5.090242E-1,1.4998434E-1,-2.3281689E-1,8.7994474E-1,1.2508653E0,2.363627E0,-4.3842858E-1,7.9997814E-1,5.090242E-1,8.7994474E-1,7.9997814E-1,-2.465987E-2,1.7624135E0,5.314003E-1,2.7022055E-1,5.090242E-1,1.2508653E0,2.363627E0,1.2508653E0,2.363627E0,2.7345474E0,2.363627E0,-3.372969E-2,-2.8092995E-2,-2.5041346E-2,-1.5209868E-2,-2.4809789E-2,-1.508558E-2,-8.875101E-3,2.9161904E-2,-2.1689981E-2,-1.3975496E-2,-7.097414E-3,1.3333675E-2,-7.4952166E-3,8.084655E-3,5.8499235E-3,2.6567852E-2,-2.164693E-2,-1.2313006E-2,-8.298566E-3,5.58894E-3,-2.9127763E-3,1.0207761E-2,9.392258E-3,2.8566334E-2,-8.482361E-3,6.5779425E-3,1.1485918E-2,2.9947251E-2,1.4685345E-2,3.4955498E-2,3.8258817E-2,6.7762144E-2,-2.0556703E-2,-7.817009E-3,-3.1373513E-4,1.4598474E-2,3.2535878E-3,1.8414326E-2,2.3253642E-2,4.1858654E-2,8.673265E-3,2.5421996E-2,1.6108654E-2,3.69776E-2,3.7869602E-2,5.8184125E-2,4.699429E-2,8.258815E-2,5.211119E-3,2.4414819E-2,2.635678E-2,4.1862246E-2,3.6157545E-2,5.5560466E-2,6.041315E-2,8.6331464E-2,3.9315306E-2,5.4179948E-2,5.8959376E-2,8.71419E-2,6.383128E-2,9.132402E-2,8.3127156E-2,1.108885E-1],"split_indices":[65,74,74,84,2,29,47,29,38,38,47,47,11,38,29,56,56,56,2,85,56,74,29,11,38,56,65,56,65,11,65,84,47,76,56,20,20,56,47,56,20,11,81,29,11,20,74,84,85,56,11,85,84,58,84,84,11,56,11,20,38,74,56,0,0,0,0,0,0,0,0,0,0,0,0,0,0,0,0,0,0,0,0,0,0,0,0,0,0,0,0,0,0,0,0,0,0,0,0,0,0,0,0,0,0,0,0,0,0,0,0,0,0,0,0,0,0,0,0,0,0,0,0,0,0,0,0],"split_type":[0,0,0,0,0,0,0,0,0,0,0,0,0,0,0,0,0,0,0,0,0,0,0,0,0,0,0,0,0,0,0,0,0,0,0,0,0,0,0,0,0,0,0,0,0,0,0,0,0,0,0,0,0,0,0,0,0,0,0,0,0,0,0,0,0,0,0,0,0,0,0,0,0,0,0,0,0,0,0,0,0,0,0,0,0,0,0,0,0,0,0,0,0,0,0,0,0,0,0,0,0,0,0,0,0,0,0,0,0,0,0,0,0,0,0,0,0,0,0,0,0,0,0,0,0,0,0],"sum_hessian":[7.0666E4,4.8092E4,2.2574E4,3.3704E4,1.4388E4,1.1468E4,1.1106E4,1.9434E4,1.427E4,9.391E3,4.997E3,7.597E3,3.871E3,7.834E3,3.272E3,1.642E4,3.014E3,1.1917E4,2.353E3,7.04E3,2.351E3,3.09E3,1.907E3,4.726E3,2.871E3,2.824E3,1.047E3,5.299E3,2.535E3,1.81E3,1.462E3,1.1911E4,4.509E3,2.158E3,8.56E2,1.0309E4,1.608E3,1.544E3,8.09E2,3.591E3,3.449E3,1.711E3,6.4E2,1.785E3,1.305E3,9.05E2,1.002E3,2.59E3,2.136E3,2.177E3,6.94E2,1.509E3,1.315E3,8.98E2,1.49E2,1.793E3,3.506E3,1.533E3,1.002E3,9.63E2,8.47E2,7.64E2,6.98E2,5.437E3,6.474E3,3.532E3,9.77E2,1.016E3,1.142E3,8.41E2,1.5E1,5.7E3,4.609E3,1.369E3,2.39E2,1.314E3,2.3E2,5.62E2,2.47E2,1.811E3,1.78E3,2.63E3,8.19E2,1.101E3,6.1E2,2.48E2,3.92E2,4.51E2,1.334E3,7.95E2,5.1E2,6.54E2,2.51E2,8.57E2,1.45E2,6.03E2,1.987E3,1.42E3,7.16E2,1.131E3,1.046E3,3.61E2,3.33E2,8.83E2,6.26E2,1.88E2,1.127E3,6.74E2,2.24E2,4.2E1,1.07E2,4.89E2,1.304E3,1.06E3,2.446E3,7.12E2,8.21E2,6.81E2,3.21E2,4.57E2,5.06E2,5.45E2,3.02E2,5.05E2,2.59E2,3.23E2,3.75E2],"tree_param":{"num_deleted":"0","num_feature":"90","num_nodes":"127","size_leaf_vector":"1"}},{"base_weights":[1.8938038E-3,-2.1833946E-1,7.373414E-1,-3.403636E-1,2.253597E-1,5.244815E-1,1.1933743E0,-4.2697707E-1,-9.005865E-2,6.100305E-2,5.4054224E-1,3.0181414E-1,7.925166E-1,1.0236605E0,1.6000811E0,-5.3608984E-1,-3.234704E-1,-1.9373031E-1,1.760917E-1,-1.3404042E-1,2.2437057E-1,4.287321E-1,8.5851675E-1,1.0869078E-1,5.238297E-1,6.533865E-1,1.0655515E0,9.065252E-1,1.3894118E0,1.2124945E0,1.7836661E0,-5.804431E-1,-4.2397714E-1,-3.8159156E-1,-1.564734E-1,-3.4031337E-1,-9.4228655E-2,7.178836E-2,4.2041054E-1,-3.0765298E-1,-9.60207E-3,1.0334415E-1,4.563221E-1,2.7034432E-1,6.0154134E-1,3.1164923E-1,9.1940105E-1,-4.1630868E-2,2.5021082E-1,4.0806067E-1,7.7735025E-1,4.7840124E-1,8.1360674E-1,8.23359E-1,1.2043396E0,7.8821236E-1,1.0950856E0,1.1942568E0,1.6162341E0,9.9107337E-1,1.5562469E0,1.7254608E0,2.5693164E0,-3.3149097E-2,-2.6976286E-2,-2.376674E-2,-1.1984473E-2,-2.212487E-2,-1.4905999E-2,-1.2354645E-2,2.9387895E-4,-2.0927858E-2,-1.1100102E-2,-9.49979E-3,3.852971E-3,-5.465453E-4,1.4413354E-2,1.53166875E-2,3.5790443E-2,-2.3320466E-2,-1.1574274E-2,-4.399499E-3,8.682986E-3,1.64306E-4,1.2487943E-2,1.2459098E-2,3.0759841E-2,6.8142004E-3,2.185945E-2,1.3014691E-2,3.410838E-2,4.812367E-2,6.486865E-3,4.2778343E-2,7.2288804E-2,-1.492917E-2,2.1412673E-3,6.2682587E-3,2.0263018E-2,1.4128326E-2,3.15368E-2,1.112138E-2,4.1320104E-2,1.51093695E-2,3.0180996E-2,3.6933433E-2,5.3171366E-2,3.194813E-2,4.8644792E-2,5.6910228E-2,9.2636324E-2,3.3276267E-2,4.7796868E-2,5.0213546E-2,6.787285E-2,4.1558765E-2,6.56653E-2,7.206181E-2,9.640024E-2,3.8117807E-2,5.869318E-2,5.9805084E-2,9.575808E-2,8.028155E-2,1.022257E-1,1.0110239E-1,1.5215878E-1],"categories":[],"categories_nodes":[],"categories_segments":[],"categories_sizes":[],"default_left":[0,0,0,0,0,0,0,0,0,0,0,0,0,0,0,0,0,0,0,0,0,0,0,0,0,0,0,0,0,0,0,0,0,0,0,0,0,0,0,0,0,0,0,0,0,0,0,0,0,0,0,0,0,0,0,0,0,0,0,0,0,0,0,0,0,0,0,0,0,0,0,0,0,0,0,0,0,0,0,0,0,0,0,0,0,0,0,0,0,0,0,0,0,0,0,0,0,0,0,0,0,0,0,0,0,0,0,0,0,0,0,0,0,0,0,0,0,0,0,0,0,0,0,0,0,0,0],"id":5,"left_children":[1,3,5,7,9,11,13,15,17,19,21,23,25,27,29,31,33,35,37,39,41,43,45,47,49,51,53,55,57,59,61,63,65,67,69,71,73,75,77,79,81,83,85,87,89,91,93,95,97,99,101,103,105,107,109,111,113,115,117,119,121,123,125,-1,-1,-1,-1,-1,-1,-1,-1,-1,-1,-1,-1,-1,-1,-1,-1,-1,-1,-1,-1,-1,-1,-1,-1,-1,-1,-1,-1,-1,-1,-1,-1,-1,-1,-1,-1,-1,-1,-1,-1,-1,-1,-1,-1,-1,-1,-1,-1,-1,-1,-1,-1,-1,-1,-1,-1,-1,-1,-1,-1,-1,-1,-1,-1],"loss_changes":[1.1424878E4,2.939013E3,1.5772666E3,9.2295654E2,6.065207E2,6.6128345E2,3.5535205E2,3.5704102E2,3.0205887E2,2.4528549E2,1.423053E2,2.5960248E2,1.9034229E2,1.5520093E2,1.0606421E2,7.631201E1,1.5750842E2,1.14870575E2,7.817797E1,7.5805695E1,1.1754756E2,8.115619E1,3.4440796E1,6.8936646E1,8.236127E1,9.3083374E1,5.6016968E1,6.091089E1,3.720044E1,3.590576E1,4.2667725E1,3.6890137E1,4.1227295E1,6.10885E1,6.1689552E1,2.9391052E1,7.701393E1,3.853893E1,3.0715576E1,1.7606918E1,2.9392746E1,4.0345192E1,4.7104492E1,3.465438E1,3.8891724E1,1.2424753E1,3.0280579E1,3.4127125E1,3.2256462E1,5.392224E1,2.382428E1,3.5033752E1,3.1770508E1,1.6501831E1,4.4031128E1,3.4448853E1,2.4012573E1,1.9612976E1,1.9372437E1,1.17309265E1,2.2398193E1,3.3496338E1,1.1740204E1,0E0,0E0,0E0,0E0,0E0,0E0,0E0,0E0,0E0,0E0,0E0,0E0,0E0,0E0,0E0,0E0,0E0,0E0,0E0,0E0,0E0,0E0,0E0,0E0,0E0,0E0,0E0,0E0,0E0,0E0,0E0,0E0,0E0,0E0,0E0,0E0,0E0,0E0,0E0,0E0,0E0,0E0,0E0,0E0,0E0,0E0,0E0,0E0,0E0,0E0,0E0,0E0,0E0,0E0,0E0,0E0,0E0,0E0,0E0,0E0,0E0,0E0,0E0,0E0],"parents":[2147483647,0,0,1,1,2,2,3,3,4,4,5,5,6,6,7,7,8,8,9,9,10,10,11,11,12,12,13,13,14,14,15,15,16,16,17,17,18,18,19,19,20,20,21,21,22,22,23,23,24,24,25,25,26,26,27,27,28,28,29,29,30,30,31,31,32,32,33,33,34,34,35,35,36,36,37,37,38,38,39,39,40,40,41,41,42,42,43,43,44,44,45,45,46,46,47,47,48,48,49,49,50,50,51,51,52,52,53,53,54,54,55,55,56,56,57,57,58,58,59,59,60,60,61,61,62,62],"right_children":[2,4,6,8,10,12,14,16,18,20,22,24,26,28,30,32,34,36,38,40,42,44,46,48,50,52,54,56,58,60,62,64,66,68,70,72,74,76,78,80,82,84,86,88,90,92,94,96,98,100,102,104,106,108,110,112,114,116,118,120,122,124,126,-1,-1,-1,-1,-1,-1,-1,-1,-1,-1,-1,-1,-1,-1,-1,-1,-1,-1,-1,-1,-1,-1,-1,-1,-1,-1,-1,-1,-1,-1,-1,-1,-1,-1,-1,-1,-1,-1,-1,-1,-1,-1,-1,-1,-1,-1,-1,-1,-1,-1,-1,-1,-1,-1,-1,-1,-1,-1,-1,-1,-1,-1,-1,-1],"split_conditions":[8.7994474E-1,5.090242E-1,1.6217859E0,1.3810365E-1,8.7994474E-1,8.7994474E-1,2.363627E0,-3.3264607E-1,5.090242E-1,1.3810365E-1,1.6217859E0,5.090242E-1,1.9927064E0,2.363627E0,1.6217859E0,-2.3281689E-1,1.3810365E-1,-2.3281689E-1,8.7994474E-1,-2.3281689E-1,8.7994474E-1,8.7994474E-1,-2.3281689E-1,1.3810365E-1,1.2508653E0,8.7994474E-1,8.7994474E-1,1.9927064E0,1.9927064E0,2.363627E0,4.58915E0,-1.3736207E0,1.3810365E-1,-2.3281689E-1,1.3810365E-1,-2.0513358E-3,1.3810365E-1,8.7994474E-1,1.2508653E0,-6.436749E-1,5.882269E-1,5.090242E-1,4.7916636E-1,7.9997814E-1,-6.397726E-2,-8.299761E-1,3.105468E0,-4.8326904E-1,5.090242E-1,1.6217859E0,2.9635571E-2,5.090242E-1,2.363627E0,8.908736E-1,3.4763885E0,1.2508653E0,1.6838334E0,8.7994474E-1,2.7345474E0,1.6217859E0,1.9927064E0,3.4763885E0,-2.3056392E-1,-3.3149097E-2,-2.6976286E-2,-2.376674E-2,-1.1984473E-2,-2.212487E-2,-1.4905999E-2,-1.2354645E-2,2.9387895E-4,-2.0927858E-2,-1.1100102E-2,-9.49979E-3,3.852971E-3,-5.465453E-4,1.4413354E-2,1.53166875E-2,3.5790443E-2,-2.3320466E-2,-1.1574274E-2,-4.399499E-3,8.682986E-3,1.64306E-4,1.2487943E-2,1.2459098E-2,3.0759841E-2,6.8142004E-3,2.185945E-2,1.3014691E-2,3.410838E-2,4.812367E-2,6.486865E-3,4.2778343E-2,7.2288804E-2,-1.492917E-2,2.1412673E-3,6.2682587E-3,2.0263018E-2,1.4128326E-2,3.15368E-2,1.112138E-2,4.1320104E-2,1.51093695E-2,3.0180996E-2,3.6933433E-2,5.3171366E-2,3.194813E-2,4.8644792E-2,5.6910228E-2,9.2636324E-2,3.3276267E-2,4.7796868E-2,5.0213546E-2,6.787285E-2,4.1558765E-2,6.56653E-2,7.206181E-2,9.640024E-2,3.8117807E-2,5.869318E-2,5.9805084E-2,9.575808E-2,8.028155E-2,1.022257E-1,1.0110239E-1,1.5215878E-1],"split_indices":[83,29,38,47,47,56,56,84,11,2,2,2,83,47,11,38,56,56,56,83,38,38,83,29,29,29,2,83,11,83,83,75,11,11,38,85,83,2,38,85,9,56,85,31,84,23,11,67,47,83,3,2,56,75,56,47,27,2,29,2,29,38,23,0,0,0,0,0,0,0,0,0,0,0,0,0,0,0,0,0,0,0,0,0,0,0,0,0,0,0,0,0,0,0,0,0,0,0,0,0,0,0,0,0,0,0,0,0,0,0,0,0,0,0,0,0,0,0,0,0,0,0,0,0,0,0,0],"split_type":[0,0,0,0,0,0,0,0,0,0,0,0,0,0,0,0,0,0,0,0,0,0,0,0,0,0,0,0,0,0,0,0,0,0,0,0,0,0,0,0,0,0,0,0,0,0,0,0,0,0,0,0,0,0,0,0,0,0,0,0,0,0,0,0,0,0,0,0,0,0,0,0,0,0,0,0,0,0,0,0,0,0,0,0,0,0,0,0,0,0,0,0,0,0,0,0,0,0,0,0,0,0,0,0,0,0,0,0,0,0,0,0,0,0,0,0,0,0,0,0,0,0,0,0,0,0,0],"sum_hessian":[7.0535E4,5.4281E4,1.6254E4,4.2573E4,1.1708E4,1.1083E4,5.171E3,3.1628E4,1.0945E4,7.696E3,4.012E3,6.055E3,5.028E3,3.651E3,1.52E3,1.5395E4,1.6233E4,7.877E3,3.068E3,3.508E3,4.188E3,2.97E3,1.042E3,3.239E3,2.816E3,3.333E3,1.695E3,2.768E3,8.83E2,4.91E2,1.029E3,1.1028E4,4.367E3,1.2041E4,4.192E3,3.184E3,4.693E3,2.151E3,9.17E2,1.464E3,2.044E3,2.753E3,1.435E3,1.551E3,1.419E3,1.05E2,9.37E2,1.571E3,1.668E3,1.935E3,8.81E2,1.595E3,1.738E3,6.2E2,1.075E3,1.704E3,1.064E3,4.78E2,4.05E2,3.01E2,1.9E2,9.61E2,6.8E1,3.65E3,7.378E3,3.414E3,9.53E2,6.959E3,5.082E3,2.69E3,1.502E3,1.915E3,1.269E3,3.01E3,1.683E3,1.557E3,5.94E2,6.63E2,2.54E2,4.73E2,9.91E2,1.432E3,6.12E2,1.636E3,1.117E3,6.24E2,8.11E2,8.61E2,6.9E2,2.72E2,1.147E3,2.2E1,8.3E1,8.38E2,9.9E1,3.88E2,1.183E3,9.25E2,7.43E2,1.239E3,6.96E2,7.2E1,8.09E2,6.64E2,9.31E2,1.34E3,3.98E2,2.8E2,3.4E2,9.78E2,9.7E1,9.87E2,7.17E2,7.94E2,2.7E2,1.2E2,3.58E2,2.63E2,1.42E2,1.36E2,1.65E2,9.7E1,9.3E1,7.03E2,2.58E2,3.4E1,3.4E1],"tree_param":{"num_deleted":"0","num_feature":"90","num_nodes":"127","size_leaf_vector":"1"}},{"base_weights":[2.5511175E-4,-2.6314774E-1,5.5769795E-1,-3.886184E-1,3.1231709E-2,3.037795E-1,9.7970414E-1,-4.7868133E-1,-2.4708885E-1,-1.240658E-1,3.1566617E-1,1.1558999E-1,6.268178E-1,7.991466E-1,1.3467889E0,-5.8200234E-1,-4.1008025E-1,-3.2583585E-1,-7.16668E-2,-2.0842966E-1,1.1363052E-1,1.5091605E-1,5.725632E-1,-3.7287775E-2,3.5127264E-1,4.9695003E-1,9.6613336E-1,6.5095943E-1,1.0538819E0,1.1568528E0,1.6523376E0,-6.334E-1,-5.3240013E-1,-4.431693E-1,-2.706171E-1,-3.768171E-1,-1.8035646E-1,-1.4948873E-1,1.2254667E-1,-2.953631E-1,-6.68486E-2,-6.975367E-3,2.806119E-1,4.2808965E-2,3.7146345E-1,4.6684825E-1,8.71148E-1,-1.20038055E-1,1.6310333E-1,1.6500807E-1,5.134344E-1,2.9569447E-1,6.2163234E-1,8.744584E-1,1.438916E0,4.5461732E-1,8.282881E-1,9.188155E-1,1.3071214E0,1.0520624E0,1.5106766E0,1.4248645E0,1.8818432E0,-3.387883E-2,-2.9320478E-2,-2.7795989E-2,-1.8894112E-2,-2.3246158E-2,-1.6453778E-2,-1.8426562E-2,-8.974964E-3,-2.3408607E-2,-1.5682518E-2,-1.1405957E-2,5.0816796E-4,-9.82367E-3,9.860558E-5,4.8876847E-3,4.3553263E-2,-1.8588405E-2,-9.500317E-3,-7.525245E-3,8.292843E-3,-5.1320246E-3,6.5572993E-3,5.663573E-3,2.1209456E-2,-6.020156E-3,8.647221E-3,1.7121583E-2,6.116214E-2,1.4370816E-2,2.8796572E-2,3.0432686E-2,5.076137E-2,-1.2075646E-2,-1.3909058E-3,4.889145E-3,2.2457927E-2,-1.5820131E-3,1.51408715E-2,1.9385241E-2,3.268133E-2,1.1404692E-2,3.5700794E-2,2.7047394E-2,4.1221023E-2,3.833058E-2,6.1274625E-2,4.7534555E-2,7.8733854E-2,1.6641995E-2,2.8186997E-2,3.2690912E-2,5.0881725E-2,4.009006E-2,5.6288313E-2,5.7342716E-2,8.305859E-2,4.8037242E-2,6.560566E-2,5.8078002E-2,8.35539E-2,5.6486316E-2,8.138212E-2,7.911613E-2,1.0182764E-1],"categories":[],"categories_nodes":[],"categories_segments":[],"categories_sizes":[],"default_left":[0,0,0,0,0,0,0,0,0,0,0,0,0,0,0,0,0,0,0,0,0,0,0,0,0,0,0,0,0,0,0,0,0,0,0,0,0,0,0,0,0,0,0,0,0,0,0,0,0,0,0,0,0,0,0,0,0,0,0,0,0,0,0,0,0,0,0,0,0,0,0,0,0,0,0,0,0,0,0,0,0,0,0,0,0,0,0,0,0,0,0,0,0,0,0,0,0,0,0,0,0,0,0,0,0,0,0,0,0,0,0,0,0,0,0,0,0,0,0,0,0,0,0,0,0,0,0],"id":6,"left_children":[1,3,5,7,9,11,13,15,17,19,21,23,25,27,29,31,33,35,37,39,41,43,45,47,49,51,53,55,57,59,61,63,65,67,69,71,73,75,77,79,81,83,85,87,89,91,93,95,97,99,101,103,105,107,109,111,113,115,117,119,121,123,125,-1,-1,-1,-1,-1,-1,-1,-1,-1,-1,-1,-1,-1,-1,-1,-1,-1,-1,-1,-1,-1,-1,-1,-1,-1,-1,-1,-1,-1,-1,-1,-1,-1,-1,-1,-1,-1,-1,-1,-1,-1,-1,-1,-1,-1,-1,-1,-1,-1,-1,-1,-1,-1,-1,-1,-1,-1,-1,-1,-1,-1,-1,-1,-1],"loss_changes":[1.0350337E4,1.7681753E3,2.4235522E3,4.2771973E2,6.3200745E2,8.585597E2,5.621045E2,1.4514209E2,1.8031793E2,1.8561398E2,2.1377576E2,3.216226E2,2.2861987E2,2.1440479E2,1.6058545E2,2.0522705E1,5.6779297E1,6.675665E1,6.116983E1,8.405713E1,4.8838882E1,7.3419716E1,6.1902283E1,8.981338E1,1.0599518E2,9.4216064E1,6.1068115E1,1.2513904E2,7.042261E1,6.2554688E1,5.3231445E1,7.9329834E0,1.4944458E1,2.4577515E1,2.1051575E1,3.8348755E1,2.12957E1,2.0559486E1,2.1405027E1,3.3996033E1,5.0639885E1,1.8631138E1,2.4386673E1,4.3944477E1,2.4631271E1,2.841101E1,1.8859406E1,4.2932102E1,2.9534824E1,4.4345142E1,3.2831177E1,4.058686E1,3.7546265E1,4.4754944E1,1.3880402E1,2.2575867E1,6.1870483E1,3.224939E1,3.929004E1,3.0513062E1,2.0066406E1,3.059851E1,2.1337036E1,0E0,0E0,0E0,0E0,0E0,0E0,0E0,0E0,0E0,0E0,0E0,0E0,0E0,0E0,0E0,0E0,0E0,0E0,0E0,0E0,0E0,0E0,0E0,0E0,0E0,0E0,0E0,0E0,0E0,0E0,0E0,0E0,0E0,0E0,0E0,0E0,0E0,0E0,0E0,0E0,0E0,0E0,0E0,0E0,0E0,0E0,0E0,0E0,0E0,0E0,0E0,0E0,0E0,0E0,0E0,0E0,0E0,0E0,0E0,0E0,0E0,0E0,0E0,0E0],"parents":[2147483647,0,0,1,1,2,2,3,3,4,4,5,5,6,6,7,7,8,8,9,9,10,10,11,11,12,12,13,13,14,14,15,15,16,16,17,17,18,18,19,19,20,20,21,21,22,22,23,23,24,24,25,25,26,26,27,27,28,28,29,29,30,30,31,31,32,32,33,33,34,34,35,35,36,36,37,37,38,38,39,39,40,40,41,41,42,42,43,43,44,44,45,45,46,46,47,47,48,48,49,49,50,50,51,51,52,52,53,53,54,54,55,55,56,56,57,57,58,58,59,59,60,60,61,61,62,62],"right_children":[2,4,6,8,10,12,14,16,18,20,22,24,26,28,30,32,34,36,38,40,42,44,46,48,50,52,54,56,58,60,62,64,66,68,70,72,74,76,78,80,82,84,86,88,90,92,94,96,98,100,102,104,106,108,110,112,114,116,118,120,122,124,126,-1,-1,-1,-1,-1,-1,-1,-1,-1,-1,-1,-1,-1,-1,-1,-1,-1,-1,-1,-1,-1,-1,-1,-1,-1,-1,-1,-1,-1,-1,-1,-1,-1,-1,-1,-1,-1,-1,-1,-1,-1,-1,-1,-1,-1,-1,-1,-1,-1,-1,-1,-1,-1,-1,-1,-1,-1,-1,-1,-1,-1,-1,-1,-1],"split_conditions":[5.090242E-1,1.3810365E-1,1.2508653E0,-2.3281689E-1,5.090242E-1,8.7994474E-1,1.9927064E0,-7.7730703E-1,1.3810365E-1,5.090242E-1,8.7994474E-1,5.090242E-1,1.6217859E0,1.6217859E0,2.363627E0,-6.037374E-1,1.3810365E-1,1.3810365E-1,5.090242E-1,1.5835457E-1,5.090242E-1,7.9997814E-1,1.6217859E0,5.090242E-1,5.090242E-1,5.090242E-1,2.7345474E0,8.7994474E-1,1.9927064E0,2.7345474E0,2.363627E0,-1.4681697E0,1.3810365E-1,1.3810365E-1,-2.3281689E-1,-3.3264607E-1,5.090242E-1,5.090242E-1,2.363627E0,-2.3281689E-1,5.090242E-1,3.1876045E-1,4.7916636E-1,1.3810365E-1,2.7345474E0,5.090242E-1,4.7866628E-1,-2.3281689E-1,1.6217859E0,1.3810365E-1,8.7994474E-1,1.9927064E0,1.6217859E0,2.363627E0,-8.299761E-1,1.2508653E0,1.2508653E0,1.9927064E0,2.7345474E0,2.363627E0,7.8696334E-1,1.9927064E0,9.2738265E-1,-3.387883E-2,-2.9320478E-2,-2.7795989E-2,-1.8894112E-2,-2.3246158E-2,-1.6453778E-2,-1.8426562E-2,-8.974964E-3,-2.3408607E-2,-1.5682518E-2,-1.1405957E-2,5.0816796E-4,-9.82367E-3,9.860558E-5,4.8876847E-3,4.3553263E-2,-1.8588405E-2,-9.500317E-3,-7.525245E-3,8.292843E-3,-5.1320246E-3,6.5572993E-3,5.663573E-3,2.1209456E-2,-6.020156E-3,8.647221E-3,1.7121583E-2,6.116214E-2,1.4370816E-2,2.8796572E-2,3.0432686E-2,5.076137E-2,-1.2075646E-2,-1.3909058E-3,4.889145E-3,2.2457927E-2,-1.5820131E-3,1.51408715E-2,1.9385241E-2,3.268133E-2,1.1404692E-2,3.5700794E-2,2.7047394E-2,4.1221023E-2,3.833058E-2,6.1274625E-2,4.7534555E-2,7.8733854E-2,1.6641995E-2,2.8186997E-2,3.2690912E-2,5.0881725E-2,4.009006E-2,5.6288313E-2,5.7342716E-2,8.305859E-2,4.8037242E-2,6.560566E-2,5.8078002E-2,8.35539E-2,5.6486316E-2,8.138212E-2,7.911613E-2,1.0182764E-1],"split_indices":[83,65,74,74,74,56,47,84,47,2,11,65,11,65,65,11,11,11,38,85,38,85,47,38,2,2,65,2,38,83,56,84,38,56,38,84,56,11,56,83,56,85,58,38,47,38,18,56,83,47,47,83,65,56,86,83,56,83,74,2,21,83,3,0,0,0,0,0,0,0,0,0,0,0,0,0,0,0,0,0,0,0,0,0,0,0,0,0,0,0,0,0,0,0,0,0,0,0,0,0,0,0,0,0,0,0,0,0,0,0,0,0,0,0,0,0,0,0,0,0,0,0,0,0,0,0,0],"split_type":[0,0,0,0,0,0,0,0,0,0,0,0,0,0,0,0,0,0,0,0,0,0,0,0,0,0,0,0,0,0,0,0,0,0,0,0,0,0,0,0,0,0,0,0,0,0,0,0,0,0,0,0,0,0,0,0,0,0,0,0,0,0,0,0,0,0,0,0,0,0,0,0,0,0,0,0,0,0,0,0,0,0,0,0,0,0,0,0,0,0,0,0,0,0,0,0,0,0,0,0,0,0,0,0,0,0,0,0,0,0,0,0,0,0,0,0,0,0,0,0,0,0,0,0,0,0,0],"sum_hessian":[7.0489E4,4.787E4,2.2619E4,3.3564E4,1.4306E4,1.4123E4,8.496E3,2.051E4,1.3054E4,9.254E3,5.052E3,8.925E3,5.198E3,5.697E3,2.799E3,8.181E3,1.2329E4,9.009E3,4.045E3,6.83E3,2.424E3,3.079E3,1.973E3,5.414E3,3.511E3,3.761E3,1.437E3,3.604E3,2.093E3,1.729E3,1.07E3,4.012E3,4.169E3,9.963E3,2.366E3,6.67E3,2.339E3,2.888E3,1.157E3,4.231E3,2.599E3,1.408E3,1.016E3,2.067E3,1.012E3,1.459E3,5.14E2,3.832E3,1.582E3,1.635E3,1.876E3,1.44E3,2.321E3,1.206E3,2.31E2,1.712E3,1.892E3,1.368E3,7.25E2,1.337E3,3.92E2,5.41E2,5.29E2,2.061E3,1.951E3,3.616E3,5.53E2,8.365E3,1.598E3,1.139E3,1.227E3,2.724E3,3.946E3,1.87E3,4.69E2,2.204E3,6.84E2,1.121E3,3.6E1,2.451E3,1.78E3,1.912E3,6.87E2,8.32E2,5.76E2,4.7E2,5.46E2,9.17E2,1.15E3,9.8E2,3.2E1,5.53E2,9.06E2,1.84E2,3.3E2,1.653E3,2.179E3,1.289E3,2.93E2,6.74E2,9.61E2,9.91E2,8.85E2,1.241E3,1.99E2,1.663E3,6.58E2,9.25E2,2.81E2,5.2E1,1.79E2,8.11E2,9.01E2,9.87E2,9.05E2,8.77E2,4.91E2,5.02E2,2.23E2,9.93E2,3.44E2,1.26E2,2.66E2,2.23E2,3.18E2,1.84E2,3.45E2],"tree_param":{"num_deleted":"0","num_feature":"90","num_nodes":"127","size_leaf_vector":"1"}},{"base_weights":[-1.8438365E-3,-2.5144085E-1,5.286177E-1,-3.3816835E-1,1.4836843E-1,3.3838278E-1,1.0329022E0,-4.080672E-1,-1.2543389E-1,-3.61448E-2,4.0679032E-1,8.368473E-2,5.72353E-1,8.7828004E-1,1.4358695E0,-5.202603E-1,-3.3387065E-1,-2.3826976E-1,4.1286666E-2,-1.4088841E-1,1.917555E-1,2.8111815E-1,6.9355017E-1,-6.1025646E-2,3.2225284E-1,3.6658853E-1,7.6353633E-1,7.411401E-1,1.1380366E0,1.2794427E0,1.783563E0,-5.7300985E-1,-4.5173448E-1,-3.779892E-1,-1.8495232E-1,-3.4265286E-1,-1.4237766E-1,-7.957246E-2,1.8733834E-1,-3.1249565E-1,-4.5217875E-2,9.42512E-2,4.2871085E-1,1.5862548E-1,4.8995814E-1,5.789114E-1,9.388072E-1,-1.7790574E-1,8.871625E-2,1.8453825E-1,5.2913415E-1,1.8088968E-1,5.1006335E-1,6.8626815E-1,1.1337874E0,6.725999E-1,1.1056771E0,9.115371E-1,1.3178043E0,1.1392523E0,1.5167954E0,1.6821338E0,2.3844843E0,-3.1966325E-2,-2.7041135E-2,-2.3561073E-2,-1.0720087E-2,-2.0383418E-2,-1.2602799E-2,-1.1551671E-2,-1.7259745E-5,-1.944624E-2,-1.0692171E-2,-8.330452E-3,1.1364841E-2,-6.792878E-3,7.767101E-3,2.3113415E-3,1.8478153E-2,-1.6505223E-2,9.546283E-3,-8.034519E-3,4.7605294E-3,1.3393344E-3,1.4127794E-2,1.7971234E-2,5.207302E-2,1.6088663E-3,1.470375E-2,1.6179997E-2,3.3618134E-2,2.3171019E-2,4.078072E-2,3.957953E-2,6.4504996E-2,-1.6002987E-2,-4.393809E-3,1.2080319E-3,1.5409112E-2,3.0710467E-3,1.8662123E-2,1.4853868E-2,3.426392E-2,5.6378464E-3,2.3939295E-2,2.0219078E-2,3.7022147E-2,2.9156227E-2,4.4553515E-2,5.2581098E-2,9.31341E-2,2.8762136E-2,4.41474E-2,5.125919E-2,8.9730196E-2,3.4357797E-2,5.4310706E-2,5.5144247E-2,7.336473E-2,5.184425E-2,6.814516E-2,4.1225288E-2,8.2782604E-2,6.5081425E-2,8.982407E-2,-1.6410932E-3,1.2435432E-1],"categories":[],"categories_nodes":[],"categories_segments":[],"categories_sizes":[],"default_left":[0,0,0,0,0,0,0,0,0,0,0,0,0,0,0,0,0,0,0,0,0,0,0,0,0,0,0,0,0,0,0,0,0,0,0,0,0,0,0,0,0,0,0,0,0,0,0,0,0,0,0,0,0,0,0,0,0,0,0,0,0,0,0,0,0,0,0,0,0,0,0,0,0,0,0,0,0,0,0,0,0,0,0,0,0,0,0,0,0,0,0,0,0,0,0,0,0,0,0,0,0,0,0,0,0,0,0,0,0,0,0,0,0,0,0,0,0,0,0,0,0,0,0,0,0,0,0],"id":7,"left_children":[1,3,5,7,9,11,13,15,17,19,21,23,25,27,29,31,33,35,37,39,41,43,45,47,49,51,53,55,57,59,61,63,65,67,69,71,73,75,77,79,81,83,85,87,89,91,93,95,97,99,101,103,105,107,109,111,113,115,117,119,121,123,125,-1,-1,-1,-1,-1,-1,-1,-1,-1,-1,-1,-1,-1,-1,-1,-1,-1,-1,-1,-1,-1,-1,-1,-1,-1,-1,-1,-1,-1,-1,-1,-1,-1,-1,-1,-1,-1,-1,-1,-1,-1,-1,-1,-1,-1,-1,-1,-1,-1,-1,-1,-1,-1,-1,-1,-1,-1,-1,-1,-1,-1,-1,-1,-1],"loss_changes":[9.341331E3,1.6636611E3,2.1653276E3,5.862085E2,4.07841E2,9.7683984E2,3.8398682E2,2.4685107E2,1.8346506E2,1.1916768E2,1.2820752E2,2.7102744E2,3.3583032E2,1.5842725E2,9.088574E1,4.2434814E1,1.1730432E2,5.8166565E1,6.950957E1,5.613459E1,3.627934E1,6.33385E1,2.9962341E1,8.554731E1,8.434842E1,1.0959741E2,1.2590088E2,7.243872E1,6.162561E1,3.7702393E1,2.8232056E1,1.3891357E1,2.3680176E1,5.1404907E1,3.4750595E1,1.6510162E1,2.7206646E1,2.8514902E1,4.5830986E1,1.0913338E1,3.564102E1,1.4157261E1,1.9070099E1,2.6777702E1,2.7577972E1,1.9906143E1,1.6769135E1,3.5102547E1,3.0354065E1,4.1354614E1,4.2697876E1,3.6398502E1,5.623413E1,7.692114E1,4.373706E1,5.0033936E1,2.3779907E1,2.614087E1,2.5947876E1,1.5734863E1,4.064331E1,1.7502075E1,1.843512E1,0E0,0E0,0E0,0E0,0E0,0E0,0E0,0E0,0E0,0E0,0E0,0E0,0E0,0E0,0E0,0E0,0E0,0E0,0E0,0E0,0E0,0E0,0E0,0E0,0E0,0E0,0E0,0E0,0E0,0E0,0E0,0E0,0E0,0E0,0E0,0E0,0E0,0E0,0E0,0E0,0E0,0E0,0E0,0E0,0E0,0E0,0E0,0E0,0E0,0E0,0E0,0E0,0E0,0E0,0E0,0E0,0E0,0E0,0E0,0E0,0E0,0E0,0E0,0E0],"parents":[2147483647,0,0,1,1,2,2,3,3,4,4,5,5,6,6,7,7,8,8,9,9,10,10,11,11,12,12,13,13,14,14,15,15,16,16,17,17,18,18,19,19,20,20,21,21,22,22,23,23,24,24,25,25,26,26,27,27,28,28,29,29,30,30,31,31,32,32,33,33,34,34,35,35,36,36,37,37,38,38,39,39,40,40,41,41,42,42,43,43,44,44,45,45,46,46,47,47,48,48,49,49,50,50,51,51,52,52,53,53,54,54,55,55,56,56,57,57,58,58,59,59,60,60,61,61,62,62],"right_children":[2,4,6,8,10,12,14,16,18,20,22,24,26,28,30,32,34,36,38,40,42,44,46,48,50,52,54,56,58,60,62,64,66,68,70,72,74,76,78,80,82,84,86,88,90,92,94,96,98,100,102,104,106,108,110,112,114,116,118,120,122,124,126,-1,-1,-1,-1,-1,-1,-1,-1,-1,-1,-1,-1,-1,-1,-1,-1,-1,-1,-1,-1,-1,-1,-1,-1,-1,-1,-1,-1,-1,-1,-1,-1,-1,-1,-1,-1,-1,-1,-1,-1,-1,-1,-1,-1,-1,-1,-1,-1,-1,-1,-1,-1,-1,-1,-1,-1,-1,-1,-1,-1,-1,-1,-1,-1],"split_conditions":[5.090242E-1,5.090242E-1,1.6217859E0,1.3810365E-1,5.090242E-1,5.090242E-1,2.363627E0,-6.097401E-1,1.3810365E-1,5.090242E-1,1.2508653E0,5.090242E-1,8.7994474E-1,1.9927064E0,2.7345474E0,-6.037374E-1,1.3810365E-1,-2.3281689E-1,3.1876045E-1,-2.3281689E-1,8.7994474E-1,8.7994474E-1,1.6217859E0,1.3810365E-1,8.7994474E-1,5.090242E-1,2.363627E0,2.363627E0,1.6217859E0,2.363627E0,4.21823E0,-1.5617826E0,5.090242E-1,1.3810365E-1,5.090242E-1,1.3810365E-1,1.464712E0,8.7994474E-1,5.090242E-1,1.2508653E0,1.3810365E-1,8.7994474E-1,1.3645545E0,4.7916636E-1,7.9997814E-1,1.2455908E0,1.7624135E0,-2.3281689E-1,8.7994474E-1,1.2508653E0,5.090242E-1,1.2508653E0,1.6217859E0,1.6217859E0,3.4763885E0,1.6217859E0,2.1262004E0,1.2508653E0,1.6217859E0,2.363627E0,4.7916636E-1,1.6217859E0,-6.913695E-2,-3.1966325E-2,-2.7041135E-2,-2.3561073E-2,-1.0720087E-2,-2.0383418E-2,-1.2602799E-2,-1.1551671E-2,-1.7259745E-5,-1.944624E-2,-1.0692171E-2,-8.330452E-3,1.1364841E-2,-6.792878E-3,7.767101E-3,2.3113415E-3,1.8478153E-2,-1.6505223E-2,9.546283E-3,-8.034519E-3,4.7605294E-3,1.3393344E-3,1.4127794E-2,1.7971234E-2,5.207302E-2,1.6088663E-3,1.470375E-2,1.6179997E-2,3.3618134E-2,2.3171019E-2,4.078072E-2,3.957953E-2,6.4504996E-2,-1.6002987E-2,-4.393809E-3,1.2080319E-3,1.5409112E-2,3.0710467E-3,1.8662123E-2,1.4853868E-2,3.426392E-2,5.6378464E-3,2.3939295E-2,2.0219078E-2,3.7022147E-2,2.9156227E-2,4.4553515E-2,5.2581098E-2,9.31341E-2,2.8762136E-2,4.41474E-2,5.125919E-2,8.9730196E-2,3.4357797E-2,5.4310706E-2,5.5144247E-2,7.336473E-2,5.184425E-2,6.814516E-2,4.1225288E-2,8.2782604E-2,6.5081425E-2,8.982407E-2,-1.6410932E-3,1.2435432E-1],"split_indices":[83,74,65,2,20,2,74,84,56,56,65,47,56,83,20,83,29,65,85,65,11,56,2,29,56,20,29,20,56,56,83,75,20,20,11,20,81,65,11,47,47,65,30,67,67,63,67,74,11,83,11,47,83,74,83,29,19,20,2,47,13,11,81,0,0,0,0,0,0,0,0,0,0,0,0,0,0,0,0,0,0,0,0,0,0,0,0,0,0,0,0,0,0,0,0,0,0,0,0,0,0,0,0,0,0,0,0,0,0,0,0,0,0,0,0,0,0,0,0,0,0,0,0,0,0,0,0],"split_type":[0,0,0,0,0,0,0,0,0,0,0,0,0,0,0,0,0,0,0,0,0,0,0,0,0,0,0,0,0,0,0,0,0,0,0,0,0,0,0,0,0,0,0,0,0,0,0,0,0,0,0,0,0,0,0,0,0,0,0,0,0,0,0,0,0,0,0,0,0,0,0,0,0,0,0,0,0,0,0,0,0,0,0,0,0,0,0,0,0,0,0,0,0,0,0,0,0,0,0,0,0,0,0,0,0,0,0,0,0,0,0,0,0,0,0,0,0,0,0,0,0,0,0,0,0,0,0],"sum_hessian":[7.0551E4,4.7977E4,2.2574E4,3.9425E4,8.552E3,1.6392E4,6.182E3,2.9674E4,9.751E3,4.99E3,3.562E3,7.849E3,8.543E3,4.47E3,1.712E3,1.181E4,1.7864E4,5.815E3,3.936E3,3.419E3,1.571E3,2.478E3,1.084E3,4.886E3,2.963E3,4.116E3,4.427E3,2.928E3,1.542E3,1.184E3,5.28E2,6.669E3,5.141E3,1.378E4,4.084E3,2.783E3,3.032E3,2.154E3,1.782E3,1.223E3,2.196E3,1.114E3,4.57E2,1.563E3,9.15E2,7.41E2,3.43E2,2.744E3,2.142E3,1.78E3,1.183E3,1.795E3,2.321E3,3.665E3,7.62E2,2.467E3,4.61E2,6.85E2,8.57E2,7.48E2,4.36E2,4.55E2,7.3E1,2.173E3,4.496E3,4.75E3,3.91E2,1.115E4,2.63E3,3.268E3,8.16E2,2.046E3,7.37E2,2.846E3,1.86E2,1.738E3,4.16E2,1.005E3,7.77E2,1.182E3,4.1E1,1.205E3,9.91E2,8.21E2,2.93E2,4.12E2,4.5E1,8.09E2,7.54E2,4.8E2,4.35E2,5E2,2.41E2,2.44E2,9.9E1,1.063E3,1.681E3,1.656E3,4.86E2,1.078E3,7.02E2,4.77E2,7.06E2,1.462E3,3.33E2,1.593E3,7.28E2,2.44E3,1.225E3,6.87E2,7.5E1,1.689E3,7.78E2,4.15E2,4.6E1,3.02E2,3.83E2,3.55E2,5.02E2,5.17E2,2.31E2,7.4E1,3.62E2,1.08E2,3.47E2,3E0,7E1],"tree_param":{"num_deleted":"0","num_feature":"90","num_nodes":"127","size_leaf_vector":"1"}},{"base_weights":[1.6739216E-3,-2.3416875E-1,5.013379E-1,-3.52875E-1,4.4879265E-2,2.0840117E-1,8.054467E-1,-4.379872E-1,-2.2346836E-1,-9.2063904E-2,3.0785123E-1,5.078581E-2,5.1592743E-1,6.1343163E-1,1.1161515E0,-5.2902544E-1,-3.767899E-1,-2.7755058E-1,1.67044E-2,-1.951771E-1,6.6938646E-2,1.6710116E-1,5.3208566E-1,-7.141665E-2,2.6053706E-1,3.78521E-1,7.4687624E-1,3.514053E-1,7.303466E-1,9.5041114E-1,1.4526359E0,-5.5360603E-1,-4.4705752E-1,-4.2612407E-1,-2.9492235E-1,-3.701467E-1,-1.792197E-1,-9.1939844E-2,2.0901525E-1,-2.8385958E-1,-9.383798E-2,-3.4267228E-2,2.3744626E-1,1.0403165E-1,5.354143E-1,3.700895E-1,6.739473E-1,-1.5706441E-1,1.339833E-1,1.5724145E-1,4.363857E-1,2.3868243E-1,5.225574E-1,6.9332993E-1,1.3440082E0,1.6078925E-1,5.058086E-1,6.4209574E-1,1.0148633E0,8.128597E-1,1.1973938E0,1.19766E0,1.6336509E0,-2.8592765E-2,-2.4021504E-2,-2.5120005E-2,-1.7891673E-2,-2.2826798E-2,-1.7750794E-2,-1.7030155E-2,-7.918942E-3,-2.3405043E-2,-1.5791496E-2,-1.0555664E-2,4.517377E-3,-7.303465E-3,6.9028E-3,7.900587E-3,3.2974537E-2,-1.5326361E-2,3.1391886E-4,-1.1197913E-2,-4.905468E-4,-6.198696E-3,6.753649E-3,8.957161E-3,2.739654E-2,2.248277E-3,1.9908076E-2,1.5026003E-2,3.4965742E-2,8.865309E-3,2.4490649E-2,3.0319968E-2,5.343022E-2,-1.413201E-2,-3.232842E-3,-1.2898588E-3,1.279661E-2,3.1866834E-3,1.4808393E-2,9.184345E-3,2.6484942E-2,3.8561847E-3,1.869773E-2,2.022991E-2,3.6999732E-2,3.010498E-2,4.3845132E-2,5.7459634E-2,1.09921195E-1,6.500912E-3,3.6880076E-2,2.369305E-2,5.733005E-2,2.4554998E-2,3.7539016E-2,4.5178514E-2,6.9917515E-2,3.4288745E-2,4.908242E-2,5.672264E-2,9.052726E-2,5.0037753E-2,7.08751E-2,7.218447E-2,9.142819E-2],"categories":[],"categories_nodes":[],"categories_segments":[],"categories_sizes":[],"default_left":[0,0,0,0,0,0,0,0,0,0,0,0,0,0,0,0,0,0,0,0,0,0,0,0,0,0,0,0,0,0,0,0,0,0,0,0,0,0,0,0,0,0,0,0,0,0,0,0,0,0,0,0,0,0,0,0,0,0,0,0,0,0,0,0,0,0,0,0,0,0,0,0,0,0,0,0,0,0,0,0,0,0,0,0,0,0,0,0,0,0,0,0,0,0,0,0,0,0,0,0,0,0,0,0,0,0,0,0,0,0,0,0,0,0,0,0,0,0,0,0,0,0,0,0,0,0,0],"id":8,"left_children":[1,3,5,7,9,11,13,15,17,19,21,23,25,27,29,31,33,35,37,39,41,43,45,47,49,51,53,55,57,59,61,63,65,67,69,71,73,75,77,79,81,83,85,87,89,91,93,95,97,99,101,103,105,107,109,111,113,115,117,119,121,123,125,-1,-1,-1,-1,-1,-1,-1,-1,-1,-1,-1,-1,-1,-1,-1,-1,-1,-1,-1,-1,-1,-1,-1,-1,-1,-1,-1,-1,-1,-1,-1,-1,-1,-1,-1,-1,-1,-1,-1,-1,-1,-1,-1,-1,-1,-1,-1,-1,-1,-1,-1,-1,-1,-1,-1,-1,-1,-1,-1,-1,-1,-1,-1,-1],"loss_changes":[8.333202E3,1.5913284E3,2.0198262E3,3.7110986E2,5.1637146E2,5.598608E2,6.630327E2,1.13065186E2,1.7372052E2,1.5460396E2,1.5487561E2,1.9579672E2,1.23923584E2,2.104497E2,2.3552637E2,1.6213623E1,4.8990845E1,9.93244E1,5.1396248E1,5.137903E1,6.402928E1,7.005042E1,4.3253723E1,8.493785E1,5.1009674E1,4.9343628E1,4.5718567E1,6.24317E1,1.1874097E2,9.5815186E1,6.2659912E1,8.113037E0,9.152832E0,1.624292E1,2.8488464E1,2.9758972E1,4.5551254E1,1.9590862E1,2.0298332E1,2.006099E1,2.9201513E1,3.5396465E1,2.4919075E1,4.476997E1,1.6768036E1,2.0362656E1,2.6223541E1,3.9517075E1,2.7694853E1,2.3013626E1,2.442604E1,2.7245453E1,3.07099E1,2.1930298E1,1.728154E1,1.6801245E1,2.3470093E1,5.9235596E1,4.6708252E1,3.8645508E1,3.7194458E1,2.3904907E1,2.7573242E1,0E0,0E0,0E0,0E0,0E0,0E0,0E0,0E0,0E0,0E0,0E0,0E0,0E0,0E0,0E0,0E0,0E0,0E0,0E0,0E0,0E0,0E0,0E0,0E0,0E0,0E0,0E0,0E0,0E0,0E0,0E0,0E0,0E0,0E0,0E0,0E0,0E0,0E0,0E0,0E0,0E0,0E0,0E0,0E0,0E0,0E0,0E0,0E0,0E0,0E0,0E0,0E0,0E0,0E0,0E0,0E0,0E0,0E0,0E0,0E0,0E0,0E0,0E0,0E0],"parents":[2147483647,0,0,1,1,2,2,3,3,4,4,5,5,6,6,7,7,8,8,9,9,10,10,11,11,12,12,13,13,14,14,15,15,16,16,17,17,18,18,19,19,20,20,21,21,22,22,23,23,24,24,25,25,26,26,27,27,28,28,29,29,30,30,31,31,32,32,33,33,34,34,35,35,36,36,37,37,38,38,39,39,40,40,41,41,42,42,43,43,44,44,45,45,46,46,47,47,48,48,49,49,50,50,51,51,52,52,53,53,54,54,55,55,56,56,57,57,58,58,59,59,60,60,61,61,62,62],"right_children":[2,4,6,8,10,12,14,16,18,20,22,24,26,28,30,32,34,36,38,40,42,44,46,48,50,52,54,56,58,60,62,64,66,68,70,72,74,76,78,80,82,84,86,88,90,92,94,96,98,100,102,104,106,108,110,112,114,116,118,120,122,124,126,-1,-1,-1,-1,-1,-1,-1,-1,-1,-1,-1,-1,-1,-1,-1,-1,-1,-1,-1,-1,-1,-1,-1,-1,-1,-1,-1,-1,-1,-1,-1,-1,-1,-1,-1,-1,-1,-1,-1,-1,-1,-1,-1,-1,-1,-1,-1,-1,-1,-1,-1,-1,-1,-1,-1,-1,-1,-1,-1,-1,-1,-1,-1,-1],"split_conditions":[5.090242E-1,1.3810365E-1,8.7994474E-1,-2.3281689E-1,5.090242E-1,8.7994474E-1,1.6217859E0,-8.091354E-1,5.090242E-1,1.3810365E-1,8.7994474E-1,5.090242E-1,1.2508653E0,5.090242E-1,2.363627E0,-2.3281689E-1,-2.3281689E-1,-2.3281689E-1,4.7916636E-1,-2.3281689E-1,5.090242E-1,1.6217859E0,1.2508653E0,5.090242E-1,8.7994474E-1,7.9997814E-1,3.105468E0,5.090242E-1,1.9927064E0,1.9927064E0,1.9927064E0,-2.3281689E-1,-6.436749E-1,-2.3281689E-1,1.3810365E-1,-5.3204143E-1,8.7994474E-1,8.7994474E-1,1.6217859E0,1.1360302E0,-2.3281689E-1,6.3957226E-1,1.6217859E0,1.2508653E0,5.173584E-1,5.090242E-1,2.363627E0,-2.3281689E-1,4.3872365E-1,7.9997814E-1,1.5835457E-1,1.3810365E-1,1.2508653E0,1.6217859E0,3.105468E0,2.7345474E0,3.105468E0,1.2508653E0,2.7345474E0,1.6217859E0,3.847309E0,1.9927064E0,2.7345474E0,-2.8592765E-2,-2.4021504E-2,-2.5120005E-2,-1.7891673E-2,-2.2826798E-2,-1.7750794E-2,-1.7030155E-2,-7.918942E-3,-2.3405043E-2,-1.5791496E-2,-1.0555664E-2,4.517377E-3,-7.303465E-3,6.9028E-3,7.900587E-3,3.2974537E-2,-1.5326361E-2,3.1391886E-4,-1.1197913E-2,-4.905468E-4,-6.198696E-3,6.753649E-3,8.957161E-3,2.739654E-2,2.248277E-3,1.9908076E-2,1.5026003E-2,3.4965742E-2,8.865309E-3,2.4490649E-2,3.0319968E-2,5.343022E-2,-1.413201E-2,-3.232842E-3,-1.2898588E-3,1.279661E-2,3.1866834E-3,1.4808393E-2,9.184345E-3,2.6484942E-2,3.8561847E-3,1.869773E-2,2.022991E-2,3.6999732E-2,3.010498E-2,4.3845132E-2,5.7459634E-2,1.09921195E-1,6.500912E-3,3.6880076E-2,2.369305E-2,5.733005E-2,2.4554998E-2,3.7539016E-2,4.5178514E-2,6.9917515E-2,3.4288745E-2,4.908242E-2,5.672264E-2,9.052726E-2,5.0037753E-2,7.08751E-2,7.218447E-2,9.142819E-2],"split_indices":[74,83,83,56,29,20,11,84,38,11,56,29,56,47,56,29,20,2,85,74,2,83,29,56,11,76,11,56,20,47,38,11,76,74,47,84,29,47,11,18,56,85,83,47,66,47,83,83,66,76,85,83,29,2,2,83,83,74,83,29,20,29,83,0,0,0,0,0,0,0,0,0,0,0,0,0,0,0,0,0,0,0,0,0,0,0,0,0,0,0,0,0,0,0,0,0,0,0,0,0,0,0,0,0,0,0,0,0,0,0,0,0,0,0,0,0,0,0,0,0,0,0,0,0,0,0,0],"split_type":[0,0,0,0,0,0,0,0,0,0,0,0,0,0,0,0,0,0,0,0,0,0,0,0,0,0,0,0,0,0,0,0,0,0,0,0,0,0,0,0,0,0,0,0,0,0,0,0,0,0,0,0,0,0,0,0,0,0,0,0,0,0,0,0,0,0,0,0,0,0,0,0,0,0,0,0,0,0,0,0,0,0,0,0,0,0,0,0,0,0,0,0,0,0,0,0,0,0,0,0,0,0,0,0,0,0,0,0,0,0,0,0,0,0,0,0,0,0,0,0,0,0,0,0,0,0,0],"sum_hessian":[7.0713E4,4.8039E4,2.2674E4,3.3702E4,1.4337E4,1.155E4,1.1124E4,2.0329E4,1.3373E4,9.428E3,4.909E3,7.637E3,3.913E3,6.877E3,4.247E3,8.169E3,1.216E4,1.0915E4,2.458E3,5.719E3,3.709E3,3.017E3,1.892E3,4.826E3,2.811E3,2.455E3,1.458E3,2.123E3,4.754E3,2.848E3,1.399E3,6.28E3,1.889E3,7.585E3,4.575E3,5.62E3,5.295E3,1.571E3,8.87E2,3.049E3,2.67E3,2.328E3,1.381E3,2.577E3,4.4E2,8.85E2,1.007E3,3.406E3,1.42E3,1.772E3,1.039E3,1.247E3,1.208E3,1.34E3,1.18E2,9.51E2,1.172E3,3.631E3,1.123E3,1.832E3,1.016E3,5.84E2,8.15E2,5.021E3,1.259E3,1.163E3,7.26E2,5.309E3,2.276E3,3.427E3,1.148E3,2.002E3,3.618E3,4.735E3,5.6E2,1.272E3,2.99E2,7.98E2,8.9E1,2.828E3,2.21E2,1.047E3,1.623E3,1.522E3,8.06E2,1.164E3,2.17E2,2.147E3,4.3E2,1.82E2,2.58E2,3.4E2,5.45E2,8.62E2,1.45E2,1.443E3,1.963E3,6.15E2,8.05E2,1.06E3,7.12E2,2.81E2,7.58E2,5.69E2,6.78E2,7.85E2,4.23E2,8.98E2,4.42E2,9.8E1,2E1,9.04E2,4.7E1,1.118E3,5.4E1,1.522E3,2.109E3,8.73E2,2.5E2,1.048E3,7.84E2,9.24E2,9.2E1,3.11E2,2.73E2,4.17E2,3.98E2],"tree_param":{"num_deleted":"0","num_feature":"90","num_nodes":"127","size_leaf_vector":"1"}},{"base_weights":[9.7406463E-4,-2.2492673E-1,4.813794E-1,-3.3741525E-1,3.402181E-2,2.631104E-1,8.4493256E-1,-4.0797484E-1,-1.9594944E-1,-1.0519217E-1,2.8014183E-1,9.6472025E-2,5.515663E-1,6.835569E-1,1.1712974E0,-4.577878E-1,-3.065004E-1,-2.6835525E-1,-3.2216847E-2,-1.920181E-1,8.220945E-2,1.4611116E-1,5.030449E-1,-9.12892E-2,2.4318683E-1,4.402696E-1,8.3706987E-1,5.511967E-1,9.3156195E-1,1.0065061E0,1.4388734E0,-5.107124E-1,-4.0113246E-1,-3.5804832E-1,-1.5664117E-1,-3.342818E-1,-1.9343333E-1,-9.0209275E-2,2.6160687E-1,-2.5948516E-1,-6.0562305E-2,-2.1539554E-2,2.80297E-1,5.6123987E-2,3.216691E-1,3.9086124E-1,6.742711E-1,-1.8601455E-1,4.8942816E-2,1.2738387E-1,4.6543294E-1,3.1424725E-1,5.816408E-1,7.301907E-1,1.1822076E0,3.521346E-1,6.459422E-1,8.5382396E-1,1.4614861E0,9.1492724E-1,1.3437864E0,1.2011664E0,1.6580404E0,-2.6723957E-2,-2.1232232E-2,-2.177335E-2,-1.6821947E-2,-1.942867E-2,-1.1656204E-2,-1.3507809E-2,-2.237595E-3,-2.1315997E-2,-1.4618771E-2,-1.2201598E-2,-4.162086E-3,-6.7281686E-3,8.445781E-3,4.7747954E-3,2.1487491E-2,-1.5645104E-2,-6.6700005E-3,-5.299458E-3,7.5338236E-3,-5.2938405E-3,3.620356E-3,6.3405107E-3,2.2017464E-2,-6.220268E-4,1.1857299E-2,1.4330128E-2,3.5385817E-2,7.7916174E-3,2.3998529E-2,3.0724827E-2,5.984488E-2,-1.4521739E-2,-5.3161993E-3,-3.172028E-3,7.290881E-3,2.1981525E-3,1.3780584E-2,1.0274714E-2,2.6726112E-2,1.2746925E-2,3.0793881E-2,2.7541807E-2,5.4002058E-2,3.3108518E-2,5.002535E-2,4.686487E-2,6.89443E-2,1.3006425E-2,2.7153222E-2,2.701971E-2,3.95944E-2,3.8107388E-2,5.761062E-2,6.5651156E-2,1.0745486E-1,4.202815E-2,5.629912E-2,5.8687974E-2,9.075368E-2,5.696679E-2,9.441002E-2,7.007188E-2,9.6938424E-2],"categories":[],"categories_nodes":[],"categories_segments":[],"categories_sizes":[],"default_left":[0,0,0,0,0,0,0,0,0,0,0,0,0,0,0,0,0,0,0,0,0,0,0,0,0,0,0,0,0,0,0,0,0,0,0,0,0,0,0,0,0,0,0,0,0,0,0,0,0,0,0,0,0,0,0,0,0,0,0,0,0,0,0,0,0,0,0,0,0,0,0,0,0,0,0,0,0,0,0,0,0,0,0,0,0,0,0,0,0,0,0,0,0,0,0,0,0,0,0,0,0,0,0,0,0,0,0,0,0,0,0,0,0,0,0,0,0,0,0,0,0,0,0,0,0,0,0],"id":9,"left_children":[1,3,5,7,9,11,13,15,17,19,21,23,25,27,29,31,33,35,37,39,41,43,45,47,49,51,53,55,57,59,61,63,65,67,69,71,73,75,77,79,81,83,85,87,89,91,93,95,97,99,101,103,105,107,109,111,113,115,117,119,121,123,125,-1,-1,-1,-1,-1,-1,-1,-1,-1,-1,-1,-1,-1,-1,-1,-1,-1,-1,-1,-1,-1,-1,-1,-1,-1,-1,-1,-1,-1,-1,-1,-1,-1,-1,-1,-1,-1,-1,-1,-1,-1,-1,-1,-1,-1,-1,-1,-1,-1,-1,-1,-1,-1,-1,-1,-1,-1,-1,-1,-1,-1,-1,-1,-1],"loss_changes":[7.6667827E3,1.3996768E3,1.7927446E3,3.3429932E2,4.98664E2,6.786644E2,4.4560742E2,1.1283325E2,1.3217673E2,1.5127399E2,1.5701373E2,2.4659854E2,1.6391138E2,1.8574146E2,1.2214819E2,4.4739014E1,5.681488E1,3.81214E1,5.8298866E1,5.632866E1,6.0509323E1,5.187825E1,3.7654633E1,5.2173508E1,1.2926791E2,6.612811E1,5.2587585E1,6.959314E1,8.003052E1,5.245337E1,5.3544434E1,1.5617798E1,1.594397E1,2.0794922E1,2.3942211E1,1.5731415E1,2.0168747E1,3.2858948E1,1.5711697E1,2.8232086E1,2.0704754E1,1.5323221E1,2.4804855E1,2.6973545E1,1.4864243E1,2.4952408E1,2.3631561E1,1.9474274E1,1.7254446E1,4.085515E1,3.0797546E1,3.5084976E1,2.6318909E1,1.9728699E1,1.5133026E1,2.0868515E1,3.819055E1,4.625476E1,2.2801453E1,2.0555664E1,2.743811E1,1.9725769E1,3.704663E1,0E0,0E0,0E0,0E0,0E0,0E0,0E0,0E0,0E0,0E0,0E0,0E0,0E0,0E0,0E0,0E0,0E0,0E0,0E0,0E0,0E0,0E0,0E0,0E0,0E0,0E0,0E0,0E0,0E0,0E0,0E0,0E0,0E0,0E0,0E0,0E0,0E0,0E0,0E0,0E0,0E0,0E0,0E0,0E0,0E0,0E0,0E0,0E0,0E0,0E0,0E0,0E0,0E0,0E0,0E0,0E0,0E0,0E0,0E0,0E0,0E0,0E0,0E0,0E0],"parents":[2147483647,0,0,1,1,2,2,3,3,4,4,5,5,6,6,7,7,8,8,9,9,10,10,11,11,12,12,13,13,14,14,15,15,16,16,17,17,18,18,19,19,20,20,21,21,22,22,23,23,24,24,25,25,26,26,27,27,28,28,29,29,30,30,31,31,32,32,33,33,34,34,35,35,36,36,37,37,38,38,39,39,40,40,41,41,42,42,43,43,44,44,45,45,46,46,47,47,48,48,49,49,50,50,51,51,52,52,53,53,54,54,55,55,56,56,57,57,58,58,59,59,60,60,61,61,62,62],"right_children":[2,4,6,8,10,12,14,16,18,20,22,24,26,28,30,32,34,36,38,40,42,44,46,48,50,52,54,56,58,60,62,64,66,68,70,72,74,76,78,80,82,84,86,88,90,92,94,96,98,100,102,104,106,108,110,112,114,116,118,120,122,124,126,-1,-1,-1,-1,-1,-1,-1,-1,-1,-1,-1,-1,-1,-1,-1,-1,-1,-1,-1,-1,-1,-1,-1,-1,-1,-1,-1,-1,-1,-1,-1,-1,-1,-1,-1,-1,-1,-1,-1,-1,-1,-1,-1,-1,-1,-1,-1,-1,-1,-1,-1,-1,-1,-1,-1,-1,-1,-1,-1,-1,-1,-1,-1,-1],"split_conditions":[5.090242E-1,1.3810365E-1,1.2508653E0,-2.0513358E-3,5.090242E-1,8.7994474E-1,1.9927064E0,-2.3281689E-1,1.3810365E-1,4.7916636E-1,8.7994474E-1,1.3810365E-1,1.6217859E0,1.6217859E0,2.363627E0,-6.9867224E-1,1.3810365E-1,-2.3281689E-1,8.7994474E-1,1.3810365E-1,5.090242E-1,7.9997814E-1,1.2508653E0,3.1876045E-1,8.7994474E-1,8.7994474E-1,2.363627E0,2.59545E-1,3.105468E0,2.7345474E0,2.363627E0,-2.3281689E-1,-2.3281689E-1,1.3810365E-1,-2.3281689E-1,-6.037374E-1,7.9997814E-1,8.7994474E-1,6.3957226E-1,1.3810365E-1,8.7994474E-1,1.3810365E-1,5.090242E-1,8.7994474E-1,1.9927064E0,-2.0513358E-3,2.7345474E0,-2.3281689E-1,1.3810365E-1,7.9997814E-1,1.3810365E-1,1.6217859E0,3.105468E0,2.363627E0,8.908736E-1,1.2508653E0,1.6217859E0,2.363627E0,3.4763885E0,2.363627E0,3.105468E0,4.21823E0,2.7345474E0,-2.6723957E-2,-2.1232232E-2,-2.177335E-2,-1.6821947E-2,-1.942867E-2,-1.1656204E-2,-1.3507809E-2,-2.237595E-3,-2.1315997E-2,-1.4618771E-2,-1.2201598E-2,-4.162086E-3,-6.7281686E-3,8.445781E-3,4.7747954E-3,2.1487491E-2,-1.5645104E-2,-6.6700005E-3,-5.299458E-3,7.5338236E-3,-5.2938405E-3,3.620356E-3,6.3405107E-3,2.2017464E-2,-6.220268E-4,1.1857299E-2,1.4330128E-2,3.5385817E-2,7.7916174E-3,2.3998529E-2,3.0724827E-2,5.984488E-2,-1.4521739E-2,-5.3161993E-3,-3.172028E-3,7.290881E-3,2.1981525E-3,1.3780584E-2,1.0274714E-2,2.6726112E-2,1.2746925E-2,3.0793881E-2,2.7541807E-2,5.4002058E-2,3.3108518E-2,5.002535E-2,4.686487E-2,6.89443E-2,1.3006425E-2,2.7153222E-2,2.701971E-2,3.95944E-2,3.8107388E-2,5.761062E-2,6.5651156E-2,1.0745486E-1,4.202815E-2,5.629912E-2,5.8687974E-2,9.075368E-2,5.696679E-2,9.441002E-2,7.007188E-2,9.6938424E-2],"split_indices":[65,29,56,85,11,2,29,56,2,85,47,47,29,11,47,75,2,56,56,56,2,85,20,85,20,47,65,81,2,11,20,20,2,11,65,20,85,11,67,20,2,56,47,20,56,67,56,11,11,40,29,20,47,20,75,20,65,47,47,2,65,56,65,0,0,0,0,0,0,0,0,0,0,0,0,0,0,0,0,0,0,0,0,0,0,0,0,0,0,0,0,0,0,0,0,0,0,0,0,0,0,0,0,0,0,0,0,0,0,0,0,0,0,0,0,0,0,0,0,0,0,0,0,0,0,0,0],"split_type":[0,0,0,0,0,0,0,0,0,0,0,0,0,0,0,0,0,0,0,0,0,0,0,0,0,0,0,0,0,0,0,0,0,0,0,0,0,0,0,0,0,0,0,0,0,0,0,0,0,0,0,0,0,0,0,0,0,0,0,0,0,0,0,0,0,0,0,0,0,0,0,0,0,0,0,0,0,0,0,0,0,0,0,0,0,0,0,0,0,0,0,0,0,0,0,0,0,0,0,0,0,0,0,0,0,0,0,0,0,0,0,0,0,0,0,0,0,0,0,0,0,0,0,0,0,0,0],"sum_hessian":[7.0644E4,4.805E4,2.2594E4,3.3498E4,1.4552E4,1.4119E4,8.475E3,2.2349E4,1.1149E4,9.295E3,5.257E3,8.95E3,5.169E3,5.673E3,2.802E3,1.4988E4,7.361E3,7.73E3,3.419E3,6.352E3,2.943E3,3.284E3,1.973E3,3.926E3,5.024E3,3.721E3,1.448E3,3.701E3,1.972E3,1.737E3,1.065E3,7.745E3,7.243E3,5.476E3,1.885E3,4.11E3,3.62E3,2.856E3,5.63E2,4.197E3,2.155E3,1.932E3,1.011E3,2.172E3,1.112E3,1.194E3,7.79E2,2.343E3,1.583E3,3.304E3,1.72E3,1.969E3,1.752E3,1.108E3,3.4E2,1.195E3,2.506E3,1.722E3,2.5E2,1.369E3,3.68E2,5.14E2,5.51E2,6.065E3,1.68E3,4.728E3,2.515E3,4.399E3,1.077E3,9.35E2,9.5E2,1.283E3,2.827E3,2.48E3,1.14E3,2.439E3,4.17E2,2.84E2,2.79E2,2.947E3,1.25E3,1.774E3,3.81E2,1.018E3,9.14E2,5.17E2,4.94E2,1.576E3,5.96E2,1.021E3,9.1E1,3.29E2,8.65E2,7.01E2,7.8E1,1.013E3,1.33E3,7.33E2,8.5E2,2.115E3,1.189E3,3.62E2,1.358E3,1.647E3,3.22E2,1.652E3,1E2,8.88E2,2.2E2,1.54E2,1.86E2,8.08E2,3.87E2,1.457E3,1.049E3,1.32E3,4.02E2,2.08E2,4.2E1,1.016E3,3.53E2,2.73E2,9.5E1,4.74E2,4E1,2.91E2,2.6E2],"tree_param":{"num_deleted":"0","num_feature":"90","num_nodes":"127","size_leaf_vector":"1"}},{"base_weights":[6.689209E-4,-2.1582997E-1,4.616324E-1,-3.2028368E-1,3.1136341E-2,1.9576475E-1,7.34756E-1,-3.9814848E-1,-2.03938E-1,-1.0138945E-1,2.7578703E-1,1.1497647E-2,4.0918496E-1,5.5430335E-1,1.016627E0,-4.886787E-1,-3.4275535E-1,-2.7540228E-1,-5.524784E-2,-1.8562865E-1,7.623761E-2,1.5600394E-1,5.207196E-1,-8.574856E-2,2.0698746E-1,2.8143817E-1,6.586013E-1,4.499178E-1,8.177487E-1,8.5498965E-1,1.283127E0,-5.295023E-1,-4.4444236E-1,-3.8638324E-1,-2.6983285E-1,-3.5009804E-1,-1.897201E-1,-1.2590337E-1,1.12187974E-1,-2.962622E-1,-9.887416E-2,-2.575553E-2,2.666889E-1,6.2327E-2,3.4996775E-1,3.510434E-1,6.790037E-1,-1.734194E-1,6.153489E-2,6.5084666E-2,3.0966467E-1,1.686043E-1,4.556952E-1,5.7174844E-1,9.2478174E-1,2.4949981E-1,5.542227E-1,7.448697E-1,1.1943167E0,7.478512E-1,1.1105901E0,1.0888085E0,1.5087314E0,-2.7729148E-2,-2.4528397E-2,-2.3626888E-2,-1.8343557E-2,-2.2438688E-2,-1.7514488E-2,-1.7925402E-2,-1.1522085E-2,-2.0975327E-2,-1.4230597E-2,-1.161494E-2,-5.292381E-4,-8.190465E-3,3.8402774E-3,1.1577181E-3,1.2331865E-2,-1.7812658E-2,-1.09803695E-2,-6.900315E-3,5.559441E-3,-4.6532457E-3,7.507458E-3,9.122475E-3,2.650456E-2,-3.7053425E-3,7.901975E-3,1.31479325E-2,2.8388157E-2,1.0619358E-2,2.8797243E-2,2.7863113E-2,4.4252124E-2,-1.1022071E-2,6.6834735E-4,1.3270989E-3,2.5185412E-2,-6.7043993E-6,1.2344488E-2,8.479887E-3,2.115239E-2,1.1112593E-3,1.2757209E-2,1.61719E-2,2.9326264E-2,1.3385559E-2,3.12748E-2,3.7872877E-2,6.2105503E-2,7.0774616E-3,2.2340065E-2,2.315365E-2,3.405305E-2,2.1615667E-2,4.0974665E-2,5.2982695E-2,7.583992E-2,2.9848322E-2,4.312956E-2,4.1613866E-2,6.4556144E-2,4.5486435E-2,6.501862E-2,3.2565743E-2,7.798352E-2],"categories":[],"categories_nodes":[],"categories_segments":[],"categories_sizes":[],"default_left":[0,0,0,0,0,0,0,0,0,0,0,0,0,0,0,0,0,0,0,0,0,0,0,0,0,0,0,0,0,0,0,0,0,0,0,0,0,0,0,0,0,0,0,0,0,0,0,0,0,0,0,0,0,0,0,0,0,0,0,0,0,0,0,0,0,0,0,0,0,0,0,0,0,0,0,0,0,0,0,0,0,0,0,0,0,0,0,0,0,0,0,0,0,0,0,0,0,0,0,0,0,0,0,0,0,0,0,0,0,0,0,0,0,0,0,0,0,0,0,0,0,0,0,0,0,0,0],"id":10,"left_children":[1,3,5,7,9,11,13,15,17,19,21,23,25,27,29,31,33,35,37,39,41,43,45,47,49,51,53,55,57,59,61,63,65,67,69,71,73,75,77,79,81,83,85,87,89,91,93,95,97,99,101,103,105,107,109,111,113,115,117,119,121,123,125,-1,-1,-1,-1,-1,-1,-1,-1,-1,-1,-1,-1,-1,-1,-1,-1,-1,-1,-1,-1,-1,-1,-1,-1,-1,-1,-1,-1,-1,-1,-1,-1,-1,-1,-1,-1,-1,-1,-1,-1,-1,-1,-1,-1,-1,-1,-1,-1,-1,-1,-1,-1,-1,-1,-1,-1,-1,-1,-1,-1,-1,-1,-1,-1],"loss_changes":[7.0351655E3,1.2373672E3,1.6357207E3,3.052964E2,4.6230835E2,4.48984E2,5.646406E2,1.01095215E2,1.4361694E2,1.3840842E2,1.4690598E2,1.1651497E2,1.683653E2,1.8599878E2,1.8568262E2,1.3603027E1,3.976245E1,5.8360046E1,5.193716E1,6.0188293E1,5.781485E1,6.1138176E1,4.394153E1,5.286138E1,2.964473E1,6.874051E1,4.0876587E1,1.0137433E2,5.1857544E1,7.316272E1,7.0033936E1,3.61438E0,7.855591E0,1.7493164E1,1.631363E1,2.2043457E1,3.244429E1,2.3732689E1,1.5591864E1,1.2600098E1,2.8934063E1,2.2971804E1,2.2935318E1,2.9667393E1,2.0620102E1,2.4700127E1,2.0827728E1,2.2540306E1,2.3629272E1,1.0149713E1,1.868399E1,2.692572E1,2.3602203E1,2.194223E1,2.2368591E1,3.5377975E1,3.6599792E1,3.7267395E1,1.1854919E1,3.25E1,3.8920166E1,3.2233032E1,3.1915771E1,0E0,0E0,0E0,0E0,0E0,0E0,0E0,0E0,0E0,0E0,0E0,0E0,0E0,0E0,0E0,0E0,0E0,0E0,0E0,0E0,0E0,0E0,0E0,0E0,0E0,0E0,0E0,0E0,0E0,0E0,0E0,0E0,0E0,0E0,0E0,0E0,0E0,0E0,0E0,0E0,0E0,0E0,0E0,0E0,0E0,0E0,0E0,0E0,0E0,0E0,0E0,0E0,0E0,0E0,0E0,0E0,0E0,0E0,0E0,0E0,0E0,0E0,0E0,0E0],"parents":[2147483647,0,0,1,1,2,2,3,3,4,4,5,5,6,6,7,7,8,8,9,9,10,10,11,11,12,12,13,13,14,14,15,15,16,16,17,17,18,18,19,19,20,20,21,21,22,22,23,23,24,24,25,25,26,26,27,27,28,28,29,29,30,30,31,31,32,32,33,33,34,34,35,35,36,36,37,37,38,38,39,39,40,40,41,41,42,42,43,43,44,44,45,45,46,46,47,47,48,48,49,49,50,50,51,51,52,52,53,53,54,54,55,55,56,56,57,57,58,58,59,59,60,60,61,61,62,62],"right_children":[2,4,6,8,10,12,14,16,18,20,22,24,26,28,30,32,34,36,38,40,42,44,46,48,50,52,54,56,58,60,62,64,66,68,70,72,74,76,78,80,82,84,86,88,90,92,94,96,98,100,102,104,106,108,110,112,114,116,118,120,122,124,126,-1,-1,-1,-1,-1,-1,-1,-1,-1,-1,-1,-1,-1,-1,-1,-1,-1,-1,-1,-1,-1,-1,-1,-1,-1,-1,-1,-1,-1,-1,-1,-1,-1,-1,-1,-1,-1,-1,-1,-1,-1,-1,-1,-1,-1,-1,-1,-1,-1,-1,-1,-1,-1,-1,-1,-1,-1,-1,-1,-1,-1,-1,-1,-1],"split_conditions":[5.090242E-1,1.3810365E-1,8.7994474E-1,-2.3281689E-1,5.090242E-1,5.090242E-1,1.6217859E0,-7.7730703E-1,1.3810365E-1,4.7916636E-1,1.2508653E0,5.090242E-1,1.2508653E0,1.6217859E0,2.363627E0,-6.037374E-1,-2.3281689E-1,-2.3281689E-1,5.090242E-1,-2.3281689E-1,5.090242E-1,9.603841E-1,8.7994474E-1,6.250132E-1,3.1876045E-1,8.7994474E-1,1.6838334E0,5.090242E-1,2.7345474E0,2.363627E0,2.363627E0,-1.2809441E0,-2.3281689E-1,-6.037374E-1,-6.037374E-1,-2.2311907E-1,6.3957226E-1,9.603841E-1,5.090242E-1,-2.3281689E-1,8.7994474E-1,5.090242E-1,1.2508653E0,1.3810365E-1,1.2508653E0,9.603841E-1,1.6217859E0,5.090242E-1,1.9927064E0,8.7994474E-1,5.090242E-1,1.3810365E-1,8.7994474E-1,1.3810365E-1,1.9927064E0,1.12079E0,1.2508653E0,5.090242E-1,2.7345474E0,1.2508653E0,1.6217859E0,1.9927064E0,-2.8825822E-1,-2.7729148E-2,-2.4528397E-2,-2.3626888E-2,-1.8343557E-2,-2.2438688E-2,-1.7514488E-2,-1.7925402E-2,-1.1522085E-2,-2.0975327E-2,-1.4230597E-2,-1.161494E-2,-5.292381E-4,-8.190465E-3,3.8402774E-3,1.1577181E-3,1.2331865E-2,-1.7812658E-2,-1.09803695E-2,-6.900315E-3,5.559441E-3,-4.6532457E-3,7.507458E-3,9.122475E-3,2.650456E-2,-3.7053425E-3,7.901975E-3,1.31479325E-2,2.8388157E-2,1.0619358E-2,2.8797243E-2,2.7863113E-2,4.4252124E-2,-1.1022071E-2,6.6834735E-4,1.3270989E-3,2.5185412E-2,-6.7043993E-6,1.2344488E-2,8.479887E-3,2.115239E-2,1.1112593E-3,1.2757209E-2,1.61719E-2,2.9326264E-2,1.3385559E-2,3.12748E-2,3.7872877E-2,6.2105503E-2,7.0774616E-3,2.2340065E-2,2.315365E-2,3.405305E-2,2.1615667E-2,4.0974665E-2,5.2982695E-2,7.583992E-2,2.9848322E-2,4.312956E-2,4.1613866E-2,6.4556144E-2,4.5486435E-2,6.501862E-2,3.2565743E-2,7.798352E-2],"split_indices":[74,65,65,29,11,2,20,84,38,85,65,20,38,11,65,47,2,20,11,47,20,85,29,84,58,29,45,56,29,74,38,84,2,74,65,57,85,4,56,2,56,38,29,38,20,49,2,11,74,38,29,47,47,47,74,76,38,38,74,2,29,29,45,0,0,0,0,0,0,0,0,0,0,0,0,0,0,0,0,0,0,0,0,0,0,0,0,0,0,0,0,0,0,0,0,0,0,0,0,0,0,0,0,0,0,0,0,0,0,0,0,0,0,0,0,0,0,0,0,0,0,0,0,0,0,0,0],"split_type":[0,0,0,0,0,0,0,0,0,0,0,0,0,0,0,0,0,0,0,0,0,0,0,0,0,0,0,0,0,0,0,0,0,0,0,0,0,0,0,0,0,0,0,0,0,0,0,0,0,0,0,0,0,0,0,0,0,0,0,0,0,0,0,0,0,0,0,0,0,0,0,0,0,0,0,0,0,0,0,0,0,0,0,0,0,0,0,0,0,0,0,0,0,0,0,0,0,0,0,0,0,0,0,0,0,0,0,0,0,0,0,0,0,0,0,0,0,0,0,0,0,0,0,0,0,0,0],"sum_hessian":[7.0492E4,4.7965E4,2.2527E4,3.3708E4,1.4257E4,1.1416E4,1.1111E4,2.0192E4,1.3516E4,9.248E3,5.009E3,6.127E3,5.289E3,6.776E3,4.335E3,7.662E3,1.253E4,9.128E3,4.388E3,6.273E3,2.975E3,3.365E3,1.644E3,4.092E3,2.035E3,3.499E3,1.79E3,4.855E3,1.921E3,2.701E3,1.634E3,3.979E3,3.683E3,7.837E3,4.693E3,4.875E3,4.253E3,3.086E3,1.302E3,2.756E3,3.517E3,1.938E3,1.037E3,2.27E3,1.095E3,7.95E2,8.49E2,2.565E3,1.527E3,8.55E2,1.18E3,2.125E3,1.374E3,1.352E3,4.38E2,1.663E3,3.192E3,1.612E3,3.09E2,1.906E3,7.95E2,8.81E2,7.53E2,2.412E3,1.567E3,2.7E3,9.83E2,2.868E3,4.969E3,1.441E3,3.252E3,2.364E3,2.511E3,3.436E3,8.17E2,2.6E3,4.86E2,7.84E2,5.18E2,1.544E3,1.212E3,2.965E3,5.52E2,1.402E3,5.36E2,7.87E2,2.5E2,9.36E2,1.334E3,7.84E2,3.11E2,4.93E2,3.02E2,5.36E2,3.13E2,2.049E3,5.16E2,1.416E3,1.11E2,6.3E2,2.25E2,5.29E2,6.51E2,7.9E2,1.335E3,6.85E2,6.89E2,2.04E2,1.148E3,2.89E2,1.49E2,1.076E3,5.87E2,1.86E3,1.332E3,3.12E2,1.3E3,2.21E2,8.8E1,8.26E2,1.08E3,3.15E2,4.8E2,4.8E2,4.01E2,4.3E1,7.1E2],"tree_param":{"num_deleted":"0","num_feature":"90","num_nodes":"127","size_leaf_vector":"1"}},{"base_weights":[2.8915628E-4,-2.0547335E-1,4.3676227E-1,-2.7841252E-1,1.15881205E-1,2.8049856E-1,8.56862E-1,-3.6746114E-1,-1.5825123E-1,2.91015E-2,4.9001658E-1,1.163255E-1,5.35071E-1,6.994511E-1,1.1180639E0,-4.3581748E-1,-2.9515833E-1,-2.3791543E-1,-1.1033964E-2,-5.074742E-2,2.8631803E-1,3.6043113E-1,7.103157E-1,-1.53869875E-2,3.0150035E-1,3.9662182E-1,7.241172E-1,5.972419E-1,9.0323967E-1,9.862871E-1,1.4160664E0,-4.794422E-1,-3.833678E-1,-3.4801188E-1,-2.2077797E-1,-3.0344072E-1,-1.4921747E-1,-8.679497E-2,1.5719505E-1,-1.6869546E-1,6.366008E-2,2.0624498E-1,5.1135284E-1,2.6755762E-1,5.60758E-1,6.391231E-1,1.2654352E0,-9.7994834E-2,1.710188E-1,2.4456982E-1,5.83515E-1,1.51786E-1,4.7812095E-1,6.560669E-1,1.0864747E0,5.498569E-1,8.6743605E-1,7.454756E-1,1.077848E0,8.875204E-1,1.305505E0,1.2206857E0,1.5931147E0,-2.6274968E-2,-2.2426015E-2,-2.0946015E-2,-1.51113765E-2,-2.1310804E-2,-1.5966417E-2,-1.2547351E-2,-2.1095127E-3,-1.787785E-2,-1.1626536E-2,-8.876184E-3,5.668101E-3,-8.498179E-3,1.0133282E-3,4.7543305E-3,2.2141514E-2,-1.2586412E-2,-4.4604084E-3,-4.3884E-3,7.7492953E-3,6.1352975E-3,1.7269677E-2,1.8270226E-2,3.645212E-2,8.407752E-3,2.420459E-2,2.6169697E-2,9.21779E-2,3.318835E-2,-8.48403E-3,4.4504512E-2,8.7622985E-2,-8.954411E-3,8.7339024E-4,3.911838E-3,1.879312E-2,8.7774E-3,2.1627722E-2,1.2852959E-2,3.2616667E-2,-6.719982E-4,1.2277397E-2,1.942125E-2,3.1738624E-2,1.8708417E-2,3.6759313E-2,4.615202E-2,6.9847316E-2,1.9769184E-2,3.068637E-2,4.2102825E-2,1.04612984E-1,2.9600149E-2,4.396172E-2,3.373463E-2,5.8280762E-2,4.081359E-2,5.8933225E-2,7.4991994E-3,6.700063E-2,1.5135962E-2,6.297083E-2,3.8129903E-2,8.40837E-2],"categories":[],"categories_nodes":[],"categories_segments":[],"categories_sizes":[],"default_left":[0,0,0,0,0,0,0,0,0,0,0,0,0,0,0,0,0,0,0,0,0,0,0,0,0,0,0,0,0,0,0,0,0,0,0,0,0,0,0,0,0,0,0,0,0,0,0,0,0,0,0,0,0,0,0,0,0,0,0,0,0,0,0,0,0,0,0,0,0,0,0,0,0,0,0,0,0,0,0,0,0,0,0,0,0,0,0,0,0,0,0,0,0,0,0,0,0,0,0,0,0,0,0,0,0,0,0,0,0,0,0,0,0,0,0,0,0,0,0,0,0,0,0,0,0,0,0],"id":11,"left_children":[1,3,5,7,9,11,13,15,17,19,21,23,25,27,29,31,33,35,37,39,41,43,45,47,49,51,53,55,57,59,61,63,65,67,69,71,73,75,77,79,81,83,85,87,89,91,93,95,97,99,101,103,105,107,109,111,113,115,117,119,121,123,125,-1,-1,-1,-1,-1,-1,-1,-1,-1,-1,-1,-1,-1,-1,-1,-1,-1,-1,-1,-1,-1,-1,-1,-1,-1,-1,-1,-1,-1,-1,-1,-1,-1,-1,-1,-1,-1,-1,-1,-1,-1,-1,-1,-1,-1,-1,-1,-1,-1,-1,-1,-1,-1,-1,-1,-1,-1,-1,-1,-1,-1,-1,-1,-1],"loss_changes":[6.320904E3,1.1211827E3,1.480019E3,4.1707837E2,2.8728937E2,6.869048E2,2.5056055E2,1.1053076E2,1.9462259E2,1.4756285E2,4.730423E1,2.4375668E2,1.6837341E2,7.896509E1,8.880591E1,2.6145264E1,4.2711E1,6.2537964E1,7.429266E1,7.399911E1,3.0563263E1,1.9403885E1,2.3535797E1,8.995987E1,6.655075E1,7.419592E1,6.643225E1,3.2107056E1,3.426367E1,4.9160156E1,2.2338867E1,8.705322E0,1.4960571E1,1.4132751E1,2.4363922E1,2.3677917E1,3.403927E1,3.5789253E1,3.2067944E1,1.7797691E1,3.851436E1,1.4569408E1,1.3903664E1,1.5415913E1,1.4948051E1,1.10354E1,1.1053505E1,3.790559E1,3.4067005E1,4.4791748E1,1.5491211E1,1.4426268E1,3.8983765E1,5.0911682E1,2.047879E1,2.114746E1,9.988525E0,1.3274475E1,2.0514648E1,2.4386536E1,1.4751831E1,1.1635834E1,2.5563293E1,0E0,0E0,0E0,0E0,0E0,0E0,0E0,0E0,0E0,0E0,0E0,0E0,0E0,0E0,0E0,0E0,0E0,0E0,0E0,0E0,0E0,0E0,0E0,0E0,0E0,0E0,0E0,0E0,0E0,0E0,0E0,0E0,0E0,0E0,0E0,0E0,0E0,0E0,0E0,0E0,0E0,0E0,0E0,0E0,0E0,0E0,0E0,0E0,0E0,0E0,0E0,0E0,0E0,0E0,0E0,0E0,0E0,0E0,0E0,0E0,0E0,0E0,0E0,0E0],"parents":[2147483647,0,0,1,1,2,2,3,3,4,4,5,5,6,6,7,7,8,8,9,9,10,10,11,11,12,12,13,13,14,14,15,15,16,16,17,17,18,18,19,19,20,20,21,21,22,22,23,23,24,24,25,25,26,26,27,27,28,28,29,29,30,30,31,31,32,32,33,33,34,34,35,35,36,36,37,37,38,38,39,39,40,40,41,41,42,42,43,43,44,44,45,45,46,46,47,47,48,48,49,49,50,50,51,51,52,52,53,53,54,54,55,55,56,56,57,57,58,58,59,59,60,60,61,61,62,62],"right_children":[2,4,6,8,10,12,14,16,18,20,22,24,26,28,30,32,34,36,38,40,42,44,46,48,50,52,54,56,58,60,62,64,66,68,70,72,74,76,78,80,82,84,86,88,90,92,94,96,98,100,102,104,106,108,110,112,114,116,118,120,122,124,126,-1,-1,-1,-1,-1,-1,-1,-1,-1,-1,-1,-1,-1,-1,-1,-1,-1,-1,-1,-1,-1,-1,-1,-1,-1,-1,-1,-1,-1,-1,-1,-1,-1,-1,-1,-1,-1,-1,-1,-1,-1,-1,-1,-1,-1,-1,-1,-1,-1,-1,-1,-1,-1,-1,-1,-1,-1,-1,-1,-1,-1,-1,-1,-1],"split_conditions":[5.090242E-1,5.090242E-1,1.6217859E0,-2.3281689E-1,1.2508653E0,8.7994474E-1,1.9927064E0,-4.225144E-1,1.3810365E-1,8.7994474E-1,1.2508653E0,5.090242E-1,1.2508653E0,1.9927064E0,2.7345474E0,-6.037374E-1,-2.3281689E-1,-2.3281689E-1,5.090242E-1,1.3810365E-1,1.2811959E0,1.6217859E0,2.7345474E0,5.090242E-1,1.9927064E0,1.3810365E-1,2.7345474E0,2.363627E0,1.6217859E0,2.7345474E0,9.962977E-1,-1.2743912E0,-2.3281689E-1,-6.037374E-1,5.090242E-1,-1.6245723E-1,8.7994474E-1,1.5835457E-1,1.4416018E0,-2.3281689E-1,-2.3281689E-1,1.3810365E-1,4.6932316E-1,1.0264695E0,2.1123016E0,2.604815E0,3.1293514E-1,1.3810365E-1,8.7994474E-1,1.2508653E0,1.3810365E-1,8.7994474E-1,1.2508653E0,5.090242E-1,2.7345474E0,5.090242E-1,2.8058982E0,9.1690886E-1,5.3514487E-1,2.7345474E0,-4.8326904E-1,-1.4138322E0,5.154862E-1,-2.6274968E-2,-2.2426015E-2,-2.0946015E-2,-1.51113765E-2,-2.1310804E-2,-1.5966417E-2,-1.2547351E-2,-2.1095127E-3,-1.787785E-2,-1.1626536E-2,-8.876184E-3,5.668101E-3,-8.498179E-3,1.0133282E-3,4.7543305E-3,2.2141514E-2,-1.2586412E-2,-4.4604084E-3,-4.3884E-3,7.7492953E-3,6.1352975E-3,1.7269677E-2,1.8270226E-2,3.645212E-2,8.407752E-3,2.420459E-2,2.6169697E-2,9.21779E-2,3.318835E-2,-8.48403E-3,4.4504512E-2,8.7622985E-2,-8.954411E-3,8.7339024E-4,3.911838E-3,1.879312E-2,8.7774E-3,2.1627722E-2,1.2852959E-2,3.2616667E-2,-6.719982E-4,1.2277397E-2,1.942125E-2,3.1738624E-2,1.8708417E-2,3.6759313E-2,4.615202E-2,6.9847316E-2,1.9769184E-2,3.068637E-2,4.2102825E-2,1.04612984E-1,2.9600149E-2,4.396172E-2,3.373463E-2,5.8280762E-2,4.081359E-2,5.8933225E-2,7.4991994E-3,6.700063E-2,1.5135962E-2,6.297083E-2,3.8129903E-2,8.40837E-2],"split_indices":[83,20,65,65,65,56,38,84,56,56,38,29,29,83,20,83,56,83,11,11,76,20,56,2,83,2,83,20,11,56,44,48,29,83,29,76,38,85,76,83,83,83,68,72,14,69,50,65,38,11,20,83,20,11,29,29,88,81,21,2,4,68,84,0,0,0,0,0,0,0,0,0,0,0,0,0,0,0,0,0,0,0,0,0,0,0,0,0,0,0,0,0,0,0,0,0,0,0,0,0,0,0,0,0,0,0,0,0,0,0,0,0,0,0,0,0,0,0,0,0,0,0,0,0,0,0,0],"split_type":[0,0,0,0,0,0,0,0,0,0,0,0,0,0,0,0,0,0,0,0,0,0,0,0,0,0,0,0,0,0,0,0,0,0,0,0,0,0,0,0,0,0,0,0,0,0,0,0,0,0,0,0,0,0,0,0,0,0,0,0,0,0,0,0,0,0,0,0,0,0,0,0,0,0,0,0,0,0,0,0,0,0,0,0,0,0,0,0,0,0,0,0,0,0,0,0,0,0,0,0,0,0,0,0,0,0,0,0,0,0,0,0,0,0,0,0,0,0,0,0,0,0,0,0,0,0,0],"sum_hessian":[7.0379E4,4.7831E4,2.2548E4,3.8983E4,8.848E3,1.6436E4,6.112E3,2.2389E4,1.6594E4,7.183E3,1.665E3,9.993E3,6.443E3,3.816E3,2.296E3,1.1506E4,1.0883E4,1.0767E4,5.827E3,5.482E3,1.701E3,1.05E3,6.15E2,5.84E3,4.153E3,3.721E3,2.722E3,2.544E3,1.272E3,1.595E3,7.01E2,6.277E3,5.229E3,6.36E3,4.523E3,6.191E3,4.576E3,4.018E3,1.809E3,2.699E3,2.783E3,1.256E3,4.45E2,7.19E2,3.31E2,5.47E2,6.8E1,4.047E3,1.793E3,3.457E3,6.96E2,9.3E2,2.791E3,2.294E3,4.28E2,2.167E3,3.77E2,6.71E2,6.01E2,1.221E3,3.74E2,3.37E2,3.64E2,2.515E3,3.762E3,3.633E3,1.596E3,1.703E3,4.657E3,3.869E3,6.54E2,3.509E3,2.682E3,4.131E3,4.45E2,2.261E3,1.757E3,1.487E3,3.22E2,1.319E3,1.38E3,1.047E3,1.736E3,7.86E2,4.7E2,2.68E2,1.77E2,4.94E2,2.25E2,3.23E2,8E0,5.31E2,1.6E1,4E1,2.8E1,2.377E3,1.67E3,1.235E3,5.58E2,2.53E3,9.27E2,1.22E2,5.74E2,3.37E2,5.93E2,1.777E3,1.014E3,5.04E2,1.79E3,2.83E2,1.45E2,6.36E2,1.531E3,3.71E2,6E0,3.15E2,3.56E2,1.09E2,4.92E2,9.84E2,2.37E2,1.1E1,3.63E2,1.4E1,3.23E2,3.6E1,3.28E2],"tree_param":{"num_deleted":"0","num_feature":"90","num_nodes":"127","size_leaf_vector":"1"}},{"base_weights":[-7.415605E-4,-1.967358E-1,4.1888607E-1,-2.9774597E-1,3.496216E-2,2.2132304E-1,7.611351E-1,-3.6999205E-1,-1.8624532E-1,-1.1968811E-1,1.9708851E-1,3.6241446E-2,4.0180722E-1,6.392606E-1,1.135376E0,-4.2709783E-1,-3.111852E-1,-2.5153244E-1,-3.896459E-2,-2.0691517E-1,1.6587274E-2,1.18483745E-1,4.8126087E-1,-1.576021E-1,1.2704748E-1,2.8277522E-1,6.0307896E-1,5.151798E-1,8.42361E-1,8.4023225E-1,1.286635E0,-4.697477E-1,-3.834869E-1,-3.5483935E-1,-2.4344765E-1,-3.1372982E-1,-1.7216153E-1,-1.3384074E-1,7.889044E-2,-2.8750053E-1,-1.2210412E-1,-4.744162E-2,1.6744089E-1,1.4249578E-2,2.5918072E-1,3.376758E-1,6.19843E-1,-2.6453704E-1,-8.716917E-2,7.0881695E-2,3.994233E-1,1.3628078E-1,3.9028308E-1,4.927055E-1,7.825075E-1,4.6295926E-1,8.2161534E-1,7.8693664E-1,1.1893312E0,8.175713E-1,2.4565175E0,9.925015E-1,1.4299595E0,-2.5198832E-2,-2.16113E-2,-2.007527E-2,-1.4408521E-2,-1.9202875E-2,-1.47284195E-2,-1.4012528E-2,-6.9777863E-3,-1.833851E-2,-1.1628031E-2,-1.2737221E-2,-5.324171E-3,-9.068426E-3,1.9404568E-3,3.846686E-4,1.4360127E-2,-1.7167343E-2,-1.0746528E-2,-8.96361E-3,-7.741688E-4,-3.5276052E-3,1.8643906E-2,4.6991035E-3,1.756507E-2,-2.364338E-4,2.537025E-2,8.3492985E-3,2.0165488E-2,1.2550103E-2,2.6959691E-2,2.7203415E-2,5.02265E-2,-1.5971502E-2,-6.7869658E-3,-6.0535367E-3,8.614512E-3,1.2140464E-3,1.5305916E-2,1.2810314E-2,2.8373951E-2,3.9894325E-3,2.2816097E-2,1.7632047E-2,3.9331507E-2,1.2919411E-2,2.8062481E-2,3.6537215E-2,7.0313804E-2,1.630955E-2,2.9157868E-2,1.2664683E-2,4.3841828E-2,3.524397E-2,5.0724704E-2,1.0803484E-1,5.690815E-2,3.966148E-2,1.0522335E-1,4.3607734E-2,1.5516698E-1,4.0084623E-2,6.1852764E-2,6.699463E-2,8.688909E-2],"categories":[],"categories_nodes":[],"categories_segments":[],"categories_sizes":[],"default_left":[0,0,0,0,0,0,0,0,0,0,0,0,0,0,0,0,0,0,0,0,0,0,0,0,0,0,0,0,0,0,0,0,0,0,0,0,0,0,0,0,0,0,0,0,0,0,0,0,0,0,0,0,0,0,0,0,0,0,0,0,0,0,0,0,0,0,0,0,0,0,0,0,0,0,0,0,0,0,0,0,0,0,0,0,0,0,0,0,0,0,0,0,0,0,0,0,0,0,0,0,0,0,0,0,0,0,0,0,0,0,0,0,0,0,0,0,0,0,0,0,0,0,0,0,0,0,0],"id":12,"left_children":[1,3,5,7,9,11,13,15,17,19,21,23,25,27,29,31,33,35,37,39,41,43,45,47,49,51,53,55,57,59,61,63,65,67,69,71,73,75,77,79,81,83,85,87,89,91,93,95,97,99,101,103,105,107,109,111,113,115,117,119,121,123,125,-1,-1,-1,-1,-1,-1,-1,-1,-1,-1,-1,-1,-1,-1,-1,-1,-1,-1,-1,-1,-1,-1,-1,-1,-1,-1,-1,-1,-1,-1,-1,-1,-1,-1,-1,-1,-1,-1,-1,-1,-1,-1,-1,-1,-1,-1,-1,-1,-1,-1,-1,-1,-1,-1,-1,-1,-1,-1,-1,-1,-1,-1,-1,-1],"loss_changes":[5.8052354E3,1.1260402E3,1.5192932E3,2.6983813E2,3.6628827E2,4.7596326E2,3.7437402E2,6.814258E1,1.2668445E2,8.888179E1,1.592526E2,1.2386885E2,1.7266089E2,1.559624E2,8.905347E1,1.9000244E1,2.954303E1,4.5012817E1,4.5273804E1,3.1123505E1,2.8202538E1,8.194675E1,3.053363E1,1.6885696E1,7.328068E1,7.13699E1,5.2689636E1,6.130829E1,4.4294556E1,2.3154053E1,5.4775635E1,6.47229E0,8.6502075E0,1.061322E1,1.498735E1,2.1944641E1,2.1738945E1,1.8412346E1,2.6782959E1,9.397537E0,1.3547085E1,1.9939579E1,1.1717356E1,3.0054882E1,3.1531372E1,1.3156532E1,2.2335846E1,6.2561035E0,1.1939542E1,4.3556374E1,1.9566666E1,3.46949E1,3.8736725E1,2.6548462E1,3.1874146E1,5.3993713E1,1.735257E1,3.720923E1,1.3545166E1,1.9600647E1,6.516617E0,1.9540009E1,2.2457275E1,0E0,0E0,0E0,0E0,0E0,0E0,0E0,0E0,0E0,0E0,0E0,0E0,0E0,0E0,0E0,0E0,0E0,0E0,0E0,0E0,0E0,0E0,0E0,0E0,0E0,0E0,0E0,0E0,0E0,0E0,0E0,0E0,0E0,0E0,0E0,0E0,0E0,0E0,0E0,0E0,0E0,0E0,0E0,0E0,0E0,0E0,0E0,0E0,0E0,0E0,0E0,0E0,0E0,0E0,0E0,0E0,0E0,0E0,0E0,0E0,0E0,0E0,0E0,0E0],"parents":[2147483647,0,0,1,1,2,2,3,3,4,4,5,5,6,6,7,7,8,8,9,9,10,10,11,11,12,12,13,13,14,14,15,15,16,16,17,17,18,18,19,19,20,20,21,21,22,22,23,23,24,24,25,25,26,26,27,27,28,28,29,29,30,30,31,31,32,32,33,33,34,34,35,35,36,36,37,37,38,38,39,39,40,40,41,41,42,42,43,43,44,44,45,45,46,46,47,47,48,48,49,49,50,50,51,51,52,52,53,53,54,54,55,55,56,56,57,57,58,58,59,59,60,60,61,61,62,62],"right_children":[2,4,6,8,10,12,14,16,18,20,22,24,26,28,30,32,34,36,38,40,42,44,46,48,50,52,54,56,58,60,62,64,66,68,70,72,74,76,78,80,82,84,86,88,90,92,94,96,98,100,102,104,106,108,110,112,114,116,118,120,122,124,126,-1,-1,-1,-1,-1,-1,-1,-1,-1,-1,-1,-1,-1,-1,-1,-1,-1,-1,-1,-1,-1,-1,-1,-1,-1,-1,-1,-1,-1,-1,-1,-1,-1,-1,-1,-1,-1,-1,-1,-1,-1,-1,-1,-1,-1,-1,-1,-1,-1,-1,-1,-1,-1,-1,-1,-1,-1,-1,-1,-1,-1,-1,-1,-1],"split_conditions":[5.090242E-1,1.3810365E-1,1.2508653E0,-2.3281689E-1,1.3810365E-1,5.090242E-1,2.363627E0,-6.088039E-1,1.3810365E-1,1.3810365E-1,1.2508653E0,-2.3281689E-1,1.2508653E0,1.6217859E0,1.6217859E0,-6.037374E-1,-2.3281689E-1,-2.3281689E-1,1.3810365E-1,-2.3281689E-1,5.090242E-1,5.090242E-1,8.7994474E-1,-2.3281689E-1,1.2508653E0,4.7916636E-1,1.6217859E0,2.7345474E0,3.105468E0,4.9600706E0,1.6217859E0,-6.037374E-1,-4.8326904E-1,-2.3281689E-1,1.3810365E-1,-1.6245723E-1,-2.3281689E-1,6.3957226E-1,8.7994474E-1,3.5915273E-1,1.3810365E-1,1.6217859E0,1.2508653E0,1.9927064E0,8.7994474E-1,1.2508653E0,2.363627E0,1.3810365E-1,1.2811959E0,1.2508653E0,8.7994474E-1,1.6217859E0,2.363627E0,4.040869E-1,3.4763885E0,8.7994474E-1,3.5915273E-1,2.363627E0,-3.9781886E-1,4.9600706E0,1.9927064E0,1.9927064E0,3.4763885E0,-2.5198832E-2,-2.16113E-2,-2.007527E-2,-1.4408521E-2,-1.9202875E-2,-1.47284195E-2,-1.4012528E-2,-6.9777863E-3,-1.833851E-2,-1.1628031E-2,-1.2737221E-2,-5.324171E-3,-9.068426E-3,1.9404568E-3,3.846686E-4,1.4360127E-2,-1.7167343E-2,-1.0746528E-2,-8.96361E-3,-7.741688E-4,-3.5276052E-3,1.8643906E-2,4.6991035E-3,1.756507E-2,-2.364338E-4,2.537025E-2,8.3492985E-3,2.0165488E-2,1.2550103E-2,2.6959691E-2,2.7203415E-2,5.02265E-2,-1.5971502E-2,-6.7869658E-3,-6.0535367E-3,8.614512E-3,1.2140464E-3,1.5305916E-2,1.2810314E-2,2.8373951E-2,3.9894325E-3,2.2816097E-2,1.7632047E-2,3.9331507E-2,1.2919411E-2,2.8062481E-2,3.6537215E-2,7.0313804E-2,1.630955E-2,2.9157868E-2,1.2664683E-2,4.3841828E-2,3.524397E-2,5.0724704E-2,1.0803484E-1,5.690815E-2,3.966148E-2,1.0522335E-1,4.3607734E-2,1.5516698E-1,4.0084623E-2,6.1852764E-2,6.699463E-2,8.688909E-2],"split_indices":[38,83,83,74,29,65,74,75,20,74,47,83,11,65,38,65,2,2,47,11,2,20,11,29,74,76,2,83,47,83,2,20,76,11,20,85,65,85,29,84,47,65,83,74,74,20,29,20,76,47,11,20,56,75,65,56,84,56,18,56,20,29,47,0,0,0,0,0,0,0,0,0,0,0,0,0,0,0,0,0,0,0,0,0,0,0,0,0,0,0,0,0,0,0,0,0,0,0,0,0,0,0,0,0,0,0,0,0,0,0,0,0,0,0,0,0,0,0,0,0,0,0,0,0,0,0,0],"split_type":[0,0,0,0,0,0,0,0,0,0,0,0,0,0,0,0,0,0,0,0,0,0,0,0,0,0,0,0,0,0,0,0,0,0,0,0,0,0,0,0,0,0,0,0,0,0,0,0,0,0,0,0,0,0,0,0,0,0,0,0,0,0,0,0,0,0,0,0,0,0,0,0,0,0,0,0,0,0,0,0,0,0,0,0,0,0,0,0,0,0,0,0,0,0,0,0,0,0,0,0,0,0,0,0,0,0,0,0,0,0,0,0,0,0,0,0,0,0,0,0,0,0,0,0,0,0,0],"sum_hessian":[7.0583E4,4.8112E4,2.2471E4,3.3505E4,1.4607E4,1.4248E4,8.223E3,2.033E4,1.3175E4,7.476E3,7.131E3,7.035E3,7.213E3,6.205E3,2.018E3,1.0311E4,1.0019E4,9.128E3,4.047E3,4.558E3,2.918E3,5.587E3,1.544E3,2.244E3,4.791E3,4.534E3,2.679E3,3.854E3,2.351E3,6.86E2,1.332E3,5.208E3,5.103E3,6.09E3,3.929E3,5.116E3,4.012E3,2.242E3,1.805E3,2.336E3,2.222E3,2.049E3,8.69E2,3.21E3,2.377E3,7.6E2,7.84E2,8.9E2,1.354E3,3.973E3,8.18E2,1.92E3,2.614E3,1.661E3,1.018E3,3.295E3,5.59E2,2.03E3,3.21E2,6.78E2,8E0,4.39E2,8.93E2,2.717E3,2.491E3,4.289E3,8.14E2,4.098E3,1.992E3,2.9E3,1.029E3,3.092E3,2.024E3,1.776E3,2.236E3,1.758E3,4.84E2,1.346E3,4.59E2,1.318E3,1.018E3,1.446E3,7.76E2,1.943E3,1.06E2,6.22E2,2.47E2,3.092E3,1.18E2,1.451E3,9.26E2,5.33E2,2.27E2,6.57E2,1.27E2,6.23E2,2.67E2,1.198E3,1.56E2,3.317E3,6.56E2,4.43E2,3.75E2,1.633E3,2.87E2,2.389E3,2.25E2,3.77E2,1.284E3,9.42E2,7.6E1,1.543E3,1.752E3,5E1,5.09E2,1.495E3,5.35E2,1.4E1,3.07E2,6.67E2,1.1E1,3E0,5E0,2.49E2,1.9E2,6.95E2,1.98E2],"tree_param":{"num_deleted":"0","num_feature":"90","num_nodes":"127","size_leaf_vector":"1"}},{"base_weights":[1.5466909E-3,-1.492512E-1,5.057456E-1,-2.3414809E-1,1.6049312E-1,3.4554663E-1,8.4025246E-1,-3.2987404E-1,-1.16190076E-1,4.0235035E-2,3.9126647E-1,1.8190747E-1,5.413455E-1,7.125161E-1,1.1414499E0,-4.119438E-1,-2.7903834E-1,-2.0320722E-1,2.7277311E-2,-9.390613E-2,1.5982603E-1,2.7682504E-1,5.940307E-1,-5.417338E-3,2.9462558E-1,4.3244556E-1,7.614585E-1,5.9063786E-1,8.7487787E-1,9.9450934E-1,