{"learner":{"attributes":{},"feature_names":[],"feature_types":[],"gradient_booster":{"model":{"cats":{"enc":[],"feature_segments":[],"sorted_idx":[]},"gbtree_model_param":{"num_parallel_tree":"1","num_trees":"300"},"iteration_indptr":[0,1,2,3,4,5,6,7,8,9,10,11,12,13,14,15,16,17,18,19,20,21,22,23,24,25,26,27,28,29,30,31,32,33,34,35,36,37,38,39,40,41,42,43,44,45,46,47,48,49,50,51,52,53,54,55,56,57,58,59,60,61,62,63,64,65,66,67,68,69,70,71,72,73,74,75,76,77,78,79,80,81,82,83,84,85,86,87,88,89,90,91,92,93,94,95,96,97,98,99,100,101,102,103,104,105,106,107,108,109,110,111,112,113,114,115,116,117,118,119,120,121,122,123,124,125,126,127,128,129,130,131,132,133,134,135,136,137,138,139,140,141,142,143,144,145,146,147,148,149,150,151,152,153,154,155,156,157,158,159,160,161,162,163,164,165,166,167,168,169,170,171,172,173,174,175,176,177,178,179,180,181,182,183,184,185,186,187,188,189,190,191,192,193,194,195,196,197,198,199,200,201,202,203,204,205,206,207,208,209,210,211,212,213,214,215,216,217,218,219,220,221,222,223,224,225,226,227,228,229,230,231,232,233,234,235,236,237,238,239,240,241,242,243,244,245,246,247,248,249,250,251,252,253,254,255,256,257,258,259,260,261,262,263,264,265,266,267,268,269,270,271,272,273,274,275,276,277,278,279,280,281,282,283,284,285,286,287,288,289,290,291,292,293,294,295,296,297,298,299,300],"tree_info":[0,0,0,0,0,0,0,0,0,0,0,0,0,0,0,0,0,0,0,0,0,0,0,0,0,0,0,0,0,0,0,0,0,0,0,0,0,0,0,0,0,0,0,0,0,0,0,0,0,0,0,0,0,0,0,0,0,0,0,0,0,0,0,0,0,0,0,0,0,0,0,0,0,0,0,0,0,0,0,0,0,0,0,0,0,0,0,0,0,0,0,0,0,0,0,0,0,0,0,0,0,0,0,0,0,0,0,0,0,0,0,0,0,0,0,0,0,0,0,0,0,0,0,0,0,0,0,0,0,0,0,0,0,0,0,0,0,0,0,0,0,0,0,0,0,0,0,0,0,0,0,0,0,0,0,0,0,0,0,0,0,0,0,0,0,0,0,0,0,0,0,0,0,0,0,0,0,0,0,0,0,0,0,0,0,0,0,0,0,0,0,0,0,0,0,0,0,0,0,0,0,0,0,0,0,0,0,0,0,0,0,0,0,0,0,0,0,0,0,0,0,0,0,0,0,0,0,0,0,0,0,0,0,0,0,0,0,0,0,0,0,0,0,0,0,0,0,0,0,0,0,0,0,0,0,0,0,0,0,0,0,0,0,0,0,0,0,0,0,0,0,0,0,0,0,0,0,0,0,0,0,0,0,0,0,0,0,0,0,0,0,0,0,0,0,0,0,0,0,0],"trees":[{"base_weights":[1.3986118E-3,-2.5313643E-1,7.553267E-1,-4.305166E-1,9.487495E-2,3.828586E-1,1.2346236E0,-5.6355935E-1,-2.1467598E-1,-2.5732664E-2,5.7704145E-1,1.9538316E-1,8.420124E-1,9.082456E-1,1.5480136E0,-7.3077005E-1,-4.292773E-1,-3.700782E-1,-6.751834E-2,-1.5051611E-1,2.2550485E-1,3.9661878E-1,9.939626E-1,5.870146E-2,5.059106E-1,6.4626896E-1,1.2974807E0,6.6214144E-1,1.1898671E0,1.2008014E0,1.7255993E0,-8.339586E-1,-5.886349E-1,-5.072564E-1,-2.9801062E-1,-5.8194053E-1,-3.178267E-1,-1.6941392E-1,1.522046E-1,-2.6655897E-1,2.3085037E-2,1.2823957E-1,5.568681E-1,2.788766E-1,7.5965035E-1,7.99246E-1,1.3653504E0,-8.269373E-2,2.1752535E-1,3.9465955E-1,9.596304E-1,4.9867442E-1,9.798093E-1,1.0994321E0,1.6452949E0,5.721252E-1,1.1224293E0,9.559228E-1,1.4351473E0,9.405141E-1,1.4227597E0,1.5096651E0,1.9334294E0,-4.660413E-2,-3.67891E-2,-3.3014018E-2,-2.0112697E-2,-2.8046152E-2,-1.9596744E-2,-1.6688533E-2,-9.747146E-4,-3.4742307E-2,-2.3096958E-2,-1.8488625E-2,-4.8321863E-3,-1.2194572E-2,1.5407827E-3,3.3752855E-3,2.1714315E-2,-1.856439E-2,-6.3854554E-3,-3.730859E-3,1.0809077E-2,2.5656763E-3,2.089503E-2,2.0233858E-2,3.9362308E-2,9.156262E-3,2.737512E-2,2.8524905E-2,5.5901475E-2,2.2847632E-2,4.6574987E-2,3.9743483E-2,7.519128E-2,-8.633076E-3,4.897908E-3,6.7034923E-3,2.4995945E-2,1.2931804E-2,3.0350184E-2,2.652905E-2,5.599252E-2,2.230688E-2,5.062641E-2,4.0130984E-2,6.581392E-2,3.7600484E-2,6.6595934E-2,7.179735E-2,9.671956E-2,2.1803856E-2,4.2042136E-2,4.5250967E-2,6.854347E-2,4.0205605E-2,6.2478628E-2,6.7473285E-2,1.0245657E-1,4.1859776E-2,7.8735925E-2,5.831921E-2,7.845562E-2,5.3748544E-2,8.159335E-2,8.970275E-2,1.0831132E-1],"categories":[],"categories_nodes":[],"categories_segments":[],"categories_sizes":[],"default_left":[0,0,0,0,0,0,0,0,0,0,0,0,0,0,0,0,0,0,0,0,0,0,0,0,0,0,0,0,0,0,0,0,0,0,0,0,0,0,0,0,0,0,0,0,0,0,0,0,0,0,0,0,0,0,0,0,0,0,0,0,0,0,0,0,0,0,0,0,0,0,0,0,0,0,0,0,0,0,0,0,0,0,0,0,0,0,0,0,0,0,0,0,0,0,0,0,0,0,0,0,0,0,0,0,0,0,0,0,0,0,0,0,0,0,0,0,0,0,0,0,0,0,0,0,0,0,0],"id":0,"left_children":[1,3,5,7,9,11,13,15,17,19,21,23,25,27,29,31,33,35,37,39,41,43,45,47,49,51,53,55,57,59,61,63,65,67,69,71,73,75,77,79,81,83,85,87,89,91,93,95,97,99,101,103,105,107,109,111,113,115,117,119,121,123,125,-1,-1,-1,-1,-1,-1,-1,-1,-1,-1,-1,-1,-1,-1,-1,-1,-1,-1,-1,-1,-1,-1,-1,-1,-1,-1,-1,-1,-1,-1,-1,-1,-1,-1,-1,-1,-1,-1,-1,-1,-1,-1,-1,-1,-1,-1,-1,-1,-1,-1,-1,-1,-1,-1,-1,-1,-1,-1,-1,-1,-1,-1,-1,-1],"loss_changes":[1.3519049E4,3.2511921E3,3.1738408E3,1.0016665E3,1.0340906E3,8.612384E2,7.9384766E2,4.842754E2,3.0424207E2,4.4599167E2,2.6724585E2,3.016157E2,2.5780005E2,2.633457E2,2.4241016E2,1.404707E2,1.2239502E2,7.144983E1,1.530532E2,1.9148601E2,1.5208705E2,1.0600729E2,7.657532E1,1.1086542E2,1.092569E2,9.9494995E1,5.8189087E1,8.371619E1,1.0053833E2,7.636633E1,1.14706055E2,5.2934326E1,5.3762085E1,4.6252808E1,4.4453857E1,1.7007935E1,5.9629395E1,6.964937E1,5.172077E1,8.279599E1,7.187655E1,8.133188E1,3.723224E1,4.820433E1,4.0577393E1,3.1579926E1,2.7875732E1,4.2469357E1,5.472695E1,5.027408E1,2.875879E1,3.7612976E1,3.602643E1,4.4068604E1,1.6226135E1,6.1965576E1,1.6691772E1,3.9651367E1,4.273999E1,3.9438293E1,2.5335083E1,6.6770996E1,3.9331543E1,0E0,0E0,0E0,0E0,0E0,0E0,0E0,0E0,0E0,0E0,0E0,0E0,0E0,0E0,0E0,0E0,0E0,0E0,0E0,0E0,0E0,0E0,0E0,0E0,0E0,0E0,0E0,0E0,0E0,0E0,0E0,0E0,0E0,0E0,0E0,0E0,0E0,0E0,0E0,0E0,0E0,0E0,0E0,0E0,0E0,0E0,0E0,0E0,0E0,0E0,0E0,0E0,0E0,0E0,0E0,0E0,0E0,0E0,0E0,0E0,0E0,0E0,0E0,0E0],"parents":[2147483647,0,0,1,1,2,2,3,3,4,4,5,5,6,6,7,7,8,8,9,9,10,10,11,11,12,12,13,13,14,14,15,15,16,16,17,17,18,18,19,19,20,20,21,21,22,22,23,23,24,24,25,25,26,26,27,27,28,28,29,29,30,30,31,31,32,32,33,33,34,34,35,35,36,36,37,37,38,38,39,39,40,40,41,41,42,42,43,43,44,44,45,45,46,46,47,47,48,48,49,49,50,50,51,51,52,52,53,53,54,54,55,55,56,56,57,57,58,58,59,59,60,60,61,61,62,62],"right_children":[2,4,6,8,10,12,14,16,18,20,22,24,26,28,30,32,34,36,38,40,42,44,46,48,50,52,54,56,58,60,62,64,66,68,70,72,74,76,78,80,82,84,86,88,90,92,94,96,98,100,102,104,106,108,110,112,114,116,118,120,122,124,126,-1,-1,-1,-1,-1,-1,-1,-1,-1,-1,-1,-1,-1,-1,-1,-1,-1,-1,-1,-1,-1,-1,-1,-1,-1,-1,-1,-1,-1,-1,-1,-1,-1,-1,-1,-1,-1,-1,-1,-1,-1,-1,-1,-1,-1,-1,-1,-1,-1,-1,-1,-1,-1,-1,-1,-1,-1,-1,-1,-1,-1,-1,-1,-1],"split_conditions":[7.2151124E-1,1.596355E-1,1.002449E0,-1.2130237E-1,1.002449E0,1.002449E0,1.283387E0,-4.9927694E-1,-1.2130237E-1,4.4057336E-1,1.283387E0,7.2151124E-1,1.5643249E0,1.002449E0,1.5643249E0,-6.831781E-1,-1.2130237E-1,-8.624947E-1,4.4057336E-1,1.596355E-1,1.002449E0,1.283387E0,1.5643249E0,1.596355E-1,1.5643249E0,1.283387E0,1.8452626E0,1.8452626E0,1.283387E0,1.283387E0,1.8452626E0,-6.831781E-1,-1.2130237E-1,-1.2130237E-1,7.2151124E-1,-4.0224025E-1,4.4057336E-1,4.4057336E-1,1.002449E0,-1.2130237E-1,4.4057336E-1,1.283387E0,1.002449E0,1.002449E0,1.283387E0,4.4057336E-1,1.23248406E-1,1.283387E0,1.002449E0,7.2151124E-1,4.4057336E-1,2.1262004E0,1.5643249E0,1.002449E0,2.6880763E0,1.002449E0,1.283387E0,1.5643249E0,2.9690142E0,2.6880763E0,1.283387E0,7.2151124E-1,2.4071383E0,-4.660413E-2,-3.67891E-2,-3.3014018E-2,-2.0112697E-2,-2.8046152E-2,-1.9596744E-2,-1.6688533E-2,-9.747146E-4,-3.4742307E-2,-2.3096958E-2,-1.8488625E-2,-4.8321863E-3,-1.2194572E-2,1.5407827E-3,3.3752855E-3,2.1714315E-2,-1.856439E-2,-6.3854554E-3,-3.730859E-3,1.0809077E-2,2.5656763E-3,2.089503E-2,2.0233858E-2,3.9362308E-2,9.156262E-3,2.737512E-2,2.8524905E-2,5.5901475E-2,2.2847632E-2,4.6574987E-2,3.9743483E-2,7.519128E-2,-8.633076E-3,4.897908E-3,6.7034923E-3,2.4995945E-2,1.2931804E-2,3.0350184E-2,2.652905E-2,5.599252E-2,2.230688E-2,5.062641E-2,4.0130984E-2,6.581392E-2,3.7600484E-2,6.6595934E-2,7.179735E-2,9.671956E-2,2.1803856E-2,4.2042136E-2,4.5250967E-2,6.854347E-2,4.0205605E-2,6.2478628E-2,6.7473285E-2,1.0245657E-1,4.1859776E-2,7.8735925E-2,5.831921E-2,7.845562E-2,5.3748544E-2,8.159335E-2,8.970275E-2,1.0831132E-1],"split_indices":[82,73,73,64,19,37,37,84,19,55,1,55,1,28,82,82,37,84,55,64,28,55,37,28,64,64,28,64,55,19,64,19,55,55,55,1,55,37,37,82,1,73,37,64,28,55,66,82,64,19,28,19,28,55,1,1,19,19,82,73,28,1,19,0,0,0,0,0,0,0,0,0,0,0,0,0,0,0,0,0,0,0,0,0,0,0,0,0,0,0,0,0,0,0,0,0,0,0,0,0,0,0,0,0,0,0,0,0,0,0,0,0,0,0,0,0,0,0,0,0,0,0,0,0,0,0,0],"split_type":[0,0,0,0,0,0,0,0,0,0,0,0,0,0,0,0,0,0,0,0,0,0,0,0,0,0,0,0,0,0,0,0,0,0,0,0,0,0,0,0,0,0,0,0,0,0,0,0,0,0,0,0,0,0,0,0,0,0,0,0,0,0,0,0,0,0,0,0,0,0,0,0,0,0,0,0,0,0,0,0,0,0,0,0,0,0,0,0,0,0,0,0,0,0,0,0,0,0,0,0,0,0,0,0,0,0,0,0,0,0,0,0,0,0,0,0,0,0,0,0,0,0,0,0,0,0,0],"sum_hessian":[7.0446E4,5.2666E4,1.778E4,3.4885E4,1.7781E4,1.0006E4,7.774E3,2.1581E4,1.3304E4,1.4224E4,3.557E3,7.106E3,2.9E3,3.81E3,3.964E3,9.61E3,1.1971E4,6.47E3,6.834E3,9.504E3,4.72E3,2.484E3,1.073E3,4.935E3,2.171E3,2.03E3,8.7E2,2.035E3,1.775E3,1.344E3,2.62E3,5.565E3,4.045E3,7.508E3,4.463E3,1.278E3,5.192E3,4.669E3,2.165E3,5.696E3,3.808E3,3.65E3,1.07E3,1.877E3,6.07E2,7.06E2,3.67E2,2.611E3,2.324E3,1.745E3,4.26E2,1.409E3,6.21E2,5.57E2,3.13E2,1.704E3,3.31E2,9.11E2,8.64E2,6.21E2,7.23E2,1.289E3,1.331E3,2.779E3,2.786E3,2.92E3,1.125E3,5.121E3,2.387E3,3.955E3,5.08E2,6.56E2,6.22E2,4.204E3,9.88E2,3.403E3,1.266E3,1.666E3,4.99E2,3.246E3,2.45E3,2.529E3,1.279E3,2.885E3,7.65E2,6.46E2,4.24E2,1.385E3,4.92E2,3.99E2,2.08E2,1.98E2,5.08E2,7.3E1,2.94E2,1.743E3,8.68E2,1.795E3,5.29E2,1.065E3,6.8E2,1.17E2,3.09E2,1.28E3,1.29E2,4.09E2,2.12E2,2.25E2,3.32E2,1.85E2,1.28E2,1.133E3,5.71E2,1.79E2,1.52E2,6.03E2,3.08E2,7.61E2,1.03E2,5.36E2,8.5E1,2.66E2,4.57E2,2.85E2,1.004E3,8.38E2,4.93E2],"tree_param":{"num_deleted":"0","num_feature":"90","num_nodes":"127","size_leaf_vector":"1"}},{"base_weights":[2.7679328E-3,-2.3842831E-1,7.157077E-1,-4.1007522E-1,9.216732E-2,4.193623E-1,1.2734865E0,-5.7710236E-1,-2.5245434E-1,-9.242561E-2,3.867596E-1,2.1185131E-1,8.3268094E-1,9.3432826E-1,1.5565445E0,-7.0746636E-1,-4.4207966E-1,-3.5003972E-1,-4.875438E-2,-2.2628139E-1,8.421284E-2,2.4835919E-1,8.664237E-1,9.8361164E-2,5.943944E-1,6.6854787E-1,1.2199398E0,6.3071823E-1,1.210976E0,1.2220082E0,1.7257304E0,-7.9075384E-1,-5.577633E-1,-5.1950306E-1,-3.1434935E-1,-4.3515614E-1,-2.2627288E-1,-1.2304035E-1,2.2882608E-1,-3.3871982E-1,-1.0956258E-1,-1.5380942E-2,3.2878602E-1,1.0749669E-1,5.0897986E-1,4.845572E-1,1.0154613E0,5.9066475E-3,3.618854E-1,4.6703616E-1,1.023627E0,5.607827E-1,1.1602367E0,1.0980226E0,1.562678E0,4.6150053E-1,8.862095E-1,1.042817E0,1.4988315E0,1.0984632E0,1.6132077E0,1.5072366E0,1.914697E0,-4.3849163E-2,-3.551118E-2,-3.0517315E-2,-1.6314328E-2,-3.0413589E-2,-2.1574581E-2,-1.8334987E-2,-4.1886517E-3,-2.8787676E-2,-1.8917924E-2,-1.5125537E-2,-4.4794865E-3,-1.0989011E-2,1.0712406E-3,3.349448E-3,2.2101497E-2,-2.3983104E-2,-1.286723E-2,-1.4807026E-2,-1.8144855E-3,-6.067294E-3,4.860405E-3,8.596103E-3,2.7150346E-2,-2.9338864E-4,1.453727E-2,1.5933054E-2,3.550616E-2,7.3283105E-3,3.048948E-2,4.138301E-2,6.448696E-2,-5.4693893E-3,7.1204132E-3,1.34443E-2,3.567987E-2,1.6104562E-2,3.756107E-2,4.022495E-2,6.354809E-2,2.318033E-2,4.7009997E-2,4.34242E-2,6.736276E-2,4.0479194E-2,6.0492106E-2,6.58012E-2,9.21226E-2,1.9597948E-2,4.4441022E-2,4.1295215E-2,8.167684E-2,4.2235587E-2,6.397895E-2,1.0957745E-2,7.775597E-2,4.2453688E-2,6.241859E-2,6.936941E-2,9.840324E-2,6.51141E-2,8.642374E-2,8.3038494E-2,1.0218685E-1],"categories":[],"categories_nodes":[],"categories_segments":[],"categories_sizes":[],"default_left":[0,0,0,0,0,0,0,0,0,0,0,0,0,0,0,0,0,0,0,0,0,0,0,0,0,0,0,0,0,0,0,0,0,0,0,0,0,0,0,0,0,0,0,0,0,0,0,0,0,0,0,0,0,0,0,0,0,0,0,0,0,0,0,0,0,0,0,0,0,0,0,0,0,0,0,0,0,0,0,0,0,0,0,0,0,0,0,0,0,0,0,0,0,0,0,0,0,0,0,0,0,0,0,0,0,0,0,0,0,0,0,0,0,0,0,0,0,0,0,0,0,0,0,0,0,0,0],"id":1,"left_children":[1,3,5,7,9,11,13,15,17,19,21,23,25,27,29,31,33,35,37,39,41,43,45,47,49,51,53,55,57,59,61,63,65,67,69,71,73,75,77,79,81,83,85,87,89,91,93,95,97,99,101,103,105,107,109,111,113,115,117,119,121,123,125,-1,-1,-1,-1,-1,-1,-1,-1,-1,-1,-1,-1,-1,-1,-1,-1,-1,-1,-1,-1,-1,-1,-1,-1,-1,-1,-1,-1,-1,-1,-1,-1,-1,-1,-1,-1,-1,-1,-1,-1,-1,-1,-1,-1,-1,-1,-1,-1,-1,-1,-1,-1,-1,-1,-1,-1,-1,-1,-1,-1,-1,-1,-1,-1],"loss_changes":[1.2156597E4,2.9975735E3,2.953456E3,9.1526904E2,9.81806E2,1.00090967E3,5.937549E2,2.9682812E2,3.5562268E2,2.624683E2,4.6149744E2,3.3736188E2,2.4713965E2,2.3634863E2,1.8908154E2,1.06625E2,8.186853E1,1.2732788E2,1.195436E2,8.283893E1,1.1658229E2,1.9815164E2,8.812073E1,1.4606006E2,9.671869E1,1.4463953E2,4.6755493E1,5.7869995E1,6.98833E1,5.322815E1,8.9640625E1,3.7673584E1,3.7204712E1,4.007422E1,3.7786987E1,5.700708E1,5.1356033E1,6.3914856E1,4.2203644E1,3.6761536E1,4.236967E1,4.0599327E1,4.644754E1,7.283496E1,7.2278595E1,1.8492363E1,5.6571777E1,6.9876015E1,5.073604E1,5.631357E1,2.0981873E1,8.255902E1,2.5675049E1,2.672583E1,1.8415588E1,2.3811111E1,2.2807129E1,4.277411E1,3.8699585E1,3.139087E1,1.8985779E1,4.5088135E1,3.586035E1,0E0,0E0,0E0,0E0,0E0,0E0,0E0,0E0,0E0,0E0,0E0,0E0,0E0,0E0,0E0,0E0,0E0,0E0,0E0,0E0,0E0,0E0,0E0,0E0,0E0,0E0,0E0,0E0,0E0,0E0,0E0,0E0,0E0,0E0,0E0,0E0,0E0,0E0,0E0,0E0,0E0,0E0,0E0,0E0,0E0,0E0,0E0,0E0,0E0,0E0,0E0,0E0,0E0,0E0,0E0,0E0,0E0,0E0,0E0,0E0,0E0,0E0,0E0,0E0],"parents":[2147483647,0,0,1,1,2,2,3,3,4,4,5,5,6,6,7,7,8,8,9,9,10,10,11,11,12,12,13,13,14,14,15,15,16,16,17,17,18,18,19,19,20,20,21,21,22,22,23,23,24,24,25,25,26,26,27,27,28,28,29,29,30,30,31,31,32,32,33,33,34,34,35,35,36,36,37,37,38,38,39,39,40,40,41,41,42,42,43,43,44,44,45,45,46,46,47,47,48,48,49,49,50,50,51,51,52,52,53,53,54,54,55,55,56,56,57,57,58,58,59,59,60,60,61,61,62,62],"right_children":[2,4,6,8,10,12,14,16,18,20,22,24,26,28,30,32,34,36,38,40,42,44,46,48,50,52,54,56,58,60,62,64,66,68,70,72,74,76,78,80,82,84,86,88,90,92,94,96,98,100,102,104,106,108,110,112,114,116,118,120,122,124,126,-1,-1,-1,-1,-1,-1,-1,-1,-1,-1,-1,-1,-1,-1,-1,-1,-1,-1,-1,-1,-1,-1,-1,-1,-1,-1,-1,-1,-1,-1,-1,-1,-1,-1,-1,-1,-1,-1,-1,-1,-1,-1,-1,-1,-1,-1,-1,-1,-1,-1,-1,-1,-1,-1,-1,-1,-1,-1,-1,-1,-1,-1,-1,-1],"split_conditions":[7.2151124E-1,1.596355E-1,1.283387E0,-4.0224025E-1,4.4057336E-1,1.002449E0,1.283387E0,-4.0098345E-1,1.596355E-1,1.596355E-1,1.283387E0,1.002449E0,1.5643249E0,1.002449E0,1.283387E0,-4.0224025E-1,-1.2130237E-1,-1.2130237E-1,7.2151124E-1,-1.2130237E-1,7.2151124E-1,7.2151124E-1,4.4057336E-1,7.2151124E-1,1.5643249E0,1.8452626E0,2.4071383E0,1.002449E0,1.8452626E0,2.4071383E0,1.8452626E0,-1.3745569E0,-1.2130237E-1,-4.0224025E-1,4.4057336E-1,-6.831781E-1,1.596355E-1,1.596355E-1,4.4057336E-1,-4.0224025E-1,-4.0224025E-1,1.596355E-1,7.2151124E-1,4.4057336E-1,7.2151124E-1,1.596355E-1,1.5643249E0,1.596355E-1,1.283387E0,1.002449E0,1.5643249E0,1.5643249E0,1.002449E0,7.2151124E-1,1.8452626E0,1.8452626E0,2.9690142E0,1.283387E0,-6.1348456E-1,1.002449E0,2.944514E-1,1.8452626E0,1.8452626E0,-4.3849163E-2,-3.551118E-2,-3.0517315E-2,-1.6314328E-2,-3.0413589E-2,-2.1574581E-2,-1.8334987E-2,-4.1886517E-3,-2.8787676E-2,-1.8917924E-2,-1.5125537E-2,-4.4794865E-3,-1.0989011E-2,1.0712406E-3,3.349448E-3,2.2101497E-2,-2.3983104E-2,-1.286723E-2,-1.4807026E-2,-1.8144855E-3,-6.067294E-3,4.860405E-3,8.596103E-3,2.7150346E-2,-2.9338864E-4,1.453727E-2,1.5933054E-2,3.550616E-2,7.3283105E-3,3.048948E-2,4.138301E-2,6.448696E-2,-5.4693893E-3,7.1204132E-3,1.34443E-2,3.567987E-2,1.6104562E-2,3.756107E-2,4.022495E-2,6.354809E-2,2.318033E-2,4.7009997E-2,4.34242E-2,6.736276E-2,4.0479194E-2,6.0492106E-2,6.58012E-2,9.21226E-2,1.9597948E-2,4.4441022E-2,4.1295215E-2,8.167684E-2,4.2235587E-2,6.397895E-2,1.0957745E-2,7.775597E-2,4.2453688E-2,6.241859E-2,6.936941E-2,9.840324E-2,6.51141E-2,8.642374E-2,8.3038494E-2,1.0218685E-1],"split_indices":[82,64,46,82,73,73,1,75,73,37,1,10,10,73,64,37,37,55,55,1,55,46,55,1,28,64,82,10,55,82,73,84,73,46,55,37,1,1,28,55,28,46,28,10,37,37,10,55,37,37,82,28,55,1,37,64,82,28,21,28,78,10,82,0,0,0,0,0,0,0,0,0,0,0,0,0,0,0,0,0,0,0,0,0,0,0,0,0,0,0,0,0,0,0,0,0,0,0,0,0,0,0,0,0,0,0,0,0,0,0,0,0,0,0,0,0,0,0,0,0,0,0,0,0,0,0,0],"split_type":[0,0,0,0,0,0,0,0,0,0,0,0,0,0,0,0,0,0,0,0,0,0,0,0,0,0,0,0,0,0,0,0,0,0,0,0,0,0,0,0,0,0,0,0,0,0,0,0,0,0,0,0,0,0,0,0,0,0,0,0,0,0,0,0,0,0,0,0,0,0,0,0,0,0,0,0,0,0,0,0,0,0,0,0,0,0,0,0,0,0,0,0,0,0,0,0,0,0,0,0,0,0,0,0,0,0,0,0,0,0,0,0,0,0,0,0,0,0,0,0,0,0,0,0,0,0,0],"sum_hessian":[7.0693E4,5.2823E4,1.787E4,3.477E4,1.8053E4,1.1671E4,6.199E3,1.688E4,1.789E4,1.1099E4,6.954E3,7.771E3,3.9E3,2.822E3,3.377E3,8.586E3,8.294E3,1.2095E4,5.795E3,6.314E3,4.785E3,5.398E3,1.556E3,5.994E3,1.777E3,2.741E3,1.159E3,1.347E3,1.475E3,1.137E3,2.24E3,5.514E3,3.072E3,5.162E3,3.132E3,7.165E3,4.93E3,4.572E3,1.223E3,3.215E3,3.099E3,3.401E3,1.384E3,3.505E3,1.893E3,4.38E2,1.118E3,4.438E3,1.556E3,1.372E3,4.05E2,2.25E3,4.91E2,8.58E2,3.01E2,8.12E2,5.35E2,9.34E2,5.41E2,8.67E2,2.7E2,1.043E3,1.197E3,2.658E3,2.856E3,2.502E3,5.7E2,2.567E3,2.595E3,2.552E3,5.8E2,2.059E3,5.106E3,3.164E3,1.766E3,2.738E3,1.834E3,6.96E2,5.27E2,1.175E3,2.04E3,8.73E2,2.226E3,1.752E3,1.649E3,8E2,5.84E2,2.166E3,1.339E3,9.74E2,9.19E2,1.19E2,3.19E2,6.66E2,4.52E2,2.406E3,2.032E3,1.232E3,3.24E2,9.1E2,4.62E2,2.17E2,1.88E2,1.793E3,4.57E2,1.94E2,2.97E2,2.42E2,6.16E2,1.63E2,1.38E2,7E2,1.12E2,4.97E2,3.8E1,5.11E2,4.23E2,2.3E1,5.18E2,3.28E2,5.39E2,1.68E2,1.02E2,5.45E2,4.98E2,4.08E2,7.89E2],"tree_param":{"num_deleted":"0","num_feature":"90","num_nodes":"127","size_leaf_vector":"1"}},{"base_weights":[-1.523367E-3,-1.9186191E-1,8.1262535E-1,-3.7005377E-1,1.2114512E-1,4.644673E-1,1.2074338E0,-5.442355E-1,-2.1883602E-1,-3.687881E-2,4.9382398E-1,2.2987191E-1,7.7240855E-1,9.402377E-1,1.5154002E0,-7.167986E-1,-4.4691876E-1,-3.1739935E-1,-2.7593803E-2,-1.4942129E-1,1.8297483E-1,3.1032497E-1,8.096642E-1,1.08922854E-1,4.8365158E-1,5.8003306E-1,1.1024354E0,6.991171E-1,1.1523619E0,1.3638885E0,1.8650157E0,-7.633236E-1,-5.258404E-1,-5.590248E-1,-3.493792E-1,-4.0115812E-1,-1.9820808E-1,-1.3165206E-1,1.797855E-1,-2.786845E-1,-2.2646904E-2,9.0960115E-2,4.5200363E-1,1.9535E-1,5.985145E-1,6.106086E-1,1.0745128E0,-6.1400764E-2,2.1441679E-1,3.665242E-1,9.8090965E-1,4.8969793E-1,9.1622454E-1,9.3068856E-1,1.3704311E0,5.297456E-1,1.0158767E0,1.0474393E0,1.5816772E0,1.2503058E0,1.7216257E0,1.6414241E0,1.9999362E0,-4.121341E-2,-3.3614572E-2,-2.7635857E-2,-3.1346043E-3,-3.195327E-2,-2.3270492E-2,-2.0700974E-2,-9.252143E-3,-2.4827166E-2,-1.6384903E-2,-1.39692845E-2,-3.1595908E-3,-9.616534E-3,9.146528E-4,4.885349E-3,2.233733E-2,-1.9276893E-2,-7.849395E-3,-3.782884E-3,9.678063E-3,-4.5342385E-3,9.973324E-3,2.1420067E-2,9.115064E-2,7.772551E-3,3.0540248E-2,2.3384657E-2,4.1088913E-2,1.5613119E-2,3.7758138E-2,2.8356263E-2,5.7634335E-2,-1.0784581E-2,3.1975012E-3,7.1755624E-3,1.8409872E-2,1.6285008E-2,4.7774218E-2,6.2009753E-3,5.360828E-2,2.1065075E-2,4.1908827E-2,3.6788553E-2,6.210946E-2,3.5378225E-2,5.5315714E-2,5.299579E-2,7.746633E-2,1.5057961E-2,3.394174E-2,4.1670587E-2,6.207334E-2,4.8456036E-2,7.098254E-2,7.443246E-2,1.0885258E-1,4.8355334E-2,6.852622E-2,7.4088015E-2,9.692844E-2,7.0889615E-2,9.336598E-2,1.0439861E-1,8.34358E-2],"categories":[],"categories_nodes":[],"categories_segments":[],"categories_sizes":[],"default_left":[0,0,0,0,0,0,0,0,0,0,0,0,0,0,0,0,0,0,0,0,0,0,0,0,0,0,0,0,0,0,0,0,0,0,0,0,0,0,0,0,0,0,0,0,0,0,0,0,0,0,0,0,0,0,0,0,0,0,0,0,0,0,0,0,0,0,0,0,0,0,0,0,0,0,0,0,0,0,0,0,0,0,0,0,0,0,0,0,0,0,0,0,0,0,0,0,0,0,0,0,0,0,0,0,0,0,0,0,0,0,0,0,0,0,0,0,0,0,0,0,0,0,0,0,0,0,0],"id":2,"left_children":[1,3,5,7,9,11,13,15,17,19,21,23,25,27,29,31,33,35,37,39,41,43,45,47,49,51,53,55,57,59,61,63,65,67,69,71,73,75,77,79,81,83,85,87,89,91,93,95,97,99,101,103,105,107,109,111,113,115,117,119,121,123,125,-1,-1,-1,-1,-1,-1,-1,-1,-1,-1,-1,-1,-1,-1,-1,-1,-1,-1,-1,-1,-1,-1,-1,-1,-1,-1,-1,-1,-1,-1,-1,-1,-1,-1,-1,-1,-1,-1,-1,-1,-1,-1,-1,-1,-1,-1,-1,-1,-1,-1,-1,-1,-1,-1,-1,-1,-1,-1,-1,-1,-1,-1,-1,-1],"loss_changes":[1.0950369E4,3.1945195E3,1.8399727E3,9.6118896E2,1.2236799E3,5.1396606E2,5.148467E2,2.8449365E2,3.6827222E2,3.6107535E2,3.583247E2,1.2398346E2,1.9471631E2,1.7115234E2,1.5175977E2,5.3917236E1,1.1841406E2,1.2863538E2,1.4344121E2,1.5816357E2,1.2227141E2,1.2960498E2,1.1917554E2,4.920985E1,7.5588715E1,5.8651123E1,5.0827637E1,8.401428E1,7.883838E1,8.057593E1,2.3203857E1,2.6708496E1,1.4915314E1,3.750476E1,6.15672E1,5.2887207E1,5.8324005E1,4.02733E1,4.8622406E1,6.2084076E1,5.5877327E1,7.260864E1,3.9958893E1,4.6318504E1,3.2211426E1,5.582956E1,3.7979492E1,2.0282618E1,1.8385643E1,2.5103027E1,1.9259735E1,3.625699E1,2.3261627E1,2.6373291E1,2.2799744E1,3.4863617E1,2.1522278E1,4.057263E1,1.608899E1,5.141162E1,2.2521729E1,1.4326416E1,1.2349365E1,0E0,0E0,0E0,0E0,0E0,0E0,0E0,0E0,0E0,0E0,0E0,0E0,0E0,0E0,0E0,0E0,0E0,0E0,0E0,0E0,0E0,0E0,0E0,0E0,0E0,0E0,0E0,0E0,0E0,0E0,0E0,0E0,0E0,0E0,0E0,0E0,0E0,0E0,0E0,0E0,0E0,0E0,0E0,0E0,0E0,0E0,0E0,0E0,0E0,0E0,0E0,0E0,0E0,0E0,0E0,0E0,0E0,0E0,0E0,0E0,0E0,0E0,0E0,0E0],"parents":[2147483647,0,0,1,1,2,2,3,3,4,4,5,5,6,6,7,7,8,8,9,9,10,10,11,11,12,12,13,13,14,14,15,15,16,16,17,17,18,18,19,19,20,20,21,21,22,22,23,23,24,24,25,25,26,26,27,27,28,28,29,29,30,30,31,31,32,32,33,33,34,34,35,35,36,36,37,37,38,38,39,39,40,40,41,41,42,42,43,43,44,44,45,45,46,46,47,47,48,48,49,49,50,50,51,51,52,52,53,53,54,54,55,55,56,56,57,57,58,58,59,59,60,60,61,61,62,62],"right_children":[2,4,6,8,10,12,14,16,18,20,22,24,26,28,30,32,34,36,38,40,42,44,46,48,50,52,54,56,58,60,62,64,66,68,70,72,74,76,78,80,82,84,86,88,90,92,94,96,98,100,102,104,106,108,110,112,114,116,118,120,122,124,126,-1,-1,-1,-1,-1,-1,-1,-1,-1,-1,-1,-1,-1,-1,-1,-1,-1,-1,-1,-1,-1,-1,-1,-1,-1,-1,-1,-1,-1,-1,-1,-1,-1,-1,-1,-1,-1,-1,-1,-1,-1,-1,-1,-1,-1,-1,-1,-1,-1,-1,-1,-1,-1,-1,-1,-1,-1,-1,-1,-1,-1,-1,-1,-1],"split_conditions":[1.002449E0,1.596355E-1,1.002449E0,-4.0224025E-1,7.2151124E-1,7.2151124E-1,1.5643249E0,-8.081993E-1,1.596355E-1,4.4057336E-1,1.002449E0,7.2151124E-1,1.283387E0,1.002449E0,2.4071383E0,-1.2130237E-1,-4.0224025E-1,-1.2130237E-1,4.4057336E-1,-1.2130237E-1,1.002449E0,1.002449E0,1.283387E0,-1.2130237E-1,1.5643249E0,2.1262004E0,1.5643249E0,1.283387E0,2.6880763E0,2.6880763E0,8.908736E-1,-6.831781E-1,1.002449E0,-4.0224025E-1,1.596355E-1,2.9635571E-2,1.596355E-1,4.4057336E-1,1.002449E0,-1.2130237E-1,7.2151124E-1,-1.2130237E-1,3.53089E0,1.8452626E0,1.283387E0,4.4057336E-1,-2.2311907E-1,1.283387E0,7.2151124E-1,2.6880763E0,-4.2157826E-1,2.1262004E0,1.283387E0,1.002449E0,1.5643249E0,4.4057336E-1,1.8452626E0,2.4071383E0,4.092766E0,1.002449E0,-1.4906898E-1,-1.7961466E-1,9.3160546E-1,-4.121341E-2,-3.3614572E-2,-2.7635857E-2,-3.1346043E-3,-3.195327E-2,-2.3270492E-2,-2.0700974E-2,-9.252143E-3,-2.4827166E-2,-1.6384903E-2,-1.39692845E-2,-3.1595908E-3,-9.616534E-3,9.146528E-4,4.885349E-3,2.233733E-2,-1.9276893E-2,-7.849395E-3,-3.782884E-3,9.678063E-3,-4.5342385E-3,9.973324E-3,2.1420067E-2,9.115064E-2,7.772551E-3,3.0540248E-2,2.3384657E-2,4.1088913E-2,1.5613119E-2,3.7758138E-2,2.8356263E-2,5.7634335E-2,-1.0784581E-2,3.1975012E-3,7.1755624E-3,1.8409872E-2,1.6285008E-2,4.7774218E-2,6.2009753E-3,5.360828E-2,2.1065075E-2,4.1908827E-2,3.6788553E-2,6.210946E-2,3.5378225E-2,5.5315714E-2,5.299579E-2,7.746633E-2,1.5057961E-2,3.394174E-2,4.1670587E-2,6.207334E-2,4.8456036E-2,7.098254E-2,7.443246E-2,1.0885258E-1,4.8355334E-2,6.852622E-2,7.4088015E-2,9.692844E-2,7.0889615E-2,9.336598E-2,1.0439861E-1,8.34358E-2],"split_indices":[82,64,10,82,19,64,46,57,46,46,46,37,37,37,64,37,10,19,19,82,37,37,10,19,46,82,19,64,82,82,66,46,46,37,46,84,10,37,37,10,10,82,37,64,64,37,75,82,46,82,75,64,46,46,64,19,10,19,82,37,41,43,78,0,0,0,0,0,0,0,0,0,0,0,0,0,0,0,0,0,0,0,0,0,0,0,0,0,0,0,0,0,0,0,0,0,0,0,0,0,0,0,0,0,0,0,0,0,0,0,0,0,0,0,0,0,0,0,0,0,0,0,0,0,0,0,0],"split_type":[0,0,0,0,0,0,0,0,0,0,0,0,0,0,0,0,0,0,0,0,0,0,0,0,0,0,0,0,0,0,0,0,0,0,0,0,0,0,0,0,0,0,0,0,0,0,0,0,0,0,0,0,0,0,0,0,0,0,0,0,0,0,0,0,0,0,0,0,0,0,0,0,0,0,0,0,0,0,0,0,0,0,0,0,0,0,0,0,0,0,0,0,0,0,0,0,0,0,0,0,0,0,0,0,0,0,0,0,0,0,0,0,0,0,0,0,0,0,0,0,0,0,0,0,0,0,0],"sum_hessian":[7.0662E4,5.7273E4,1.3389E4,3.6496E4,2.0777E4,7.116E3,6.273E3,1.6959E4,1.9537E4,1.4591E4,6.186E3,4.04E3,3.076E3,3.361E3,2.912E3,6.113E3,1.0846E4,1.2892E4,6.645E3,9.651E3,4.94E3,3.914E3,2.272E3,2.737E3,1.303E3,1.945E3,1.131E3,1.575E3,1.786E3,2.035E3,8.77E2,4.913E3,1.2E3,5.044E3,5.802E3,7.57E3,5.322E3,4.425E3,2.22E3,4.778E3,4.873E3,3.682E3,1.258E3,2.799E3,1.115E3,1.299E3,9.73E2,1.047E3,1.69E3,1.056E3,2.47E2,1.535E3,4.1E2,6.92E2,4.39E2,1.028E3,5.47E2,1.438E3,3.48E2,1.548E3,4.87E2,3.35E2,5.42E2,2.938E3,1.975E3,1.134E3,6.6E1,2.716E3,2.328E3,4.163E3,1.639E3,3.291E3,4.279E3,3.323E3,1.999E3,3.15E3,1.275E3,1.699E3,5.21E2,2.543E3,2.235E3,3.914E3,9.59E2,1.377E3,2.305E3,1.238E3,2E1,2.555E3,2.44E2,7.05E2,4.1E2,4.25E2,8.74E2,1.31E2,8.42E2,4.69E2,5.78E2,1.158E3,5.32E2,9.89E2,6.7E1,2.4E1,2.23E2,1.285E3,2.5E2,2.66E2,1.44E2,3.07E2,3.85E2,1.63E2,2.76E2,4.07E2,6.21E2,3.05E2,2.42E2,1.191E3,2.47E2,3.04E2,4.4E1,4.64E2,1.084E3,2.35E2,2.52E2,1.72E2,1.63E2,4.24E2,1.18E2],"tree_param":{"num_deleted":"0","num_feature":"90","num_nodes":"127","size_leaf_vector":"1"}},{"base_weights":[-8.3527184E-4,-2.1867628E-1,6.439306E-1,-3.7390634E-1,8.445799E-2,3.0998608E-1,1.0702541E0,-4.9133715E-1,-1.8620272E-1,-5.0458625E-2,4.2597565E-1,1.4547221E-1,7.1130675E-1,8.093641E-1,1.4203653E0,-6.3608515E-1,-3.7183818E-1,-2.897904E-1,-8.004276E-3,-1.2895028E-1,2.393575E-1,2.3113514E-1,6.779965E-1,2.8158698E-2,4.1228783E-1,4.7578722E-1,9.8131454E-1,5.2511203E-1,9.997285E-1,1.1822004E0,1.5990249E0,-7.1090007E-1,-4.979408E-1,-4.4056803E-1,-2.5625777E-1,-3.859329E-1,-1.7876253E-1,-1.269577E-1,1.386727E-1,-2.2238849E-1,1.9102555E-2,1.3258618E-1,5.818756E-1,9.899306E-2,4.695952E-1,5.838003E-1,1.1962993E0,-7.399637E-2,2.104965E-1,3.2206684E-1,7.9287875E-1,3.584262E-1,7.82443E-1,6.2681013E-1,1.1296076E0,3.263992E-1,7.3271215E-1,7.9746985E-1,1.1719637E0,9.013183E-1,1.3125294E0,1.4987473E0,1.9436533E0,-4.0881176E-2,-3.2335073E-2,-2.8502768E-2,-1.7017184E-2,-2.4688574E-2,-1.6488751E-2,-1.4342996E-2,-1.0577464E-3,-2.822882E-2,-1.6389955E-2,-1.3105296E-2,-3.8007912E-3,-1.2500237E-2,-1.7728339E-3,2.3778554E-3,1.7008515E-2,-1.7505838E-2,-7.389529E-3,-2.4361454E-3,1.2077157E-2,3.5951615E-3,2.4421783E-2,2.3639416E-2,4.358708E-2,-6.843081E-4,1.2863167E-2,1.4434396E-2,3.3255506E-2,2.3012798E-2,4.1340593E-2,4.6607647E-2,7.9089016E-2,-9.890548E-3,1.4218552E-3,7.7011907E-3,2.6300017E-2,4.5093074E-3,2.2329016E-2,3.482666E-2,6.7485444E-2,9.875592E-3,2.5226286E-2,3.455658E-2,5.9544552E-2,2.5450757E-2,4.9290944E-2,4.5135867E-2,6.610047E-2,9.088946E-3,2.4941105E-2,2.999853E-2,5.4830294E-2,2.7438844E-2,4.7369655E-2,4.9272723E-2,6.688266E-2,2.6945803E-2,5.3206332E-2,6.010979E-2,7.710089E-2,6.852754E-2,8.814841E-2,1.1102639E-2,9.859426E-2],"categories":[],"categories_nodes":[],"categories_segments":[],"categories_sizes":[],"default_left":[0,0,0,0,0,0,0,0,0,0,0,0,0,0,0,0,0,0,0,0,0,0,0,0,0,0,0,0,0,0,0,0,0,0,0,0,0,0,0,0,0,0,0,0,0,0,0,0,0,0,0,0,0,0,0,0,0,0,0,0,0,0,0,0,0,0,0,0,0,0,0,0,0,0,0,0,0,0,0,0,0,0,0,0,0,0,0,0,0,0,0,0,0,0,0,0,0,0,0,0,0,0,0,0,0,0,0,0,0,0,0,0,0,0,0,0,0,0,0,0,0,0,0,0,0,0,0],"id":3,"left_children":[1,3,5,7,9,11,13,15,17,19,21,23,25,27,29,31,33,35,37,39,41,43,45,47,49,51,53,55,57,59,61,63,65,67,69,71,73,75,77,79,81,83,85,87,89,91,93,95,97,99,101,103,105,107,109,111,113,115,117,119,121,123,125,-1,-1,-1,-1,-1,-1,-1,-1,-1,-1,-1,-1,-1,-1,-1,-1,-1,-1,-1,-1,-1,-1,-1,-1,-1,-1,-1,-1,-1,-1,-1,-1,-1,-1,-1,-1,-1,-1,-1,-1,-1,-1,-1,-1,-1,-1,-1,-1,-1,-1,-1,-1,-1,-1,-1,-1,-1,-1,-1,-1,-1,-1,-1,-1],"loss_changes":[9.906114E3,2.4806592E3,2.535391E3,7.683872E2,8.2266974E2,6.593984E2,7.134082E2,3.707202E2,2.4770114E2,2.9118436E2,2.4811249E2,2.2178781E2,1.8420459E2,2.4216504E2,1.4018555E2,9.986694E1,9.322705E1,9.051477E1,8.610469E1,1.3933824E2,9.968881E1,8.985327E1,1.0690564E2,9.171497E1,7.405051E1,5.5611145E1,7.036719E1,7.405716E1,9.260034E1,5.1348145E1,6.292041E1,4.2553223E1,3.856079E1,4.326245E1,3.1535309E1,4.703662E1,3.3719322E1,3.0671719E1,4.0558475E1,5.878528E1,5.8821423E1,4.4901993E1,2.007808E1,3.276416E1,3.5779373E1,5.5671814E1,3.2941864E1,4.003241E1,3.1420067E1,5.0515045E1,2.1270203E1,2.6348541E1,1.517691E1,1.6456268E1,4.0365356E1,2.290017E1,4.1849457E1,4.5638733E1,4.3428833E1,2.6449463E1,2.2909424E1,4.7714844E1,2.0267456E1,0E0,0E0,0E0,0E0,0E0,0E0,0E0,0E0,0E0,0E0,0E0,0E0,0E0,0E0,0E0,0E0,0E0,0E0,0E0,0E0,0E0,0E0,0E0,0E0,0E0,0E0,0E0,0E0,0E0,0E0,0E0,0E0,0E0,0E0,0E0,0E0,0E0,0E0,0E0,0E0,0E0,0E0,0E0,0E0,0E0,0E0,0E0,0E0,0E0,0E0,0E0,0E0,0E0,0E0,0E0,0E0,0E0,0E0,0E0,0E0,0E0,0E0,0E0,0E0],"parents":[2147483647,0,0,1,1,2,2,3,3,4,4,5,5,6,6,7,7,8,8,9,9,10,10,11,11,12,12,13,13,14,14,15,15,16,16,17,17,18,18,19,19,20,20,21,21,22,22,23,23,24,24,25,25,26,26,27,27,28,28,29,29,30,30,31,31,32,32,33,33,34,34,35,35,36,36,37,37,38,38,39,39,40,40,41,41,42,42,43,43,44,44,45,45,46,46,47,47,48,48,49,49,50,50,51,51,52,52,53,53,54,54,55,55,56,56,57,57,58,58,59,59,60,60,61,61,62,62],"right_children":[2,4,6,8,10,12,14,16,18,20,22,24,26,28,30,32,34,36,38,40,42,44,46,48,50,52,54,56,58,60,62,64,66,68,70,72,74,76,78,80,82,84,86,88,90,92,94,96,98,100,102,104,106,108,110,112,114,116,118,120,122,124,126,-1,-1,-1,-1,-1,-1,-1,-1,-1,-1,-1,-1,-1,-1,-1,-1,-1,-1,-1,-1,-1,-1,-1,-1,-1,-1,-1,-1,-1,-1,-1,-1,-1,-1,-1,-1,-1,-1,-1,-1,-1,-1,-1,-1,-1,-1,-1,-1,-1,-1,-1,-1,-1,-1,-1,-1,-1,-1,-1,-1,-1,-1,-1,-1],"split_conditions":[7.2151124E-1,1.596355E-1,1.002449E0,-1.2130237E-1,7.2151124E-1,1.002449E0,1.5643249E0,-4.3842858E-1,1.596355E-1,7.2151124E-1,7.2151124E-1,7.2151124E-1,1.002449E0,7.2151124E-1,1.5643249E0,-4.0224025E-1,-1.2130237E-1,-1.2130237E-1,1.596355E-1,1.596355E-1,1.002449E0,7.2151124E-1,2.1262004E0,4.4057336E-1,1.5643249E0,1.283387E0,7.2151124E-1,7.2151124E-1,1.5643249E0,1.002449E0,2.9690142E0,-1.5617826E0,-4.0224025E-1,-1.2130237E-1,7.2151124E-1,-7.192671E-1,-1.2130237E-1,-1.2130237E-1,7.2151124E-1,-4.0224025E-1,7.2151124E-1,1.283387E0,1.283387E0,4.4057336E-1,7.2151124E-1,1.283387E0,1.8452626E0,-1.2130237E-1,1.283387E0,1.596355E-1,2.4071383E0,4.4057336E-1,2.4071383E0,1.8452626E0,1.283387E0,1.283387E0,1.5643249E0,7.2151124E-1,1.283387E0,7.2151124E-1,2.4071383E0,2.4071383E0,-9.456221E-1,-4.0881176E-2,-3.2335073E-2,-2.8502768E-2,-1.7017184E-2,-2.4688574E-2,-1.6488751E-2,-1.4342996E-2,-1.0577464E-3,-2.822882E-2,-1.6389955E-2,-1.3105296E-2,-3.8007912E-3,-1.2500237E-2,-1.7728339E-3,2.3778554E-3,1.7008515E-2,-1.7505838E-2,-7.389529E-3,-2.4361454E-3,1.2077157E-2,3.5951615E-3,2.4421783E-2,2.3639416E-2,4.358708E-2,-6.843081E-4,1.2863167E-2,1.4434396E-2,3.3255506E-2,2.3012798E-2,4.1340593E-2,4.6607647E-2,7.9089016E-2,-9.890548E-3,1.4218552E-3,7.7011907E-3,2.6300017E-2,4.5093074E-3,2.2329016E-2,3.482666E-2,6.7485444E-2,9.875592E-3,2.5226286E-2,3.455658E-2,5.9544552E-2,2.5450757E-2,4.9290944E-2,4.5135867E-2,6.610047E-2,9.088946E-3,2.4941105E-2,2.999853E-2,5.4830294E-2,2.7438844E-2,4.7369655E-2,4.9272723E-2,6.688266E-2,2.6945803E-2,5.3206332E-2,6.010979E-2,7.710089E-2,6.852754E-2,8.814841E-2,1.1102639E-2,9.859426E-2],"split_indices":[82,73,73,55,55,64,46,84,64,37,28,28,10,10,64,46,37,19,1,1,64,46,1,46,10,55,19,64,82,37,82,84,82,10,46,84,82,46,19,82,46,46,19,19,64,46,37,73,10,55,19,28,64,46,1,82,19,28,37,28,73,1,18,0,0,0,0,0,0,0,0,0,0,0,0,0,0,0,0,0,0,0,0,0,0,0,0,0,0,0,0,0,0,0,0,0,0,0,0,0,0,0,0,0,0,0,0,0,0,0,0,0,0,0,0,0,0,0,0,0,0,0,0,0,0,0,0],"split_type":[0,0,0,0,0,0,0,0,0,0,0,0,0,0,0,0,0,0,0,0,0,0,0,0,0,0,0,0,0,0,0,0,0,0,0,0,0,0,0,0,0,0,0,0,0,0,0,0,0,0,0,0,0,0,0,0,0,0,0,0,0,0,0,0,0,0,0,0,0,0,0,0,0,0,0,0,0,0,0,0,0,0,0,0,0,0,0,0,0,0,0,0,0,0,0,0,0,0,0,0,0,0,0,0,0,0,0,0,0,0,0,0,0,0,0,0,0,0,0,0,0,0,0,0,0,0,0],"sum_hessian":[7.0526E4,5.2716E4,1.781E4,3.4863E4,1.7853E4,9.988E3,7.822E3,2.1445E4,1.3418E4,1.2798E4,5.055E3,7.085E3,2.903E3,4.484E3,3.338E3,9.696E3,1.1749E4,8.485E3,4.933E3,1.0071E4,2.727E3,2.852E3,2.203E3,4.922E3,2.163E3,1.552E3,1.351E3,1.8E3,2.684E3,1.434E3,1.904E3,6.287E3,3.409E3,7.366E3,4.383E3,4.546E3,3.939E3,2.724E3,2.209E3,6.174E3,3.897E3,2.08E3,6.47E2,1.836E3,1.016E3,1.866E3,3.37E2,3.155E3,1.767E3,1.75E3,4.13E2,1.124E3,4.28E2,4E2,9.51E2,9.21E2,8.79E2,1.237E3,1.447E3,4.57E2,9.77E2,1.479E3,4.25E2,2.357E3,3.93E3,2.337E3,1.072E3,4.974E3,2.392E3,3.878E3,5.05E2,1.114E3,3.432E3,2.174E3,1.765E3,1.161E3,1.563E3,1.522E3,6.87E2,2.275E3,3.899E3,2.987E3,9.1E2,1.778E3,3.02E2,4.72E2,1.75E2,1.073E3,7.63E2,5.29E2,4.87E2,1.239E3,6.27E2,2.02E2,1.35E2,1.428E3,1.727E3,1.5E3,2.67E2,6.12E2,1.138E3,3.54E2,5.9E1,5.36E2,5.88E2,3.52E2,7.6E1,3.03E2,9.7E1,4.39E2,5.12E2,5.02E2,4.19E2,6.46E2,2.33E2,4.67E2,7.7E2,6.84E2,7.63E2,1.43E2,3.14E2,6.64E2,3.13E2,1E3,4.79E2,7E0,4.18E2],"tree_param":{"num_deleted":"0","num_feature":"90","num_nodes":"127","size_leaf_vector":"1"}},{"base_weights":[3.2040828E-3,-2.0355524E-1,6.139954E-1,-3.5009655E-1,7.953006E-2,2.9868737E-1,1.0214794E0,-5.663854E-1,-2.5692567E-1,-5.2337922E-2,4.0524644E-1,1.098466E-1,6.120473E-1,7.857974E-1,1.3401562E0,-6.619556E-1,-4.206138E-1,-3.3533907E-1,-7.24448E-2,-1.4475149E-1,1.4846471E-1,2.6140574E-1,8.045439E-1,4.567372E-2,5.2493453E-1,4.7043973E-1,9.975593E-1,5.5239004E-1,1.0013369E0,1.0858827E0,1.5362693E0,-7.705426E-1,-5.7551426E-1,-5.357823E-1,-3.2274354E-1,-4.06712E-1,-2.1975021E-1,-1.5959732E-1,1.3141236E-1,-2.2966939E-1,-4.7572036E-3,6.078212E-2,3.5283867E-1,1.3069348E-1,4.6300393E-1,6.7512685E-1,1.3169526E0,-2.9218575E-2,2.7506363E-1,4.399481E-1,1.0134852E0,2.8627804E-1,6.761895E-1,8.946712E-1,1.3361288E0,5.054256E-1,1.4209068E0,8.5809636E-1,1.3073438E0,8.5960424E-1,1.2610053E0,1.1537687E0,1.60469E0,-4.024027E-2,-3.2349534E-2,-3.170799E-2,-2.2731384E-2,-3.2414246E-2,-2.2598457E-2,-2.0265289E-2,-8.006706E-3,-2.4150144E-2,-1.6493246E-2,-1.4291811E-2,-3.556826E-3,-1.1570224E-2,-1.955813E-3,1.1942486E-3,1.7740505E-2,-1.693475E-2,-7.2818412E-3,-1.99394E-3,1.4890566E-2,-1.362786E-3,1.0397663E-2,1.2531322E-2,2.9909521E-2,6.7980157E-4,1.4869194E-2,1.672163E-2,3.3650555E-2,2.1479843E-2,4.2076774E-2,6.1009984E-2,1.0494721E-1,-1.6488878E-2,2.5950928E-4,7.087562E-3,2.3566362E-2,1.2205292E-2,2.8939396E-2,6.2024217E-2,3.141132E-2,9.164563E-3,2.4861684E-2,2.7603967E-2,4.846842E-2,4.090574E-2,5.9735533E-2,5.59132E-2,8.255149E-2,1.7726997E-2,3.3491697E-2,2.5657479E-2,7.849798E-2,3.9556097E-2,6.4251944E-2,5.4334976E-2,7.246118E-2,4.1961342E-2,1.0907262E-1,5.7929832E-2,8.5854866E-2,4.9127486E-2,7.420942E-2,7.234173E-2,8.809556E-2],"categories":[],"categories_nodes":[],"categories_segments":[],"categories_sizes":[],"default_left":[0,0,0,0,0,0,0,0,0,0,0,0,0,0,0,0,0,0,0,0,0,0,0,0,0,0,0,0,0,0,0,0,0,0,0,0,0,0,0,0,0,0,0,0,0,0,0,0,0,0,0,0,0,0,0,0,0,0,0,0,0,0,0,0,0,0,0,0,0,0,0,0,0,0,0,0,0,0,0,0,0,0,0,0,0,0,0,0,0,0,0,0,0,0,0,0,0,0,0,0,0,0,0,0,0,0,0,0,0,0,0,0,0,0,0,0,0,0,0,0,0,0,0,0,0,0,0],"id":4,"left_children":[1,3,5,7,9,11,13,15,17,19,21,23,25,27,29,31,33,35,37,39,41,43,45,47,49,51,53,55,57,59,61,63,65,67,69,71,73,75,77,79,81,83,85,87,89,91,93,95,97,99,101,103,105,107,109,111,113,115,117,119,121,123,125,-1,-1,-1,-1,-1,-1,-1,-1,-1,-1,-1,-1,-1,-1,-1,-1,-1,-1,-1,-1,-1,-1,-1,-1,-1,-1,-1,-1,-1,-1,-1,-1,-1,-1,-1,-1,-1,-1,-1,-1,-1,-1,-1,-1,-1,-1,-1,-1,-1,-1,-1,-1,-1,-1,-1,-1,-1,-1,-1,-1,-1,-1,-1,-1],"loss_changes":[8.924435E3,2.1902007E3,2.2959424E3,7.008965E2,7.735358E2,5.9624054E2,5.844756E2,1.45625E2,3.5172534E2,2.3792079E2,2.978786E2,1.6749855E2,2.0637756E2,2.2503052E2,1.6353906E2,5.891626E1,4.6604065E1,1.4067883E2,1.2890036E2,1.0437573E2,7.239342E1,1.0052261E2,9.022699E1,9.360215E1,3.4514084E1,1.0487872E2,3.4231506E1,8.7183044E1,1.0100781E2,5.6215942E1,4.7036133E1,1.1332275E1,2.4702026E1,1.7669617E1,3.0088547E1,6.1680786E1,6.397516E1,4.3957367E1,5.2189972E1,5.001938E1,3.5249977E1,3.6659973E1,3.0269623E1,4.522153E1,4.0303253E1,4.4541748E1,1.8320984E1,4.2486076E1,3.5019615E1,1.9408844E1,1.0064911E1,3.1736916E1,4.7094788E1,1.7007996E1,1.4276123E1,5.0517334E1,1.4077805E1,4.444812E1,2.1622192E1,1.5246582E1,3.5983887E1,1.4778503E1,3.671289E1,0E0,0E0,0E0,0E0,0E0,0E0,0E0,0E0,0E0,0E0,0E0,0E0,0E0,0E0,0E0,0E0,0E0,0E0,0E0,0E0,0E0,0E0,0E0,0E0,0E0,0E0,0E0,0E0,0E0,0E0,0E0,0E0,0E0,0E0,0E0,0E0,0E0,0E0,0E0,0E0,0E0,0E0,0E0,0E0,0E0,0E0,0E0,0E0,0E0,0E0,0E0,0E0,0E0,0E0,0E0,0E0,0E0,0E0,0E0,0E0,0E0,0E0,0E0,0E0],"parents":[2147483647,0,0,1,1,2,2,3,3,4,4,5,5,6,6,7,7,8,8,9,9,10,10,11,11,12,12,13,13,14,14,15,15,16,16,17,17,18,18,19,19,20,20,21,21,22,22,23,23,24,24,25,25,26,26,27,27,28,28,29,29,30,30,31,31,32,32,33,33,34,34,35,35,36,36,37,37,38,38,39,39,40,40,41,41,42,42,43,43,44,44,45,45,46,46,47,47,48,48,49,49,50,50,51,51,52,52,53,53,54,54,55,55,56,56,57,57,58,58,59,59,60,60,61,61,62,62],"right_children":[2,4,6,8,10,12,14,16,18,20,22,24,26,28,30,32,34,36,38,40,42,44,46,48,50,52,54,56,58,60,62,64,66,68,70,72,74,76,78,80,82,84,86,88,90,92,94,96,98,100,102,104,106,108,110,112,114,116,118,120,122,124,126,-1,-1,-1,-1,-1,-1,-1,-1,-1,-1,-1,-1,-1,-1,-1,-1,-1,-1,-1,-1,-1,-1,-1,-1,-1,-1,-1,-1,-1,-1,-1,-1,-1,-1,-1,-1,-1,-1,-1,-1,-1,-1,-1,-1,-1,-1,-1,-1,-1,-1,-1,-1,-1,-1,-1,-1,-1,-1,-1,-1,-1,-1,-1,-1],"split_conditions":[7.2151124E-1,1.596355E-1,1.002449E0,-6.256542E-1,7.2151124E-1,7.2151124E-1,1.5643249E0,-4.0224025E-1,1.596355E-1,4.4057336E-1,1.283387E0,1.283387E0,1.5643249E0,1.002449E0,1.5643249E0,-1.4681697E0,-4.0224025E-1,-1.2130237E-1,4.4057336E-1,1.596355E-1,7.2151124E-1,7.2151124E-1,2.1262004E0,7.2151124E-1,1.8452626E0,7.2151124E-1,2.1262004E0,2.6880763E0,2.1262004E0,1.283387E0,2.1686123E-1,-4.0224025E-1,-4.0224025E-1,-6.831781E-1,1.596355E-1,-4.0224025E-1,1.596355E-1,1.596355E-1,1.002449E0,4.4613626E-2,1.283387E0,4.4057336E-1,1.283387E0,4.4057336E-1,1.002449E0,7.2151124E-1,3.249952E0,-8.952592E-1,7.2151124E-1,4.4057336E-1,3.1293514E-1,1.5643249E0,1.5643249E0,2.4071383E0,7.9997814E-1,1.5643249E0,-3.9781886E-1,2.4071383E0,5.342087E-1,4.092766E0,2.6880763E0,4.7866628E-1,2.1262004E0,-4.024027E-2,-3.2349534E-2,-3.170799E-2,-2.2731384E-2,-3.2414246E-2,-2.2598457E-2,-2.0265289E-2,-8.006706E-3,-2.4150144E-2,-1.6493246E-2,-1.4291811E-2,-3.556826E-3,-1.1570224E-2,-1.955813E-3,1.1942486E-3,1.7740505E-2,-1.693475E-2,-7.2818412E-3,-1.99394E-3,1.4890566E-2,-1.362786E-3,1.0397663E-2,1.2531322E-2,2.9909521E-2,6.7980157E-4,1.4869194E-2,1.672163E-2,3.3650555E-2,2.1479843E-2,4.2076774E-2,6.1009984E-2,1.0494721E-1,-1.6488878E-2,2.5950928E-4,7.087562E-3,2.3566362E-2,1.2205292E-2,2.8939396E-2,6.2024217E-2,3.141132E-2,9.164563E-3,2.4861684E-2,2.7603967E-2,4.846842E-2,4.090574E-2,5.9735533E-2,5.59132E-2,8.255149E-2,1.7726997E-2,3.3491697E-2,2.5657479E-2,7.849798E-2,3.9556097E-2,6.4251944E-2,5.4334976E-2,7.246118E-2,4.1961342E-2,1.0907262E-1,5.7929832E-2,8.5854866E-2,4.9127486E-2,7.420942E-2,7.234173E-2,8.809556E-2],"split_indices":[73,55,55,84,46,1,19,37,10,37,1,10,19,37,46,84,1,46,19,1,10,37,10,46,46,37,37,46,73,37,84,46,73,73,19,1,19,37,10,84,19,1,55,19,10,19,55,84,37,19,77,73,46,1,49,55,54,1,3,73,1,9,73,0,0,0,0,0,0,0,0,0,0,0,0,0,0,0,0,0,0,0,0,0,0,0,0,0,0,0,0,0,0,0,0,0,0,0,0,0,0,0,0,0,0,0,0,0,0,0,0,0,0,0,0,0,0,0,0,0,0,0,0,0,0,0,0],"split_type":[0,0,0,0,0,0,0,0,0,0,0,0,0,0,0,0,0,0,0,0,0,0,0,0,0,0,0,0,0,0,0,0,0,0,0,0,0,0,0,0,0,0,0,0,0,0,0,0,0,0,0,0,0,0,0,0,0,0,0,0,0,0,0,0,0,0,0,0,0,0,0,0,0,0,0,0,0,0,0,0,0,0,0,0,0,0,0,0,0,0,0,0,0,0,0,0,0,0,0,0,0,0,0,0,0,0,0,0,0,0,0,0,0,0,0,0,0,0,0,0,0,0,0,0,0,0,0],"sum_hessian":[7.0666E4,5.2795E4,1.7871E4,3.4787E4,1.8008E4,1.0076E4,7.795E3,1.0472E4,2.4315E4,1.2819E4,5.189E3,6.288E3,3.788E3,4.483E3,3.312E3,6.323E3,4.149E3,1.7062E4,7.253E3,8.779E3,4.04E3,3.816E3,1.373E3,5.447E3,8.41E2,2.772E3,1.016E3,2.154E3,2.329E3,1.445E3,1.867E3,2.799E3,3.524E3,1.904E3,2.245E3,1.0547E4,6.515E3,5.081E3,2.172E3,5.464E3,3.315E3,2.828E3,1.212E3,2.316E3,1.5E3,1.098E3,2.75E2,4.107E3,1.34E3,7.18E2,1.23E2,1.464E3,1.308E3,7.82E2,2.34E2,2.045E3,1.09E2,1.589E3,7.4E2,6.33E2,8.12E2,2.86E2,1.581E3,2.187E3,6.12E2,2.37E3,1.154E3,8.1E2,1.094E3,1.488E3,7.57E2,5.29E3,5.257E3,4.509E3,2.006E3,3.183E3,1.898E3,1.467E3,7.05E2,2.377E3,3.087E3,2.971E3,3.44E2,1.77E3,1.058E3,8.57E2,3.55E2,1.361E3,9.55E2,9.32E2,5.68E2,4.45E2,6.53E2,2.47E2,2.8E1,4.21E2,3.686E3,7.99E2,5.41E2,2.99E2,4.19E2,7.6E1,4.7E1,9.85E2,4.79E2,9.21E2,3.87E2,6.26E2,1.56E2,1.41E2,9.3E1,1.068E3,9.77E2,1.6E1,9.3E1,1.376E3,2.13E2,2.93E2,4.47E2,6.25E2,8E0,6.66E2,1.46E2,1.91E2,9.5E1,7.94E2,7.87E2],"tree_param":{"num_deleted":"0","num_feature":"90","num_nodes":"127","size_leaf_vector":"1"}},{"base_weights":[-1.6080122E-4,-1.6536224E-1,7.0980215E-1,-3.267065E-1,1.2222712E-1,4.424458E-1,1.1226306E0,-4.7884715E-1,-1.9339252E-1,-1.7855646E-2,4.4309795E-1,2.488415E-1,7.728384E-1,8.7627953E-1,1.3777505E0,-5.816345E-1,-3.536886E-1,-2.6238772E-1,3.8585395E-2,-1.015844E-1,2.5060305E-1,2.6834702E-1,7.27139E-1,1.3253741E-1,5.556535E-1,5.5356276E-1,9.9410385E-1,7.191927E-1,1.2040156E0,1.1897438E0,1.5544672E0,-6.5625346E-1,-4.5757657E-1,-4.0375245E-1,-1.9029586E-1,-3.512856E-1,-1.4529367E-1,-3.4145653E-2,2.5811374E-1,-1.877177E-1,5.2877657E-2,1.7663638E-1,5.5613256E-1,1.4019905E-1,4.7347903E-1,5.5427676E-1,9.68448E-1,6.1810546E-2,4.1757396E-1,3.2214928E-1,7.07547E-1,4.4800967E-1,8.1825036E-1,7.4135756E-1,1.2322971E0,3.69071E-1,8.465675E-1,1.1247901E0,1.6495376E0,1.1083117E0,1.5257405E0,1.4548342E0,1.8468833E0,-3.4601804E-2,-2.5640419E-2,-2.6155299E-2,-1.5796442E-2,-2.4041776E-2,-1.6599841E-2,-1.5436028E-2,-3.0505036E-3,-2.2079464E-2,-1.4331107E-2,-1.1500675E-2,-3.288651E-4,-8.134141E-3,2.5845016E-3,8.316815E-4,1.9818544E-2,-1.3111107E-2,-2.6480698E-3,-2.3104683E-3,8.35248E-3,-1.5844025E-3,1.2988487E-2,1.9265324E-2,3.8461305E-2,3.2836783E-3,1.9112831E-2,1.3216424E-2,3.0396074E-2,1.918551E-2,3.538642E-2,4.426933E-2,7.1807005E-2,-4.734877E-3,7.92846E-3,1.3862801E-2,2.8900294E-2,2.2678671E-2,6.612322E-3,3.0943675E-2,5.9626866E-2,2.0467423E-2,4.9888942E-2,2.4125263E-2,4.8179243E-2,3.1632192E-2,5.3289797E-2,5.0273646E-2,6.926497E-2,1.6709452E-2,6.258111E-2,3.0259207E-2,4.8335463E-2,6.757558E-2,4.882649E-2,4.8097547E-2,9.0354405E-2,4.63596E-2,6.2115457E-2,6.6923045E-2,9.776523E-2,5.895206E-2,7.851005E-2,9.458446E-2,4.218683E-2],"categories":[],"categories_nodes":[],"categories_segments":[],"categories_sizes":[],"default_left":[0,0,0,0,0,0,0,0,0,0,0,0,0,0,0,0,0,0,0,0,0,0,0,0,0,0,0,0,0,0,0,0,0,0,0,0,0,0,0,0,0,0,0,0,0,0,0,0,0,0,0,0,0,0,0,0,0,0,0,0,0,0,0,0,0,0,0,0,0,0,0,0,0,0,0,0,0,0,0,0,0,0,0,0,0,0,0,0,0,0,0,0,0,0,0,0,0,0,0,0,0,0,0,0,0,0,0,0,0,0,0,0,0,0,0,0,0,0,0,0,0,0,0,0,0,0,0],"id":5,"left_children":[1,3,5,7,9,11,13,15,17,19,21,23,25,27,29,31,33,35,37,39,41,43,45,47,49,51,53,55,57,59,61,63,65,67,69,71,73,75,77,79,81,83,85,87,89,91,93,95,97,99,101,103,105,107,109,111,113,115,117,119,121,123,125,-1,-1,-1,-1,-1,-1,-1,-1,-1,-1,-1,-1,-1,-1,-1,-1,-1,-1,-1,-1,-1,-1,-1,-1,-1,-1,-1,-1,-1,-1,-1,-1,-1,-1,-1,-1,-1,-1,-1,-1,-1,-1,-1,-1,-1,-1,-1,-1,-1,-1,-1,-1,-1,-1,-1,-1,-1,-1,-1,-1,-1,-1,-1,-1],"loss_changes":[8.273065E3,2.655192E3,1.4691108E3,7.4340234E2,9.244182E2,5.1684033E2,3.2768115E2,2.2002515E2,3.1273877E2,3.2183887E2,3.100326E2,1.8184079E2,1.4432483E2,1.363363E2,8.350244E1,8.6697754E1,6.308972E1,1.5671472E2,7.153886E1,1.4521335E2,7.6828766E1,1.0169159E2,9.87406E1,7.452492E1,4.9462402E1,4.1597168E1,8.848706E1,8.0140015E1,2.8570557E1,3.2482788E1,3.579956E1,2.9754395E1,3.2628296E1,3.252942E1,2.7739342E1,4.9858276E1,7.639842E1,3.7145737E1,3.7219193E1,7.0336E1,4.4218765E1,4.7496147E1,2.3838089E1,4.2980965E1,4.1679962E1,3.608374E1,3.726483E1,4.4900383E1,1.6385681E1,1.3766647E1,3.5730927E1,2.246167E1,2.0370697E1,2.482663E1,2.5086792E1,1.4450928E1,3.7753235E1,2.3386353E1,1.2127869E1,2.3336182E1,1.6770996E1,2.964795E1,1.3326294E1,0E0,0E0,0E0,0E0,0E0,0E0,0E0,0E0,0E0,0E0,0E0,0E0,0E0,0E0,0E0,0E0,0E0,0E0,0E0,0E0,0E0,0E0,0E0,0E0,0E0,0E0,0E0,0E0,0E0,0E0,0E0,0E0,0E0,0E0,0E0,0E0,0E0,0E0,0E0,0E0,0E0,0E0,0E0,0E0,0E0,0E0,0E0,0E0,0E0,0E0,0E0,0E0,0E0,0E0,0E0,0E0,0E0,0E0,0E0,0E0,0E0,0E0,0E0,0E0],"parents":[2147483647,0,0,1,1,2,2,3,3,4,4,5,5,6,6,7,7,8,8,9,9,10,10,11,11,12,12,13,13,14,14,15,15,16,16,17,17,18,18,19,19,20,20,21,21,22,22,23,23,24,24,25,25,26,26,27,27,28,28,29,29,30,30,31,31,32,32,33,33,34,34,35,35,36,36,37,37,38,38,39,39,40,40,41,41,42,42,43,43,44,44,45,45,46,46,47,47,48,48,49,49,50,50,51,51,52,52,53,53,54,54,55,55,56,56,57,57,58,58,59,59,60,60,61,61,62,62],"right_children":[2,4,6,8,10,12,14,16,18,20,22,24,26,28,30,32,34,36,38,40,42,44,46,48,50,52,54,56,58,60,62,64,66,68,70,72,74,76,78,80,82,84,86,88,90,92,94,96,98,100,102,104,106,108,110,112,114,116,118,120,122,124,126,-1,-1,-1,-1,-1,-1,-1,-1,-1,-1,-1,-1,-1,-1,-1,-1,-1,-1,-1,-1,-1,-1,-1,-1,-1,-1,-1,-1,-1,-1,-1,-1,-1,-1,-1,-1,-1,-1,-1,-1,-1,-1,-1,-1,-1,-1,-1,-1,-1,-1,-1,-1,-1,-1,-1,-1,-1,-1,-1,-1,-1,-1,-1,-1],"split_conditions":[1.002449E0,1.596355E-1,1.283387E0,-4.0224025E-1,7.2151124E-1,1.002449E0,1.5643249E0,-5.245524E-1,4.4057336E-1,7.2151124E-1,1.002449E0,1.002449E0,1.002449E0,1.8452626E0,1.8452626E0,-4.0224025E-1,1.596355E-1,-1.2130237E-1,7.2151124E-1,1.596355E-1,1.283387E0,7.2151124E-1,1.283387E0,1.002449E0,4.4057336E-1,1.283387E0,1.283387E0,4.4057336E-1,2.9690142E0,2.6880763E0,2.9690142E0,-4.0224025E-1,-1.2130237E-1,-4.0224025E-1,-1.2130237E-1,-2.465987E-2,1.596355E-1,-1.2130237E-1,1.596355E-1,1.596355E-1,1.596355E-1,-1.2130237E-1,1.002449E0,1.002449E0,4.4057336E-1,7.2151124E-1,2.6880763E0,-1.2130237E-1,7.2151124E-1,5.114184E-1,2.1262004E0,2.4071383E0,-4.6227247E-1,1.8452626E0,1.283387E0,2.9690142E0,7.2151124E-1,-3.805681E-1,-6.487413E-1,1.283387E0,6.268908E-1,5.342087E-1,2.6698792E0,-3.4601804E-2,-2.5640419E-2,-2.6155299E-2,-1.5796442E-2,-2.4041776E-2,-1.6599841E-2,-1.5436028E-2,-3.0505036E-3,-2.2079464E-2,-1.4331107E-2,-1.1500675E-2,-3.288651E-4,-8.134141E-3,2.5845016E-3,8.316815E-4,1.9818544E-2,-1.3111107E-2,-2.6480698E-3,-2.3104683E-3,8.35248E-3,-1.5844025E-3,1.2988487E-2,1.9265324E-2,3.8461305E-2,3.2836783E-3,1.9112831E-2,1.3216424E-2,3.0396074E-2,1.918551E-2,3.538642E-2,4.426933E-2,7.1807005E-2,-4.734877E-3,7.92846E-3,1.3862801E-2,2.8900294E-2,2.2678671E-2,6.612322E-3,3.0943675E-2,5.9626866E-2,2.0467423E-2,4.9888942E-2,2.4125263E-2,4.8179243E-2,3.1632192E-2,5.3289797E-2,5.0273646E-2,6.926497E-2,1.6709452E-2,6.258111E-2,3.0259207E-2,4.8335463E-2,6.757558E-2,4.882649E-2,4.8097547E-2,9.0354405E-2,4.63596E-2,6.2115457E-2,6.6923045E-2,9.776523E-2,5.895206E-2,7.851005E-2,9.458446E-2,4.218683E-2],"split_indices":[82,73,28,82,37,64,10,84,55,64,28,73,19,64,73,37,28,46,19,82,10,10,55,37,10,10,37,46,37,55,82,73,64,64,10,84,19,28,46,19,28,46,19,55,55,10,10,19,10,68,46,73,87,55,55,73,73,52,70,37,32,48,18,0,0,0,0,0,0,0,0,0,0,0,0,0,0,0,0,0,0,0,0,0,0,0,0,0,0,0,0,0,0,0,0,0,0,0,0,0,0,0,0,0,0,0,0,0,0,0,0,0,0,0,0,0,0,0,0,0,0,0,0,0,0,0,0],"split_type":[0,0,0,0,0,0,0,0,0,0,0,0,0,0,0,0,0,0,0,0,0,0,0,0,0,0,0,0,0,0,0,0,0,0,0,0,0,0,0,0,0,0,0,0,0,0,0,0,0,0,0,0,0,0,0,0,0,0,0,0,0,0,0,0,0,0,0,0,0,0,0,0,0,0,0,0,0,0,0,0,0,0,0,0,0,0,0,0,0,0,0,0,0,0,0,0,0,0,0,0,0,0,0,0,0,0,0,0,0,0,0,0,0,0,0,0,0,0,0,0,0,0,0,0,0,0,0],"sum_hessian":[7.0535E4,5.7221E4,1.3314E4,3.6656E4,2.0565E4,8.082E3,5.232E3,1.7118E4,1.9538E4,1.4316E4,6.249E3,5.097E3,2.985E3,2.664E3,2.568E3,9.397E3,7.721E3,1.5059E4,4.479E3,1.0913E4,3.403E3,3.87E3,2.379E3,3.697E3,1.4E3,1.501E3,1.484E3,1.803E3,8.61E2,1.248E3,1.32E3,5.865E3,3.532E3,5.909E3,1.812E3,8.559E3,6.5E3,3.365E3,1.114E3,7.006E3,3.907E3,2.741E3,6.62E2,2.383E3,1.487E3,1.388E3,9.91E2,2.963E3,7.34E2,5.53E2,8.47E2,1.075E3,4.26E2,7.22E2,7.62E2,4.82E2,1.321E3,7.34E2,1.27E2,1.008E3,2.4E2,9.89E2,3.31E2,4.691E3,1.174E3,2.413E3,1.119E3,2.846E3,3.063E3,9.45E2,8.67E2,3.569E3,4.99E3,4.035E3,2.465E3,1.347E3,2.018E3,4.06E2,7.08E2,4.511E3,2.495E3,2.092E3,1.815E3,7.82E2,1.959E3,3.69E2,2.93E2,1.823E3,5.6E2,5.83E2,9.04E2,6.59E2,7.29E2,8.44E2,1.47E2,1.132E3,1.831E3,3.93E2,3.41E2,3.26E2,2.27E2,7.18E2,1.29E2,1.006E3,6.9E1,1.3E2,2.96E2,5.43E2,1.79E2,3.1E2,4.52E2,4.65E2,1.7E1,4.41E2,8.8E2,2.87E2,4.47E2,2.5E1,1.02E2,4.32E2,5.76E2,1.7E2,7E1,2.95E2,6.94E2,3.16E2,1.5E1],"tree_param":{"num_deleted":"0","num_feature":"90","num_nodes":"127","size_leaf_vector":"1"}},{"base_weights":[-2.3039097E-3,-1.5939866E-1,6.753495E-1,-3.1168658E-1,1.1207047E-1,3.699757E-1,1.0171587E0,-4.2179167E-1,-1.4031944E-1,-2.281537E-2,4.2490655E-1,2.089713E-1,6.80589E-1,6.949866E-1,1.1999416E0,-5.90962E-1,-3.442254E-1,-2.6984993E-1,-2.2150148E-2,-1.0346992E-1,2.3233251E-1,2.5717986E-1,6.985466E-1,1.1162502E-1,5.186325E-1,6.0071635E-1,1.1831468E0,4.045179E-1,8.099234E-1,1.0191988E0,1.4217162E0,-6.638285E-1,-4.5769796E-1,-4.0837637E-1,-2.3480532E-1,-3.4667364E-1,-1.5344273E-1,-1.3196397E-1,1.04705215E-1,-1.9444788E-1,3.1849936E-2,-9.0466544E-2,2.9288152E-1,1.396708E-1,4.614439E-1,4.7809538E-1,9.037638E-1,-1.0013765E-1,2.0676303E-1,4.088982E-1,8.8052994E-1,4.1116822E-1,7.5613755E-1,1.2259481E0,2.7457556E-1,2.7733552E-1,5.779064E-1,7.1233445E-1,1.1297209E0,8.737224E-1,1.2528573E0,1.176268E0,1.5527079E0,-3.5554215E-2,-2.7588248E-2,-2.6830206E-2,-1.8090855E-2,-2.579613E-2,-1.7925229E-2,-1.4099284E-2,-6.462836E-3,-2.1816935E-2,-1.3725378E-2,-1.0828644E-2,-1.5081208E-3,-1.0622853E-2,-5.708607E-4,2.3134733E-3,1.6319575E-2,-1.4439558E-2,-4.6995073E-3,-2.2891394E-3,8.060924E-3,-9.671284E-3,3.8885984E-3,1.0490915E-2,2.5607143E-2,-4.721666E-3,1.0069809E-2,1.4500302E-2,3.1611223E-2,1.8732175E-2,3.7522264E-2,3.4510802E-2,5.4936856E-2,-1.7002357E-2,-2.471758E-3,4.0324708E-3,1.5199194E-2,1.5127698E-2,3.5861272E-2,6.3573965E-3,4.701956E-2,1.5789835E-2,3.3382263E-2,3.5308298E-2,5.9639454E-2,5.6903154E-2,8.7463714E-2,-1.0069748E-2,5.5071283E-2,-2.4423494E-3,1.8242585E-2,2.3964358E-2,6.270724E-2,2.9939247E-2,4.747625E-2,2.9542748E-2,6.12772E-2,3.4940008E-2,5.231705E-2,4.639906E-2,6.609189E-2,4.9958862E-2,6.933152E-2,6.3175306E-2,8.1303276E-2],"categories":[],"categories_nodes":[],"categories_segments":[],"categories_sizes":[],"default_left":[0,0,0,0,0,0,0,0,0,0,0,0,0,0,0,0,0,0,0,0,0,0,0,0,0,0,0,0,0,0,0,0,0,0,0,0,0,0,0,0,0,0,0,0,0,0,0,0,0,0,0,0,0,0,0,0,0,0,0,0,0,0,0,0,0,0,0,0,0,0,0,0,0,0,0,0,0,0,0,0,0,0,0,0,0,0,0,0,0,0,0,0,0,0,0,0,0,0,0,0,0,0,0,0,0,0,0,0,0,0,0,0,0,0,0,0,0,0,0,0,0,0,0,0,0,0,0],"id":6,"left_children":[1,3,5,7,9,11,13,15,17,19,21,23,25,27,29,31,33,35,37,39,41,43,45,47,49,51,53,55,57,59,61,63,65,67,69,71,73,75,77,79,81,83,85,87,89,91,93,95,97,99,101,103,105,107,109,111,113,115,117,119,121,123,125,-1,-1,-1,-1,-1,-1,-1,-1,-1,-1,-1,-1,-1,-1,-1,-1,-1,-1,-1,-1,-1,-1,-1,-1,-1,-1,-1,-1,-1,-1,-1,-1,-1,-1,-1,-1,-1,-1,-1,-1,-1,-1,-1,-1,-1,-1,-1,-1,-1,-1,-1,-1,-1,-1,-1,-1,-1,-1,-1,-1,-1,-1,-1,-1],"loss_changes":[7.504177E3,2.3658005E3,1.3843232E3,6.9165625E2,8.678364E2,3.503286E2,3.6774316E2,2.9266455E2,2.195202E2,2.9576254E2,2.8419653E2,1.3911862E2,9.5305786E1,7.539087E1,1.585669E2,6.7815186E1,1.0733618E2,6.1133698E1,1.045063E2,1.3444366E2,6.74964E1,9.217859E1,1.0606372E2,7.081615E1,4.3482605E1,6.055298E1,1.237973E1,1.4063248E1,4.9878174E1,7.378931E1,5.572534E1,2.3612915E1,1.8591187E1,5.1556885E1,2.8144348E1,2.6546295E1,2.1177986E1,3.901406E1,4.507918E1,6.1860992E1,4.4107212E1,9.472687E0,5.2836426E1,3.5291878E1,4.0894043E1,3.1753937E1,4.9954407E1,1.3241958E1,2.97081E1,2.7620728E1,1.1425613E1,2.2610916E1,2.3901794E1,1.2358917E1,6.5187216E0,1.06941185E1,1.7538628E1,3.3016785E1,1.879422E1,4.0364014E1,1.766504E1,2.197229E1,2.2639893E1,0E0,0E0,0E0,0E0,0E0,0E0,0E0,0E0,0E0,0E0,0E0,0E0,0E0,0E0,0E0,0E0,0E0,0E0,0E0,0E0,0E0,0E0,0E0,0E0,0E0,0E0,0E0,0E0,0E0,0E0,0E0,0E0,0E0,0E0,0E0,0E0,0E0,0E0,0E0,0E0,0E0,0E0,0E0,0E0,0E0,0E0,0E0,0E0,0E0,0E0,0E0,0E0,0E0,0E0,0E0,0E0,0E0,0E0,0E0,0E0,0E0,0E0,0E0,0E0],"parents":[2147483647,0,0,1,1,2,2,3,3,4,4,5,5,6,6,7,7,8,8,9,9,10,10,11,11,12,12,13,13,14,14,15,15,16,16,17,17,18,18,19,19,20,20,21,21,22,22,23,23,24,24,25,25,26,26,27,27,28,28,29,29,30,30,31,31,32,32,33,33,34,34,35,35,36,36,37,37,38,38,39,39,40,40,41,41,42,42,43,43,44,44,45,45,46,46,47,47,48,48,49,49,50,50,51,51,52,52,53,53,54,54,55,55,56,56,57,57,58,58,59,59,60,60,61,61,62,62],"right_children":[2,4,6,8,10,12,14,16,18,20,22,24,26,28,30,32,34,36,38,40,42,44,46,48,50,52,54,56,58,60,62,64,66,68,70,72,74,76,78,80,82,84,86,88,90,92,94,96,98,100,102,104,106,108,110,112,114,116,118,120,122,124,126,-1,-1,-1,-1,-1,-1,-1,-1,-1,-1,-1,-1,-1,-1,-1,-1,-1,-1,-1,-1,-1,-1,-1,-1,-1,-1,-1,-1,-1,-1,-1,-1,-1,-1,-1,-1,-1,-1,-1,-1,-1,-1,-1,-1,-1,-1,-1,-1,-1,-1,-1,-1,-1,-1,-1,-1,-1,-1,-1,-1,-1,-1,-1,-1],"split_conditions":[1.002449E0,1.596355E-1,1.002449E0,-1.2130237E-1,7.2151124E-1,1.002449E0,1.002449E0,-8.128799E-1,-1.2130237E-1,7.2151124E-1,1.002449E0,1.002449E0,2.4071383E0,4.4057336E-1,1.8452626E0,-4.0224025E-1,-1.2130237E-1,-1.2130237E-1,1.596355E-1,1.596355E-1,-4.0224025E-1,7.2151124E-1,1.002449E0,-1.2130237E-1,1.5643249E0,7.2151124E-1,2.2316365E0,4.7866628E-1,2.4071383E0,2.1262004E0,1.5643249E0,-6.831781E-1,-4.0224025E-1,-6.831781E-1,1.596355E-1,-4.0224025E-1,1.596355E-1,1.596355E-1,1.002449E0,-1.2130237E-1,4.4057336E-1,4.4057336E-1,1.002449E0,-4.0224025E-1,7.2151124E-1,1.5643249E0,1.283387E0,-6.831781E-1,1.596355E-1,1.283387E0,-6.1348456E-1,1.283387E0,2.9690142E0,3.8118277E0,2.0832253E0,-1.2130237E-1,1.8452626E0,1.5643249E0,-8.22617E-1,1.283387E0,7.2151124E-1,1.8452626E0,1.4998434E-1,-3.5554215E-2,-2.7588248E-2,-2.6830206E-2,-1.8090855E-2,-2.579613E-2,-1.7925229E-2,-1.4099284E-2,-6.462836E-3,-2.1816935E-2,-1.3725378E-2,-1.0828644E-2,-1.5081208E-3,-1.0622853E-2,-5.708607E-4,2.3134733E-3,1.6319575E-2,-1.4439558E-2,-4.6995073E-3,-2.2891394E-3,8.060924E-3,-9.671284E-3,3.8885984E-3,1.0490915E-2,2.5607143E-2,-4.721666E-3,1.0069809E-2,1.4500302E-2,3.1611223E-2,1.8732175E-2,3.7522264E-2,3.4510802E-2,5.4936856E-2,-1.7002357E-2,-2.471758E-3,4.0324708E-3,1.5199194E-2,1.5127698E-2,3.5861272E-2,6.3573965E-3,4.701956E-2,1.5789835E-2,3.3382263E-2,3.5308298E-2,5.9639454E-2,5.6903154E-2,8.7463714E-2,-1.0069748E-2,5.5071283E-2,-2.4423494E-3,1.8242585E-2,2.3964358E-2,6.270724E-2,2.9939247E-2,4.747625E-2,2.9542748E-2,6.12772E-2,3.4940008E-2,5.231705E-2,4.639906E-2,6.609189E-2,4.9958862E-2,6.933152E-2,6.3175306E-2,8.1303276E-2],"split_indices":[82,73,1,64,1,64,46,84,19,64,46,28,73,73,73,19,19,82,46,28,82,64,19,73,46,19,0,36,1,82,64,82,46,1,46,1,1,28,1,82,46,28,28,82,19,73,28,64,46,73,21,46,82,73,85,64,19,28,79,28,19,28,81,0,0,0,0,0,0,0,0,0,0,0,0,0,0,0,0,0,0,0,0,0,0,0,0,0,0,0,0,0,0,0,0,0,0,0,0,0,0,0,0,0,0,0,0,0,0,0,0,0,0,0,0,0,0,0,0,0,0,0,0,0,0,0,0],"split_type":[0,0,0,0,0,0,0,0,0,0,0,0,0,0,0,0,0,0,0,0,0,0,0,0,0,0,0,0,0,0,0,0,0,0,0,0,0,0,0,0,0,0,0,0,0,0,0,0,0,0,0,0,0,0,0,0,0,0,0,0,0,0,0,0,0,0,0,0,0,0,0,0,0,0,0,0,0,0,0,0,0,0,0,0,0,0,0,0,0,0,0,0,0,0,0,0,0,0,0,0,0,0,0,0,0,0,0,0,0,0,0,0,0,0,0,0,0,0,0,0,0,0,0,0,0,0,0],"sum_hessian":[7.0489E4,5.7224E4,1.3265E4,3.6659E4,2.0565E4,7.007E3,6.258E3,2.2318E4,1.4341E4,1.437E4,6.195E3,4.616E3,2.391E3,2.267E3,3.991E3,7.014E3,1.5304E4,6.841E3,7.5E3,1.0919E4,3.451E3,3.842E3,2.353E3,3.513E3,1.103E3,2.065E3,3.26E2,6.44E2,1.623E3,2.202E3,1.789E3,4.532E3,2.482E3,9.646E3,5.658E3,4.12E3,2.721E3,4.02E3,3.48E3,6.529E3,4.39E3,5.45E2,2.906E3,2.44E3,1.402E3,1.136E3,1.217E3,1.089E3,2.424E3,8.48E2,2.55E2,9.32E2,1.133E3,3.11E2,1.5E1,3.73E2,2.71E2,1.246E3,3.77E2,1.36E3,8.42E2,6.26E2,1.163E3,3.184E3,1.348E3,1.359E3,1.123E3,3.053E3,6.593E3,3.909E3,1.749E3,1.835E3,2.285E3,1.799E3,9.22E2,2.41E3,1.61E3,2.755E3,7.25E2,3.366E3,3.163E3,2.744E3,1.646E3,3.38E2,2.07E2,2.109E3,7.97E2,5.09E2,1.931E3,7.01E2,7.01E2,8.25E2,3.11E2,5.83E2,6.34E2,1.89E2,9E2,1.056E3,1.368E3,6.32E2,2.16E2,1.9E1,2.36E2,6.81E2,2.51E2,1.019E3,1.14E2,2.69E2,4.2E1,1E1,5E0,7.9E1,2.94E2,2.38E2,3.3E1,8.45E2,4.01E2,5.8E1,3.19E2,6.78E2,6.82E2,1.5E2,6.92E2,3.43E2,2.83E2,2.39E2,9.24E2],"tree_param":{"num_deleted":"0","num_feature":"90","num_nodes":"127","size_leaf_vector":"1"}},{"base_weights":[-9.0885424E-4,-2.2025916E-1,4.3446958E-1,-3.3258346E-1,2.1307198E-2,1.8977667E-1,8.290622E-1,-4.5987597E-1,-2.2205281E-1,-1.06449634E-1,2.5052246E-1,7.380254E-2,5.386665E-1,6.056595E-1,1.167539E0,-5.378091E-1,-3.0865896E-1,-3.148542E-1,-1.0325723E-1,-2.3557505E-1,-1.484465E-3,1.6029465E-1,6.0054547E-1,-9.940489E-3,2.9741994E-1,4.049011E-1,8.914023E-1,4.1802815E-1,8.2299775E-1,9.5014787E-1,1.3397628E0,-6.6762286E-1,-4.842648E-1,-3.8607544E-1,-2.4587424E-1,-3.7335488E-1,-1.9467305E-1,-1.6772282E-1,7.354532E-2,-4.1477183E-1,-1.8697612E-1,-7.811378E-2,1.4893527E-1,6.4035274E-2,3.5399938E-1,4.611053E-1,9.225264E-1,-1.0592841E-1,1.07648835E-1,1.9768348E-1,5.230838E-1,3.732616E-1,1.2975568E0,7.539231E-1,1.2022026E0,3.6085674E-1,9.067292E-1,6.7069376E-1,1.0492903E0,8.155394E-1,1.1832085E0,1.081219E0,1.4334265E0,-3.4092E-2,-2.0378742E-2,-2.7072474E-2,-1.98644E-2,-2.3345022E-2,-1.63153E-2,-1.3804453E-2,-3.355269E-3,-2.08476E-2,-1.188258E-2,-1.2622167E-2,-4.677823E-3,-1.1128082E-2,-3.432427E-3,4.1089967E-4,1.4003003E-2,-2.4040578E-2,-1.1823482E-2,-1.0939063E-2,2.4725462E-3,-4.957631E-3,1.6962297E-2,3.3544113E-3,1.6157797E-2,-4.484324E-3,6.6048666E-3,1.6029445E-2,4.6745222E-2,1.4345511E-2,3.1198068E-2,3.2242183E-2,5.2135337E-2,-8.5329255E-3,4.1000303E-4,2.1028535E-3,1.405136E-2,6.128391E-3,2.101747E-2,2.0500645E-2,3.7543163E-2,1.1971288E-2,2.6063347E-2,4.663844E-2,9.094142E-2,2.9923571E-2,5.110387E-2,5.7200383E-2,1.09092295E-1,1.4132219E-2,2.812596E-2,2.6112396E-2,5.214107E-2,2.8531501E-2,4.8681997E-2,4.4384997E-2,6.269567E-2,1.8998057E-2,4.4247817E-2,4.6273466E-2,6.6493705E-2,4.9423523E-2,7.161328E-2,6.54817E-2,8.077135E-2],"categories":[],"categories_nodes":[],"categories_segments":[],"categories_sizes":[],"default_left":[0,0,0,0,0,0,0,0,0,0,0,0,0,0,0,0,0,0,0,0,0,0,0,0,0,0,0,0,0,0,0,0,0,0,0,0,0,0,0,0,0,0,0,0,0,0,0,0,0,0,0,0,0,0,0,0,0,0,0,0,0,0,0,0,0,0,0,0,0,0,0,0,0,0,0,0,0,0,0,0,0,0,0,0,0,0,0,0,0,0,0,0,0,0,0,0,0,0,0,0,0,0,0,0,0,0,0,0,0,0,0,0,0,0,0,0,0,0,0,0,0,0,0,0,0,0,0],"id":7,"left_children":[1,3,5,7,9,11,13,15,17,19,21,23,25,27,29,31,33,35,37,39,41,43,45,47,49,51,53,55,57,59,61,63,65,67,69,71,73,75,77,79,81,83,85,87,89,91,93,95,97,99,101,103,105,107,109,111,113,115,117,119,121,123,125,-1,-1,-1,-1,-1,-1,-1,-1,-1,-1,-1,-1,-1,-1,-1,-1,-1,-1,-1,-1,-1,-1,-1,-1,-1,-1,-1,-1,-1,-1,-1,-1,-1,-1,-1,-1,-1,-1,-1,-1,-1,-1,-1,-1,-1,-1,-1,-1,-1,-1,-1,-1,-1,-1,-1,-1,-1,-1,-1,-1,-1,-1,-1,-1],"loss_changes":[6.7378394E3,1.2730154E3,2.2820898E3,4.504807E2,4.3612125E2,5.9034424E2,6.833965E2,1.752273E2,1.8895874E2,1.2961342E2,1.6823474E2,2.0509448E2,1.7138818E2,2.2198547E2,1.3336182E2,6.793335E1,2.4518982E1,6.759064E1,8.57229E1,3.726567E1,6.082577E1,7.901729E1,4.8602234E1,8.995874E1,6.705722E1,7.4105804E1,4.1822144E1,8.1480255E1,8.6321045E1,4.9010498E1,4.6979248E1,1.0314453E1,3.4382324E1,1.0794373E1,1.5100189E1,3.819098E1,1.8394737E1,2.9926605E1,2.711472E1,1.0648666E1,2.538945E1,3.0731197E1,2.537439E1,2.965245E1,2.7007797E1,2.149469E1,1.0307007E1,3.241795E1,4.072338E1,3.4587402E1,2.3232407E1,5.04263E1,1.5417252E1,2.8401154E1,1.489209E1,4.121228E1,1.5466827E1,4.5279053E1,3.2414917E1,3.0293335E1,2.0731934E1,1.6068481E1,3.095874E1,0E0,0E0,0E0,0E0,0E0,0E0,0E0,0E0,0E0,0E0,0E0,0E0,0E0,0E0,0E0,0E0,0E0,0E0,0E0,0E0,0E0,0E0,0E0,0E0,0E0,0E0,0E0,0E0,0E0,0E0,0E0,0E0,0E0,0E0,0E0,0E0,0E0,0E0,0E0,0E0,0E0,0E0,0E0,0E0,0E0,0E0,0E0,0E0,0E0,0E0,0E0,0E0,0E0,0E0,0E0,0E0,0E0,0E0,0E0,0E0,0E0,0E0,0E0,0E0],"parents":[2147483647,0,0,1,1,2,2,3,3,4,4,5,5,6,6,7,7,8,8,9,9,10,10,11,11,12,12,13,13,14,14,15,15,16,16,17,17,18,18,19,19,20,20,21,21,22,22,23,23,24,24,25,25,26,26,27,27,28,28,29,29,30,30,31,31,32,32,33,33,34,34,35,35,36,36,37,37,38,38,39,39,40,40,41,41,42,42,43,43,44,44,45,45,46,46,47,47,48,48,49,49,50,50,51,51,52,52,53,53,54,54,55,55,56,56,57,57,58,58,59,59,60,60,61,61,62,62],"right_children":[2,4,6,8,10,12,14,16,18,20,22,24,26,28,30,32,34,36,38,40,42,44,46,48,50,52,54,56,58,60,62,64,66,68,70,72,74,76,78,80,82,84,86,88,90,92,94,96,98,100,102,104,106,108,110,112,114,116,118,120,122,124,126,-1,-1,-1,-1,-1,-1,-1,-1,-1,-1,-1,-1,-1,-1,-1,-1,-1,-1,-1,-1,-1,-1,-1,-1,-1,-1,-1,-1,-1,-1,-1,-1,-1,-1,-1,-1,-1,-1,-1,-1,-1,-1,-1,-1,-1,-1,-1,-1,-1,-1,-1,-1,-1,-1,-1,-1,-1,-1,-1,-1,-1,-1,-1,-1],"split_conditions":[4.4057336E-1,1.596355E-1,1.002449E0,-4.0224025E-1,4.4057336E-1,1.002449E0,1.5643249E0,2.9635571E-2,-1.2130237E-1,-1.2130237E-1,1.283387E0,7.2151124E-1,1.5643249E0,1.002449E0,1.5643249E0,-1.4681697E0,-4.0224025E-1,3.3949405E-1,4.4057336E-1,-7.7730703E-1,4.4057336E-1,7.2151124E-1,1.5643249E0,1.596355E-1,1.002449E0,2.9690142E0,1.8452626E0,2.1262004E0,1.5643249E0,1.8452626E0,1.283387E0,4.4057336E-1,-4.0224025E-1,-4.0224025E-1,4.4057336E-1,1.596355E-1,9.264465E-1,1.596355E-1,1.002449E0,1.596355E-1,7.2151124E-1,1.8452626E0,7.2151124E-1,-4.0224025E-1,2.4071383E0,7.2151124E-1,-5.0114965E-1,1.596355E-1,1.283387E0,1.002449E0,1.5643249E0,7.2151124E-1,1.5643249E0,1.5643249E0,3.105468E0,1.5643249E0,4.4057336E-1,1.8452626E0,2.1262004E0,1.596355E-1,1.5643249E0,7.8179353E-1,2.4071383E0,-3.4092E-2,-2.0378742E-2,-2.7072474E-2,-1.98644E-2,-2.3345022E-2,-1.63153E-2,-1.3804453E-2,-3.355269E-3,-2.08476E-2,-1.188258E-2,-1.2622167E-2,-4.677823E-3,-1.1128082E-2,-3.432427E-3,4.1089967E-4,1.4003003E-2,-2.4040578E-2,-1.1823482E-2,-1.0939063E-2,2.4725462E-3,-4.957631E-3,1.6962297E-2,3.3544113E-3,1.6157797E-2,-4.484324E-3,6.6048666E-3,1.6029445E-2,4.6745222E-2,1.4345511E-2,3.1198068E-2,3.2242183E-2,5.2135337E-2,-8.5329255E-3,4.1000303E-4,2.1028535E-3,1.405136E-2,6.128391E-3,2.101747E-2,2.0500645E-2,3.7543163E-2,1.1971288E-2,2.6063347E-2,4.663844E-2,9.094142E-2,2.9923571E-2,5.110387E-2,5.7200383E-2,1.09092295E-1,1.4132219E-2,2.812596E-2,2.6112396E-2,5.214107E-2,2.8531501E-2,4.8681997E-2,4.4384997E-2,6.269567E-2,1.8998057E-2,4.4247817E-2,4.6273466E-2,6.6493705E-2,4.9423523E-2,7.161328E-2,6.54817E-2,8.077135E-2],"split_indices":[82,64,73,28,19,37,46,84,73,46,73,64,28,28,19,84,46,84,46,84,28,46,10,19,28,82,46,64,10,64,64,19,46,82,37,37,12,10,73,28,28,64,10,82,37,37,32,46,82,10,82,10,10,64,20,82,19,37,73,37,82,5,37,0,0,0,0,0,0,0,0,0,0,0,0,0,0,0,0,0,0,0,0,0,0,0,0,0,0,0,0,0,0,0,0,0,0,0,0,0,0,0,0,0,0,0,0,0,0,0,0,0,0,0,0,0,0,0,0,0,0,0,0,0,0,0,0],"split_type":[0,0,0,0,0,0,0,0,0,0,0,0,0,0,0,0,0,0,0,0,0,0,0,0,0,0,0,0,0,0,0,0,0,0,0,0,0,0,0,0,0,0,0,0,0,0,0,0,0,0,0,0,0,0,0,0,0,0,0,0,0,0,0,0,0,0,0,0,0,0,0,0,0,0,0,0,0,0,0,0,0,0,0,0,0,0,0,0,0,0,0,0,0,0,0,0,0,0,0,0,0,0,0,0,0,0,0,0,0,0,0,0,0,0,0,0,0,0,0,0,0,0,0,0,0,0,0],"sum_hessian":[7.0551E4,4.6915E4,2.3636E4,3.2024E4,1.4891E4,1.459E4,9.046E3,1.4882E4,1.7142E4,9.562E3,5.329E3,1.0951E4,3.639E3,5.451E3,3.595E3,9.819E3,5.063E3,9.623E3,7.519E3,4.287E3,5.275E3,4.238E3,1.091E3,7.968E3,2.983E3,2.64E3,9.99E2,2.927E3,2.524E3,1.592E3,2.003E3,2.864E3,6.955E3,2.265E3,2.798E3,6.471E3,3.152E3,5.51E3,2.009E3,9.13E2,3.374E3,3.495E3,1.78E3,2.832E3,1.406E3,7.63E2,3.28E2,4.387E3,3.581E3,2.07E3,9.13E2,2.551E3,8.9E1,6.95E2,3.04E2,2.622E3,3.05E2,1.511E3,1.013E3,1.012E3,5.8E2,5.36E2,1.467E3,2.714E3,1.5E2,4.193E3,2.762E3,9.6E2,1.305E3,2.393E3,4.05E2,4.896E3,1.575E3,2.005E3,1.147E3,3.546E3,1.964E3,1.527E3,4.82E2,6.65E2,2.48E2,2.974E3,4E2,3.328E3,1.67E2,1.212E3,5.68E2,8.69E2,1.963E3,1.331E3,7.5E1,3.7E2,3.93E2,1.01E2,2.27E2,2.799E3,1.588E3,2.599E3,9.82E2,1.549E3,5.21E2,6.12E2,3.01E2,1.341E3,1.21E3,5.4E1,3.5E1,4.42E2,2.53E2,2.89E2,1.5E1,1.891E3,7.31E2,8.1E1,2.24E2,1.138E3,3.73E2,5.69E2,4.44E2,1.4E2,8.72E2,2.13E2,3.67E2,4.27E2,1.09E2,8.78E2,5.89E2],"tree_param":{"num_deleted":"0","num_feature":"90","num_nodes":"127","size_leaf_vector":"1"}},{"base_weights":[1.7298353E-3,-1.4114481E-1,6.1210793E-1,-2.5227645E-1,1.7596091E-1,3.3261597E-1,9.24421E-1,-3.6459446E-1,-9.426141E-2,5.787784E-2,5.3413373E-1,1.9123682E-1,6.350386E-1,7.047686E-1,1.1782359E0,-4.880478E-1,-2.7211365E-1,-1.8873423E-1,4.503494E-2,-1.039783E-1,1.6798578E-1,3.1084627E-1,7.287995E-1,5.188539E-2,3.724088E-1,4.9370417E-1,9.369013E-1,5.6807494E-1,1.0329216E0,9.559619E-1,1.3329791E0,-5.6047314E-1,-3.7827438E-1,-3.358748E-1,-1.7783909E-1,-2.4735743E-1,-4.3471724E-2,-1.8693879E-3,3.960379E-1,-2.3081683E-1,-8.845978E-3,7.28462E-2,3.5505268E-1,1.8995388E-1,4.8320824E-1,6.621161E-1,1.2532362E0,-9.69616E-3,2.9755384E-1,1.5810797E-1,4.741734E-1,4.3338427E-1,1.0105008E0,7.4936956E-1,1.150263E0,4.0337807E-1,7.3957705E-1,5.241493E-1,1.0877389E0,8.807448E-1,1.3522458E0,1.1663728E0,1.4898182E0,-3.025657E-2,-2.2417465E-2,-2.1807447E-2,-1.2951477E-2,-1.8428998E-2,-1.0527645E-2,-1.1022519E-2,-1.1308031E-3,-1.591838E-2,-7.7914023E-3,-4.2469343E-3,7.257478E-3,-7.184904E-3,4.337327E-3,1.454829E-2,3.358933E-2,-2.2057367E-2,-9.412173E-3,-4.786718E-3,6.7306706E-3,-3.384721E-4,1.0278755E-2,1.3199157E-2,3.0407934E-2,1.1516903E-3,1.3373114E-2,1.5476097E-2,3.2096744E-2,2.551086E-2,3.963019E-2,4.9923945E-2,7.81397E-2,-5.0689704E-3,4.8540183E-3,1.212584E-2,3.4083735E-2,6.183173E-3,3.59207E-2,1.7144876E-2,2.980326E-2,1.2388587E-2,2.7000695E-2,-3.7188941E-4,5.3920653E-2,3.6291353E-2,1.7525867E-1,5.1471174E-2,7.841021E-2,2.4541232E-3,2.3231925E-2,3.4269135E-2,6.343257E-2,-4.178356E-2,2.9510072E-2,4.179132E-2,5.935628E-2,4.296609E-2,1.0121826E-1,5.9562344E-2,8.972515E-2,5.190904E-2,7.202702E-2,6.890216E-2,8.127765E-2],"categories":[],"categories_nodes":[],"categories_segments":[],"categories_sizes":[],"default_left":[0,0,0,0,0,0,0,0,0,0,0,0,0,0,0,0,0,0,0,0,0,0,0,0,0,0,0,0,0,0,0,0,0,0,0,0,0,0,0,0,0,0,0,0,0,0,0,0,0,0,0,0,0,0,0,0,0,0,0,0,0,0,0,0,0,0,0,0,0,0,0,0,0,0,0,0,0,0,0,0,0,0,0,0,0,0,0,0,0,0,0,0,0,0,0,0,0,0,0,0,0,0,0,0,0,0,0,0,0,0,0,0,0,0,0,0,0,0,0,0,0,0,0,0,0,0,0],"id":8,"left_children":[1,3,5,7,9,11,13,15,17,19,21,23,25,27,29,31,33,35,37,39,41,43,45,47,49,51,53,55,57,59,61,63,65,67,69,71,73,75,77,79,81,83,85,87,89,91,93,95,97,99,101,103,105,107,109,111,113,115,117,119,121,123,125,-1,-1,-1,-1,-1,-1,-1,-1,-1,-1,-1,-1,-1,-1,-1,-1,-1,-1,-1,-1,-1,-1,-1,-1,-1,-1,-1,-1,-1,-1,-1,-1,-1,-1,-1,-1,-1,-1,-1,-1,-1,-1,-1,-1,-1,-1,-1,-1,-1,-1,-1,-1,-1,-1,-1,-1,-1,-1,-1,-1,-1,-1,-1,-1],"loss_changes":[6.1668813E3,2.0193942E3,1.1704995E3,7.5304614E2,6.2892535E2,3.025929E2,3.5229736E2,2.8303345E2,2.3202754E2,1.9935258E2,1.6003418E2,1.2182063E2,9.5743774E1,1.5183545E2,9.974487E1,8.422876E1,8.5188965E1,8.945572E1,1.1732006E2,5.4646877E1,1.1845186E2,3.5727448E1,6.8028564E1,4.1288948E1,4.567871E1,4.7506348E1,2.78667E1,6.752002E1,2.726355E1,3.484607E1,4.3441895E1,3.1760132E1,2.90448E1,3.459308E1,3.785501E1,4.8599274E1,2.3649057E1,7.902925E1,2.4142258E1,1.72976E1,3.2284657E1,4.664544E1,5.156421E1,1.3086796E1,1.93199E1,3.426245E1,1.5868103E1,2.1380579E1,1.1398739E1,1.2976894E1,2.2549652E1,2.7159088E1,1.1068878E1,2.2434082E1,1.5253967E1,2.6608383E1,3.2821045E1,9.3853E0,2.1540771E1,2.3225769E1,1.1462067E1,2.8132568E1,1.1217285E1,0E0,0E0,0E0,0E0,0E0,0E0,0E0,0E0,0E0,0E0,0E0,0E0,0E0,0E0,0E0,0E0,0E0,0E0,0E0,0E0,0E0,0E0,0E0,0E0,0E0,0E0,0E0,0E0,0E0,0E0,0E0,0E0,0E0,0E0,0E0,0E0,0E0,0E0,0E0,0E0,0E0,0E0,0E0,0E0,0E0,0E0,0E0,0E0,0E0,0E0,0E0,0E0,0E0,0E0,0E0,0E0,0E0,0E0,0E0,0E0,0E0,0E0,0E0,0E0],"parents":[2147483647,0,0,1,1,2,2,3,3,4,4,5,5,6,6,7,7,8,8,9,9,10,10,11,11,12,12,13,13,14,14,15,15,16,16,17,17,18,18,19,19,20,20,21,21,22,22,23,23,24,24,25,25,26,26,27,27,28,28,29,29,30,30,31,31,32,32,33,33,34,34,35,35,36,36,37,37,38,38,39,39,40,40,41,41,42,42,43,43,44,44,45,45,46,46,47,47,48,48,49,49,50,50,51,51,52,52,53,53,54,54,55,55,56,56,57,57,58,58,59,59,60,60,61,61,62,62],"right_children":[2,4,6,8,10,12,14,16,18,20,22,24,26,28,30,32,34,36,38,40,42,44,46,48,50,52,54,56,58,60,62,64,66,68,70,72,74,76,78,80,82,84,86,88,90,92,94,96,98,100,102,104,106,108,110,112,114,116,118,120,122,124,126,-1,-1,-1,-1,-1,-1,-1,-1,-1,-1,-1,-1,-1,-1,-1,-1,-1,-1,-1,-1,-1,-1,-1,-1,-1,-1,-1,-1,-1,-1,-1,-1,-1,-1,-1,-1,-1,-1,-1,-1,-1,-1,-1,-1,-1,-1,-1,-1,-1,-1,-1,-1,-1,-1,-1,-1,-1,-1,-1,-1,-1,-1,-1,-1],"split_conditions":[1.002449E0,4.4057336E-1,1.002449E0,-1.2130237E-1,1.002449E0,1.002449E0,1.5643249E0,-4.3842858E-1,1.596355E-1,-1.2130237E-1,7.2151124E-1,4.4057336E-1,1.5643249E0,1.8452626E0,1.5643249E0,-4.0224025E-1,-1.2130237E-1,1.596355E-1,1.283387E0,-1.2130237E-1,7.2151124E-1,7.2151124E-1,2.6880763E0,1.002449E0,1.596355E-1,2.6880763E0,1.5643249E0,1.002449E0,1.596355E-1,2.6880763E0,2.1262004E0,-4.0224025E-1,-1.2130237E-1,1.596355E-1,4.4057336E-1,-1.2130237E-1,1.002449E0,-1.2130237E-1,1.283387E0,-1.0937184E0,4.4057336E-1,4.4057336E-1,1.283387E0,-1.2130237E-1,7.2151124E-1,1.283387E0,1.8452626E0,1.596355E-1,1.8452626E0,2.1262004E0,7.2151124E-1,4.4057336E-1,-1.1332492E0,4.092766E0,1.1829456E0,-1.2130237E-1,2.9690142E0,-1.7490082E0,-6.913695E-2,4.3737035E0,2.6880763E0,2.4071383E0,2.9690142E0,-3.025657E-2,-2.2417465E-2,-2.1807447E-2,-1.2951477E-2,-1.8428998E-2,-1.0527645E-2,-1.1022519E-2,-1.1308031E-3,-1.591838E-2,-7.7914023E-3,-4.2469343E-3,7.257478E-3,-7.184904E-3,4.337327E-3,1.454829E-2,3.358933E-2,-2.2057367E-2,-9.412173E-3,-4.786718E-3,6.7306706E-3,-3.384721E-4,1.0278755E-2,1.3199157E-2,3.0407934E-2,1.1516903E-3,1.3373114E-2,1.5476097E-2,3.2096744E-2,2.551086E-2,3.963019E-2,4.9923945E-2,7.81397E-2,-5.0689704E-3,4.8540183E-3,1.212584E-2,3.4083735E-2,6.183173E-3,3.59207E-2,1.7144876E-2,2.980326E-2,1.2388587E-2,2.7000695E-2,-3.7188941E-4,5.3920653E-2,3.6291353E-2,1.7525867E-1,5.1471174E-2,7.841021E-2,2.4541232E-3,2.3231925E-2,3.4269135E-2,6.343257E-2,-4.178356E-2,2.9510072E-2,4.179132E-2,5.935628E-2,4.296609E-2,1.0121826E-1,5.9562344E-2,8.972515E-2,5.190904E-2,7.202702E-2,6.890216E-2,8.127765E-2],"split_indices":[82,55,55,73,73,37,10,84,64,82,28,1,46,64,28,1,1,82,10,28,64,46,10,73,28,82,28,46,37,37,82,64,46,46,28,28,73,1,73,75,1,28,28,82,37,55,1,46,64,10,10,64,78,64,3,73,82,3,18,64,64,73,82,0,0,0,0,0,0,0,0,0,0,0,0,0,0,0,0,0,0,0,0,0,0,0,0,0,0,0,0,0,0,0,0,0,0,0,0,0,0,0,0,0,0,0,0,0,0,0,0,0,0,0,0,0,0,0,0,0,0,0,0,0,0,0,0],"split_type":[0,0,0,0,0,0,0,0,0,0,0,0,0,0,0,0,0,0,0,0,0,0,0,0,0,0,0,0,0,0,0,0,0,0,0,0,0,0,0,0,0,0,0,0,0,0,0,0,0,0,0,0,0,0,0,0,0,0,0,0,0,0,0,0,0,0,0,0,0,0,0,0,0,0,0,0,0,0,0,0,0,0,0,0,0,0,0,0,0,0,0,0,0,0,0,0,0,0,0,0,0,0,0,0,0,0,0,0,0,0,0,0,0,0,0,0,0,0,0,0,0,0,0,0,0,0,0],"sum_hessian":[7.0713E4,5.7301E4,1.3412E4,4.2431E4,1.487E4,7.079E3,6.333E3,2.4801E4,1.763E4,1.1184E4,3.686E3,4.825E3,2.254E3,3.397E3,2.936E3,1.062E4,1.4181E4,1.0505E4,7.125E3,4.528E3,6.656E3,1.718E3,1.968E3,2.728E3,2.097E3,1.537E3,7.17E2,2.4E3,9.97E2,1.208E3,1.728E3,6.396E3,4.224E3,8.458E3,5.723E3,7.484E3,3.021E3,6.286E3,8.39E2,1.94E3,2.588E3,4.413E3,2.243E3,1.011E3,7.07E2,1.748E3,2.2E2,2.182E3,5.46E2,6.76E2,1.421E3,1.378E3,1.59E2,3.84E2,3.33E2,1.226E3,1.174E3,9.8E1,8.99E2,1.018E3,1.9E2,8.42E2,8.86E2,4.571E3,1.825E3,2.842E3,1.382E3,6.706E3,1.752E3,4.49E3,1.233E3,4.213E3,3.271E3,2.477E3,5.44E2,2.417E3,3.869E3,6.09E2,2.3E2,3.25E2,1.615E3,1.612E3,9.76E2,2.759E3,1.654E3,1.651E3,5.92E2,3.21E2,6.9E2,3.39E2,3.68E2,8.1E2,9.38E2,1.23E2,9.7E1,1.174E3,1.008E3,4.79E2,6.7E1,6.38E2,3.8E1,6.86E2,7.35E2,5.04E2,8.74E2,1E1,1.49E2,3.82E2,2E0,2.61E2,7.2E1,1.81E2,1.045E3,1.067E3,1.07E2,4E0,9.4E1,2.57E2,6.42E2,1.001E3,1.7E1,1.42E2,4.8E1,5.77E2,2.65E2,4.92E2,3.94E2],"tree_param":{"num_deleted":"0","num_feature":"90","num_nodes":"127","size_leaf_vector":"1"}},{"base_weights":[-1.6259758E-3,-1.3676538E-1,5.783166E-1,-2.4165379E-1,1.6584708E-1,3.905598E-1,9.801507E-1,-3.462958E-1,-9.9063404E-2,5.5783957E-2,4.9036363E-1,1.8800716E-1,6.1627E-1,7.789603E-1,1.1650794E0,-4.4149128E-1,-2.4217008E-1,-1.6859642E-1,8.2598545E-2,-7.8266956E-2,1.8232518E-1,3.7777686E-1,7.9416317E-1,7.785692E-2,3.9034835E-1,4.8588774E-1,8.8325095E-1,5.3456783E-1,8.783397E-1,9.027716E-1,1.2774221E0,-5.288647E-1,-3.510952E-1,-3.084014E-1,-1.4937767E-1,-2.9427713E-1,-1.1142192E-1,-2.3660216E-2,2.2948353E-1,-2.2066683E-1,-2.6695963E-2,1.1533732E-1,4.4905576E-1,3.0719253E-1,6.591638E-1,7.168913E-1,1.3660548E0,-7.641372E-2,1.6204952E-1,2.837416E-1,6.098074E-1,4.078247E-1,8.090821E-1,8.057547E-1,1.2264577E0,2.5528795E-1,6.5693855E-1,6.3991463E-1,9.6779245E-1,8.447804E-1,1.455028E0,3.9681146E-1,1.3065696E0,-2.878338E-2,-2.1265088E-2,-2.1181615E-2,-1.3847882E-2,-1.9431574E-2,-1.25318235E-2,-1.0913527E-2,-4.293571E-3,-2.1256583E-2,-1.1771261E-2,-7.942415E-3,1.1737777E-3,-5.599532E-3,3.7136588E-3,5.4687746E-3,1.8095747E-2,-1.5451747E-2,-5.3256624E-3,-3.9031561E-3,4.700777E-3,3.2403406E-3,1.5569997E-2,1.2929613E-2,2.8648976E-2,7.8030154E-3,2.0461021E-2,3.1197667E-2,7.770001E-2,4.8276694E-3,3.803828E-2,7.7966295E-2,2.4578055E-2,-2.3023147E-2,-2.2482208E-3,4.797011E-3,1.810862E-2,1.0326133E-2,2.273052E-2,2.0129351E-2,3.7141744E-2,1.6595842E-2,3.4522932E-2,5.7125944E-3,4.3394096E-2,3.417703E-2,4.879699E-2,4.4735666E-2,6.964607E-2,-1.802109E-2,1.7330984E-2,3.0320851E-2,6.1817624E-2,2.6689325E-2,4.466571E-2,4.5177024E-2,6.0250606E-2,2.945949E-2,4.80497E-2,4.7418725E-2,9.81923E-2,-4.8277103E-3,3.8720917E-2,6.1154533E-2,7.96792E-2],"categories":[],"categories_nodes":[],"categories_segments":[],"categories_sizes":[],"default_left":[0,0,0,0,0,0,0,0,0,0,0,0,0,0,0,0,0,0,0,0,0,0,0,0,0,0,0,0,0,0,0,0,0,0,0,0,0,0,0,0,0,0,0,0,0,0,0,0,0,0,0,0,0,0,0,0,0,0,0,0,0,0,0,0,0,0,0,0,0,0,0,0,0,0,0,0,0,0,0,0,0,0,0,0,0,0,0,0,0,0,0,0,0,0,0,0,0,0,0,0,0,0,0,0,0,0,0,0,0,0,0,0,0,0,0,0,0,0,0,0,0,0,0,0,0,0,0],"id":9,"left_children":[1,3,5,7,9,11,13,15,17,19,21,23,25,27,29,31,33,35,37,39,41,43,45,47,49,51,53,55,57,59,61,63,65,67,69,71,73,75,77,79,81,83,85,87,89,91,93,95,97,99,101,103,105,107,109,111,113,115,117,119,121,123,125,-1,-1,-1,-1,-1,-1,-1,-1,-1,-1,-1,-1,-1,-1,-1,-1,-1,-1,-1,-1,-1,-1,-1,-1,-1,-1,-1,-1,-1,-1,-1,-1,-1,-1,-1,-1,-1,-1,-1,-1,-1,-1,-1,-1,-1,-1,-1,-1,-1,-1,-1,-1,-1,-1,-1,-1,-1,-1,-1,-1,-1,-1,-1,-1],"loss_changes":[5.5367456E3,1.8186143E3,1.0069116E3,6.34822E2,5.2673145E2,4.1596545E2,1.5725464E2,2.4313086E2,2.275073E2,1.8684439E2,1.2745117E2,1.06907074E2,1.4939136E2,4.9052734E1,6.40603E1,1.0105347E2,7.199463E1,9.356134E1,7.7826004E1,3.927557E1,1.01186676E2,5.395984E1,4.360956E1,4.0380474E1,3.9389282E1,7.2684326E1,3.6540405E1,2.0064316E1,3.0263306E1,2.0132202E1,3.9189453E1,3.1338501E1,3.3778442E1,3.1597778E1,2.1349373E1,3.1258545E1,5.7288704E1,2.5042858E1,3.325183E1,1.4311562E1,2.4363323E1,4.4859184E1,2.6688385E1,3.358191E1,1.623352E1,2.4176758E1,1.9346207E1,1.324103E1,2.657074E1,1.4947624E1,1.4917389E1,4.9823303E1,2.2861847E1,2.333496E1,1.3001343E1,1.03594885E1,1.1281403E1,1.0226517E1,1.4930359E1,1.7433868E1,1.4120789E1,9.575984E0,3.3918213E1,0E0,0E0,0E0,0E0,0E0,0E0,0E0,0E0,0E0,0E0,0E0,0E0,0E0,0E0,0E0,0E0,0E0,0E0,0E0,0E0,0E0,0E0,0E0,0E0,0E0,0E0,0E0,0E0,0E0,0E0,0E0,0E0,0E0,0E0,0E0,0E0,0E0,0E0,0E0,0E0,0E0,0E0,0E0,0E0,0E0,0E0,0E0,0E0,0E0,0E0,0E0,0E0,0E0,0E0,0E0,0E0,0E0,0E0,0E0,0E0,0E0,0E0,0E0,0E0],"parents":[2147483647,0,0,1,1,2,2,3,3,4,4,5,5,6,6,7,7,8,8,9,9,10,10,11,11,12,12,13,13,14,14,15,15,16,16,17,17,18,18,19,19,20,20,21,21,22,22,23,23,24,24,25,25,26,26,27,27,28,28,29,29,30,30,31,31,32,32,33,33,34,34,35,35,36,36,37,37,38,38,39,39,40,40,41,41,42,42,43,43,44,44,45,45,46,46,47,47,48,48,49,49,50,50,51,51,52,52,53,53,54,54,55,55,56,56,57,57,58,58,59,59,60,60,61,61,62,62],"right_children":[2,4,6,8,10,12,14,16,18,20,22,24,26,28,30,32,34,36,38,40,42,44,46,48,50,52,54,56,58,60,62,64,66,68,70,72,74,76,78,80,82,84,86,88,90,92,94,96,98,100,102,104,106,108,110,112,114,116,118,120,122,124,126,-1,-1,-1,-1,-1,-1,-1,-1,-1,-1,-1,-1,-1,-1,-1,-1,-1,-1,-1,-1,-1,-1,-1,-1,-1,-1,-1,-1,-1,-1,-1,-1,-1,-1,-1,-1,-1,-1,-1,-1,-1,-1,-1,-1,-1,-1,-1,-1,-1,-1,-1,-1,-1,-1,-1,-1,-1,-1,-1,-1,-1,-1,-1,-1],"split_conditions":[1.002449E0,4.4057336E-1,1.5643249E0,-1.2130237E-1,1.002449E0,7.2151124E-1,1.5643249E0,-4.0224025E-1,4.4057336E-1,1.596355E-1,1.5643249E0,7.2151124E-1,1.5643249E0,7.2151124E-1,1.283387E0,-4.8326904E-1,-1.2130237E-1,-5.0737953E-1,4.4057336E-1,-4.0224025E-1,1.283387E0,1.8452626E0,3.249952E0,-1.2130237E-1,1.002449E0,1.8452626E0,2.6880763E0,1.596355E-1,7.2151124E-1,3.249952E0,-3.4481576E-1,-4.0224025E-1,-4.0224025E-1,-3.2286313E-1,-1.2130237E-1,-6.831781E-1,4.4057336E-1,1.596355E-1,1.002449E0,-1.2130237E-1,4.4057336E-1,1.002449E0,1.596355E-1,4.4057336E-1,2.8058982E0,-4.3842858E-1,9.3160546E-1,-9.64116E-1,7.2151124E-1,1.8452626E0,7.2151124E-1,2.1262004E0,-6.1694014E-1,1.5643249E0,5.164223E-1,-1.046912E0,2.6880763E0,6.663469E-1,1.6838334E0,1.002449E0,3.9287707E-1,2.4071383E0,2.9690142E0,-2.878338E-2,-2.1265088E-2,-2.1181615E-2,-1.3847882E-2,-1.9431574E-2,-1.25318235E-2,-1.0913527E-2,-4.293571E-3,-2.1256583E-2,-1.1771261E-2,-7.942415E-3,1.1737777E-3,-5.599532E-3,3.7136588E-3,5.4687746E-3,1.8095747E-2,-1.5451747E-2,-5.3256624E-3,-3.9031561E-3,4.700777E-3,3.2403406E-3,1.5569997E-2,1.2929613E-2,2.8648976E-2,7.8030154E-3,2.0461021E-2,3.1197667E-2,7.770001E-2,4.8276694E-3,3.803828E-2,7.7966295E-2,2.4578055E-2,-2.3023147E-2,-2.2482208E-3,4.797011E-3,1.810862E-2,1.0326133E-2,2.273052E-2,2.0129351E-2,3.7141744E-2,1.6595842E-2,3.4522932E-2,5.7125944E-3,4.3394096E-2,3.417703E-2,4.879699E-2,4.4735666E-2,6.964607E-2,-1.802109E-2,1.7330984E-2,3.0320851E-2,6.1817624E-2,2.6689325E-2,4.466571E-2,4.5177024E-2,6.0250606E-2,2.945949E-2,4.80497E-2,4.7418725E-2,9.81923E-2,-4.8277103E-3,3.8720917E-2,6.1154533E-2,7.96792E-2],"split_indices":[73,55,46,1,1,10,10,73,37,37,37,55,1,37,55,85,46,81,10,46,46,55,37,1,1,55,10,10,1,1,21,46,37,85,37,55,10,46,37,73,10,10,73,10,61,12,78,46,46,73,37,73,81,55,57,39,55,7,72,37,24,55,1,0,0,0,0,0,0,0,0,0,0,0,0,0,0,0,0,0,0,0,0,0,0,0,0,0,0,0,0,0,0,0,0,0,0,0,0,0,0,0,0,0,0,0,0,0,0,0,0,0,0,0,0,0,0,0,0,0,0,0,0,0,0,0,0],"split_type":[0,0,0,0,0,0,0,0,0,0,0,0,0,0,0,0,0,0,0,0,0,0,0,0,0,0,0,0,0,0,0,0,0,0,0,0,0,0,0,0,0,0,0,0,0,0,0,0,0,0,0,0,0,0,0,0,0,0,0,0,0,0,0,0,0,0,0,0,0,0,0,0,0,0,0,0,0,0,0,0,0,0,0,0,0,0,0,0,0,0,0,0,0,0,0,0,0,0,0,0,0,0,0,0,0,0,0,0,0,0,0,0,0,0,0,0,0,0,0,0,0,0,0,0,0,0,0],"sum_hessian":[7.0644E4,5.7294E4,1.335E4,4.2547E4,1.4747E4,9.1E3,4.25E3,2.4538E4,1.8009E4,1.1013E4,3.734E3,4.797E3,4.303E3,2.038E3,2.212E3,1.2817E4,1.1721E4,1.3024E4,4.985E3,5.348E3,5.665E3,2.726E3,1.008E3,3.107E3,1.69E3,2.893E3,1.41E3,5.91E2,1.447E3,6.66E2,1.546E3,6.515E3,6.302E3,6.838E3,4.883E3,4.071E3,8.953E3,2.893E3,2.092E3,1.421E3,3.927E3,4.529E3,1.136E3,2.181E3,5.45E2,8.9E2,1.18E2,1.097E3,2.01E3,1.139E3,5.51E2,2.332E3,5.61E2,1.153E3,2.57E2,1.81E2,4.1E2,3.97E2,1.05E3,6.05E2,6.1E1,5E1,1.496E3,4.484E3,2.031E3,3.183E3,3.119E3,2.86E3,3.978E3,2.341E3,2.542E3,1.261E3,2.81E3,6.624E3,2.329E3,1.521E3,1.372E3,1.098E3,9.94E2,8E2,6.21E2,2.755E3,1.172E3,3.602E3,9.27E2,4.49E2,6.87E2,8.8E2,1.301E3,5.26E2,1.9E1,5.9E1,8.31E2,9.6E1,2.2E1,8.2E1,1.015E3,1.512E3,4.98E2,7.86E2,3.53E2,2.17E2,3.34E2,1.84E3,4.92E2,4.4E1,5.17E2,6.74E2,4.79E2,8.8E1,1.69E2,2.3E1,1.58E2,3.79E2,3.1E1,2.82E2,1.15E2,8.3E2,2.2E2,1.91E2,4.14E2,3.2E1,2.9E1,2.2E1,2.8E1,1.163E3,3.33E2],"tree_param":{"num_deleted":"0","num_feature":"90","num_nodes":"127","size_leaf_vector":"1"}},{"base_weights":[2.1183876E-4,-1.9284046E-1,3.843024E-1,-3.2024378E-1,-3.1971805E-2,1.7757167E-1,7.284909E-1,-4.2013416E-1,-2.1731544E-1,-1.09601E-1,2.342894E-1,7.588445E-2,4.7805408E-1,5.4228216E-1,9.9776673E-1,-5.5220926E-1,-3.6040837E-1,-2.750943E-1,-8.6864136E-2,-1.9267103E-1,2.5747523E-2,1.0396327E-1,4.3984026E-1,-4.132725E-3,2.8327778E-1,2.794806E-1,6.378939E-1,4.2665112E-1,8.19805E-1,8.84309E-1,1.2764344E0,-6.297221E-1,-5.002802E-1,-4.0252393E-1,-2.4096523E-1,-3.5596967E-1,-2.0732853E-1,-1.9381198E-1,-2.0870233E-2,-3.4830847E-1,-1.4887695E-1,-7.6073915E-2,1.332494E-1,-3.5263218E-2,2.2989185E-1,3.6978188E-1,8.8756233E-1,-5.509679E-2,1.7051023E-1,2.1247375E-1,5.9755695E-1,7.1279936E-2,3.9032733E-1,5.4585373E-1,9.732421E-1,3.0251396E-1,6.0596097E-1,6.897542E-1,1.1024425E0,7.3366255E-1,1.0928822E0,1.1358618E0,1.437982E0,-3.3308253E-2,-2.8406385E-2,-2.8822271E-2,-2.1543378E-2,-2.2074006E-2,-1.4786842E-2,-1.49276825E-2,-7.486014E-3,-1.9670984E-2,-1.096214E-2,-1.2307158E-2,-5.2202283E-3,-1.2326754E-2,-1.1032795E-3,-1.1205835E-2,3.1539446E-4,-2.0117784E-2,-1.0550627E-2,-1.133784E-2,-3.134998E-3,-8.570307E-3,-3.1344726E-4,-2.39902E-3,1.0421974E-2,-6.9557475E-3,6.9251517E-3,5.8322544E-3,2.1148778E-2,1.1728929E-2,2.476978E-2,3.9515097E-2,8.751195E-2,-6.134976E-3,2.2039793E-3,1.615116E-3,1.2334689E-2,6.3867415E-3,1.7614169E-2,2.1964042E-2,4.3803986E-2,-4.9995523E-2,4.2120814E-3,1.512848E-2,3.0146608E-2,2.1997867E-2,3.881694E-2,4.4104736E-2,7.153266E-2,1.1163334E-2,2.2997212E-2,2.029494E-2,3.6150407E-2,2.3326559E-2,3.9287005E-2,4.7004748E-2,6.9267325E-2,2.6255986E-2,4.3194223E-2,1.8824568E-2,5.61516E-2,5.1194426E-2,7.2288685E-2,6.70109E-2,8.763345E-2],"categories":[],"categories_nodes":[],"categories_segments":[],"categories_sizes":[],"default_left":[0,0,0,0,0,0,0,0,0,0,0,0,0,0,0,0,0,0,0,0,0,0,0,0,0,0,0,0,0,0,0,0,0,0,0,0,0,0,0,0,0,0,0,0,0,0,0,0,0,0,0,0,0,0,0,0,0,0,0,0,0,0,0,0,0,0,0,0,0,0,0,0,0,0,0,0,0,0,0,0,0,0,0,0,0,0,0,0,0,0,0,0,0,0,0,0,0,0,0,0,0,0,0,0,0,0,0,0,0,0,0,0,0,0,0,0,0,0,0,0,0,0,0,0,0,0,0],"id":10,"left_children":[1,3,5,7,9,11,13,15,17,19,21,23,25,27,29,31,33,35,37,39,41,43,45,47,49,51,53,55,57,59,61,63,65,67,69,71,73,75,77,79,81,83,85,87,89,91,93,95,97,99,101,103,105,107,109,111,113,115,117,119,121,123,125,-1,-1,-1,-1,-1,-1,-1,-1,-1,-1,-1,-1,-1,-1,-1,-1,-1,-1,-1,-1,-1,-1,-1,-1,-1,-1,-1,-1,-1,-1,-1,-1,-1,-1,-1,-1,-1,-1,-1,-1,-1,-1,-1,-1,-1,-1,-1,-1,-1,-1,-1,-1,-1,-1,-1,-1,-1,-1,-1,-1,-1,-1,-1,-1],"loss_changes":[5.2270996E3,9.615016E2,1.6776902E3,2.6907983E2,4.286107E2,4.5013373E2,4.4311084E2,1.0459668E2,9.717755E1,1.8051785E2,1.2535193E2,1.8269583E2,1.180531E2,1.6757861E2,1.1319849E2,1.632898E1,4.59364E1,4.8906128E1,2.794526E1,6.776053E1,6.685734E1,5.0256523E1,5.6633698E1,7.072398E1,6.807614E1,3.83515E1,6.3144287E1,8.2086E1,5.5772217E1,8.004382E1,2.2075073E1,3.3364868E0,1.2868286E1,2.8007812E1,1.2503418E1,2.0769226E1,1.940976E1,1.367667E1,1.35348625E1,1.6121399E1,5.210692E1,2.0874605E1,4.049487E1,2.459782E1,3.285916E1,2.6581665E1,1.9173325E1,4.1245365E1,1.8891888E1,2.9608833E1,2.4434158E1,8.123328E0,2.0061188E1,3.9223053E1,1.720755E1,2.7169662E1,3.5089172E1,2.2259552E1,2.0881226E1,4.0200134E1,2.2839355E1,1.8056885E1,1.2479736E1,0E0,0E0,0E0,0E0,0E0,0E0,0E0,0E0,0E0,0E0,0E0,0E0,0E0,0E0,0E0,0E0,0E0,0E0,0E0,0E0,0E0,0E0,0E0,0E0,0E0,0E0,0E0,0E0,0E0,0E0,0E0,0E0,0E0,0E0,0E0,0E0,0E0,0E0,0E0,0E0,0E0,0E0,0E0,0E0,0E0,0E0,0E0,0E0,0E0,0E0,0E0,0E0,0E0,0E0,0E0,0E0,0E0,0E0,0E0,0E0,0E0,0E0,0E0,0E0],"parents":[2147483647,0,0,1,1,2,2,3,3,4,4,5,5,6,6,7,7,8,8,9,9,10,10,11,11,12,12,13,13,14,14,15,15,16,16,17,17,18,18,19,19,20,20,21,21,22,22,23,23,24,24,25,25,26,26,27,27,28,28,29,29,30,30,31,31,32,32,33,33,34,34,35,35,36,36,37,37,38,38,39,39,40,40,41,41,42,42,43,43,44,44,45,45,46,46,47,47,48,48,49,49,50,50,51,51,52,52,53,53,54,54,55,55,56,56,57,57,58,58,59,59,60,60,61,61,62,62],"right_children":[2,4,6,8,10,12,14,16,18,20,22,24,26,28,30,32,34,36,38,40,42,44,46,48,50,52,54,56,58,60,62,64,66,68,70,72,74,76,78,80,82,84,86,88,90,92,94,96,98,100,102,104,106,108,110,112,114,116,118,120,122,124,126,-1,-1,-1,-1,-1,-1,-1,-1,-1,-1,-1,-1,-1,-1,-1,-1,-1,-1,-1,-1,-1,-1,-1,-1,-1,-1,-1,-1,-1,-1,-1,-1,-1,-1,-1,-1,-1,-1,-1,-1,-1,-1,-1,-1,-1,-1,-1,-1,-1,-1,-1,-1,-1,-1,-1,-1,-1,-1,-1,-1,-1,-1,-1,-1],"split_conditions":[4.4057336E-1,-1.2130237E-1,1.002449E0,-4.0224025E-1,7.2151124E-1,1.002449E0,1.5643249E0,-1.1835867E0,1.596355E-1,1.596355E-1,7.2151124E-1,7.2151124E-1,7.2151124E-1,1.5643249E0,2.4071383E0,-9.64116E-1,4.1532043E-1,-1.5759009E-1,-4.0224025E-1,-6.831781E-1,1.596355E-1,-1.2130237E-1,2.1262004E0,7.2151124E-1,1.5643249E0,1.596355E-1,2.4071383E0,1.002449E0,2.1262004E0,1.8452626E0,9.1690886E-1,-6.831781E-1,-6.831781E-1,-1.2130237E-1,-1.2130237E-1,1.596355E-1,1.596355E-1,7.9997814E-1,-6.831781E-1,1.4571548E-1,-1.2130237E-1,-1.2130237E-1,-1.2130237E-1,4.4057336E-1,7.2151124E-1,7.2151124E-1,3.249952E0,1.596355E-1,-1.2130237E-1,7.2151124E-1,1.283387E0,-1.09091E0,1.5643249E0,1.5643249E0,2.6880763E0,1.002449E0,7.2151124E-1,7.2151124E-1,2.1262004E0,1.283387E0,-3.0924287E-1,2.6880763E0,7.8323E-1,-3.3308253E-2,-2.8406385E-2,-2.8822271E-2,-2.1543378E-2,-2.2074006E-2,-1.4786842E-2,-1.49276825E-2,-7.486014E-3,-1.9670984E-2,-1.096214E-2,-1.2307158E-2,-5.2202283E-3,-1.2326754E-2,-1.1032795E-3,-1.1205835E-2,3.1539446E-4,-2.0117784E-2,-1.0550627E-2,-1.133784E-2,-3.134998E-3,-8.570307E-3,-3.1344726E-4,-2.39902E-3,1.0421974E-2,-6.9557475E-3,6.9251517E-3,5.8322544E-3,2.1148778E-2,1.1728929E-2,2.476978E-2,3.9515097E-2,8.751195E-2,-6.134976E-3,2.2039793E-3,1.615116E-3,1.2334689E-2,6.3867415E-3,1.7614169E-2,2.1964042E-2,4.3803986E-2,-4.9995523E-2,4.2120814E-3,1.512848E-2,3.0146608E-2,2.1997867E-2,3.881694E-2,4.4104736E-2,7.153266E-2,1.1163334E-2,2.2997212E-2,2.029494E-2,3.6150407E-2,2.3326559E-2,3.9287005E-2,4.7004748E-2,6.9267325E-2,2.6255986E-2,4.3194223E-2,1.8824568E-2,5.61516E-2,5.1194426E-2,7.2288685E-2,6.70109E-2,8.763345E-2],"split_indices":[82,73,46,64,37,1,28,84,28,19,28,64,19,1,73,73,84,84,82,82,64,82,1,73,73,28,1,73,82,19,54,46,19,28,19,1,37,4,1,84,28,46,1,64,46,19,19,28,1,28,37,84,82,73,64,64,37,19,64,82,84,19,34,0,0,0,0,0,0,0,0,0,0,0,0,0,0,0,0,0,0,0,0,0,0,0,0,0,0,0,0,0,0,0,0,0,0,0,0,0,0,0,0,0,0,0,0,0,0,0,0,0,0,0,0,0,0,0,0,0,0,0,0,0,0,0,0],"split_type":[0,0,0,0,0,0,0,0,0,0,0,0,0,0,0,0,0,0,0,0,0,0,0,0,0,0,0,0,0,0,0,0,0,0,0,0,0,0,0,0,0,0,0,0,0,0,0,0,0,0,0,0,0,0,0,0,0,0,0,0,0,0,0,0,0,0,0,0,0,0,0,0,0,0,0,0,0,0,0,0,0,0,0,0,0,0,0,0,0,0,0,0,0,0,0,0,0,0,0,0,0,0,0,0,0,0,0,0,0,0,0,0,0,0,0,0,0,0,0,0,0,0,0,0,0,0,0],"sum_hessian":[7.0492E4,4.6913E4,2.3579E4,2.6179E4,2.0734E4,1.4732E4,8.847E3,1.3284E4,1.2895E4,1.6054E4,4.68E3,1.1008E4,3.724E3,5.232E3,3.615E3,4.134E3,9.15E3,8.936E3,3.959E3,9.948E3,6.106E3,2.865E3,1.815E3,7.944E3,3.064E3,1.662E3,2.062E3,3.695E3,1.537E3,2.572E3,1.043E3,1.654E3,2.48E3,6.763E3,2.387E3,4.072E3,4.864E3,1.51E3,2.449E3,2.183E3,7.765E3,3.136E3,2.97E3,1.361E3,1.504E3,1.571E3,2.44E2,6.15E3,1.794E3,2.502E3,5.62E2,5.78E2,1.084E3,1.62E3,4.42E2,2.185E3,1.51E3,1.055E3,4.82E2,1.496E3,1.076E3,5.62E2,4.81E2,1.033E3,6.21E2,1.179E3,1.301E3,4.953E3,1.81E3,1.462E3,9.25E2,3.195E3,8.77E2,3.531E3,1.333E3,1.155E3,3.55E2,2.88E2,2.161E3,1.565E3,6.18E2,4.078E3,3.687E3,1.325E3,1.811E3,8.71E2,2.099E3,8.52E2,5.09E2,9.49E2,5.55E2,7.58E2,8.13E2,2.21E2,2.3E1,3.657E3,2.493E3,6.38E2,1.156E3,1.559E3,9.43E2,3.6E2,2.02E2,6E0,5.72E2,7.69E2,3.15E2,1.112E3,5.08E2,3.71E2,7.1E1,1.455E3,7.3E2,5.59E2,9.51E2,3.19E2,7.36E2,3.09E2,1.73E2,5.77E2,9.19E2,4.4E1,1.032E3,4.16E2,1.46E2,3.71E2,1.1E2],"tree_param":{"num_deleted":"0","num_feature":"90","num_nodes":"127","size_leaf_vector":"1"}},{"base_weights":[-1.8879736E-3,-1.2569746E-1,5.2795476E-1,-2.222502E-1,1.4959776E-1,2.9073757E-1,7.992695E-1,-3.5569137E-1,-1.1655219E-1,4.7811892E-2,4.5743105E-1,1.3377264E-1,5.0433844E-1,6.161368E-1,1.0068346E0,-4.7082156E-1,-2.8786656E-1,-1.7483579E-1,5.8546122E-2,-9.39715E-2,1.4493744E-1,3.6383426E-1,8.677376E-1,6.679953E-2,3.6372593E-1,3.9423424E-1,7.813249E-1,4.8717964E-1,8.555579E-1,7.4292034E-1,1.0994846E0,-5.568591E-1,-3.9573136E-1,-3.7247458E-1,-2.1935421E-1,-2.510891E-1,-8.34011E-2,-1.8482417E-2,2.6024252E-1,-1.7354544E-1,1.1467269E-2,6.2038273E-2,3.082116E-1,2.5809333E-1,5.867852E-1,6.8115586E-1,1.0539622E0,-2.3236186E-3,1.9173618E-1,2.9260668E-1,7.604117E-1,3.4429616E-1,9.8754233E-1,6.3999337E-1,1.0269381E0,4.1110536E-1,8.4870493E-1,7.6359636E-1,1.1574172E0,4.0854123E-1,8.2515794E-1,1.0230886E0,1.3688262E0,-2.7967343E-2,2.5626695E-2,-2.4117295E-2,-1.6898958E-2,-2.067483E-2,-1.3153064E-2,-1.2826346E-2,-3.8146672E-3,-1.7632516E-2,-1.0710484E-2,-7.2961883E-3,9.907264E-4,-8.624139E-3,1.618808E-3,1.96927E-3,1.6598552E-2,-1.04966285E-2,1.0056614E-3,-9.294569E-3,2.9785815E-3,1.3922438E-3,1.5585049E-2,1.1790684E-2,2.4996722E-2,7.621771E-3,1.9394336E-2,2.3488307E-2,3.7565578E-2,1.8795315E-2,4.3356337E-2,4.811415E-2,7.415609E-2,-8.019662E-3,2.552804E-3,6.1263335E-3,1.9995594E-2,-3.9658262E-3,1.8458327E-2,3.3367574E-2,1.02040194E-1,8.436955E-3,2.2576962E-2,4.1672565E-2,7.724365E-2,2.8427279E-2,5.3069558E-2,1.5739603E-2,5.5517055E-2,1.7697839E-2,3.9532613E-2,3.4178246E-2,5.4897185E-2,3.509048E-2,6.2477645E-2,1.4458086E-1,5.4991353E-2,2.6648814E-2,-4.717474E-3,3.632232E-2,5.368748E-2,4.5623854E-2,5.948135E-2,5.687582E-2,7.745986E-2],"categories":[],"categories_nodes":[],"categories_segments":[],"categories_sizes":[],"default_left":[0,0,0,0,0,0,0,0,0,0,0,0,0,0,0,0,0,0,0,0,0,0,0,0,0,0,0,0,0,0,0,0,0,0,0,0,0,0,0,0,0,0,0,0,0,0,0,0,0,0,0,0,0,0,0,0,0,0,0,0,0,0,0,0,0,0,0,0,0,0,0,0,0,0,0,0,0,0,0,0,0,0,0,0,0,0,0,0,0,0,0,0,0,0,0,0,0,0,0,0,0,0,0,0,0,0,0,0,0,0,0,0,0,0,0,0,0,0,0,0,0,0,0,0,0,0,0],"id":11,"left_children":[1,3,5,7,9,11,13,15,17,19,21,23,25,27,29,31,33,35,37,39,41,43,45,47,49,51,53,55,57,59,61,63,65,67,69,71,73,75,77,79,81,83,85,87,89,91,93,95,97,99,101,103,105,107,109,111,113,115,117,119,121,123,125,-1,-1,-1,-1,-1,-1,-1,-1,-1,-1,-1,-1,-1,-1,-1,-1,-1,-1,-1,-1,-1,-1,-1,-1,-1,-1,-1,-1,-1,-1,-1,-1,-1,-1,-1,-1,-1,-1,-1,-1,-1,-1,-1,-1,-1,-1,-1,-1,-1,-1,-1,-1,-1,-1,-1,-1,-1,-1,-1,-1,-1,-1,-1,-1],"loss_changes":[4.616963E3,1.5164512E3,8.5775757E2,5.956887E2,4.641464E2,2.3844958E2,2.357378E2,1.4563696E2,2.4055054E2,1.5333759E2,1.4104712E2,6.314933E1,9.158057E1,1.0165625E2,7.041089E1,4.4480347E1,6.802948E1,1.2327551E2,9.1467476E1,3.7984325E1,8.942209E1,7.055011E1,2.3013672E1,2.7445698E1,2.587358E1,6.3598663E1,2.9057007E1,5.880951E1,3.1206116E1,2.0561798E1,4.292163E1,8.858582E0,1.8335022E1,2.3481995E1,3.452057E1,3.6038757E1,5.190692E1,3.337876E1,2.5761452E1,1.8184662E1,1.8505016E1,3.7416725E1,3.0765854E1,2.7861969E1,1.8206696E1,1.9202057E1,1.1950134E1,1.7280178E1,1.626056E1,2.2410149E1,1.5319557E1,3.742772E1,1.3054306E1,1.5835495E1,1.8122345E1,3.830771E1,1.4601898E1,2.5815857E1,2.3585632E1,9.562019E0,1.4164154E1,2.9898804E1,1.7972046E1,0E0,0E0,0E0,0E0,0E0,0E0,0E0,0E0,0E0,0E0,0E0,0E0,0E0,0E0,0E0,0E0,0E0,0E0,0E0,0E0,0E0,0E0,0E0,0E0,0E0,0E0,0E0,0E0,0E0,0E0,0E0,0E0,0E0,0E0,0E0,0E0,0E0,0E0,0E0,0E0,0E0,0E0,0E0,0E0,0E0,0E0,0E0,0E0,0E0,0E0,0E0,0E0,0E0,0E0,0E0,0E0,0E0,0E0,0E0,0E0,0E0,0E0,0E0,0E0],"parents":[2147483647,0,0,1,1,2,2,3,3,4,4,5,5,6,6,7,7,8,8,9,9,10,10,11,11,12,12,13,13,14,14,15,15,16,16,17,17,18,18,19,19,20,20,21,21,22,22,23,23,24,24,25,25,26,26,27,27,28,28,29,29,30,30,31,31,32,32,33,33,34,34,35,35,36,36,37,37,38,38,39,39,40,40,41,41,42,42,43,43,44,44,45,45,46,46,47,47,48,48,49,49,50,50,51,51,52,52,53,53,54,54,55,55,56,56,57,57,58,58,59,59,60,60,61,61,62,62],"right_children":[2,4,6,8,10,12,14,16,18,20,22,24,26,28,30,32,34,36,38,40,42,44,46,48,50,52,54,56,58,60,62,64,66,68,70,72,74,76,78,80,82,84,86,88,90,92,94,96,98,100,102,104,106,108,110,112,114,116,118,120,122,124,126,-1,-1,-1,-1,-1,-1,-1,-1,-1,-1,-1,-1,-1,-1,-1,-1,-1,-1,-1,-1,-1,-1,-1,-1,-1,-1,-1,-1,-1,-1,-1,-1,-1,-1,-1,-1,-1,-1,-1,-1,-1,-1,-1,-1,-1,-1,-1,-1,-1,-1,-1,-1,-1,-1,-1,-1,-1,-1,-1,-1,-1,-1,-1,-1],"split_conditions":[1.002449E0,4.4057336E-1,1.002449E0,-4.0224025E-1,1.002449E0,7.2151124E-1,1.5643249E0,-6.831781E-1,4.4057336E-1,-1.2130237E-1,1.8452626E0,1.002449E0,1.5643249E0,1.5643249E0,1.002449E0,-1.1835867E0,-4.0224025E-1,-1.2130237E-1,7.2151124E-1,1.596355E-1,7.2151124E-1,1.283387E0,1.5643249E0,4.4057336E-1,1.8452626E0,2.4071383E0,1.8452626E0,2.4071383E0,2.4071383E0,4.4057336E-1,2.9690142E0,2.4071383E0,-6.831781E-1,-1.2130237E-1,4.4057336E-1,-6.831781E-1,1.596355E-1,-4.0224025E-1,-1.2130237E-1,7.2151124E-1,-4.0224025E-1,1.283387E0,1.283387E0,7.2151124E-1,1.283387E0,1.4998434E-1,1.5742728E0,-4.0224025E-1,1.002449E0,-1.2130237E-1,2.9690142E0,4.4057336E-1,2.6880763E0,2.9690142E0,-2.465987E-2,2.1262004E0,1.5643249E0,2.9690142E0,-1.4138322E0,7.8179353E-1,2.4071383E0,2.1262004E0,5.090242E-1,-2.7967343E-2,2.5626695E-2,-2.4117295E-2,-1.6898958E-2,-2.067483E-2,-1.3153064E-2,-1.2826346E-2,-3.8146672E-3,-1.7632516E-2,-1.0710484E-2,-7.2961883E-3,9.907264E-4,-8.624139E-3,1.618808E-3,1.96927E-3,1.6598552E-2,-1.04966285E-2,1.0056614E-3,-9.294569E-3,2.9785815E-3,1.3922438E-3,1.5585049E-2,1.1790684E-2,2.4996722E-2,7.621771E-3,1.9394336E-2,2.3488307E-2,3.7565578E-2,1.8795315E-2,4.3356337E-2,4.811415E-2,7.415609E-2,-8.019662E-3,2.552804E-3,6.1263335E-3,1.9995594E-2,-3.9658262E-3,1.8458327E-2,3.3367574E-2,1.02040194E-1,8.436955E-3,2.2576962E-2,4.1672565E-2,7.724365E-2,2.8427279E-2,5.3069558E-2,1.5739603E-2,5.5517055E-2,1.7697839E-2,3.9532613E-2,3.4178246E-2,5.4897185E-2,3.509048E-2,6.2477645E-2,1.4458086E-1,5.4991353E-2,2.6648814E-2,-4.717474E-3,3.632232E-2,5.368748E-2,4.5623854E-2,5.948135E-2,5.687582E-2,7.745986E-2],"split_indices":[82,55,1,82,73,37,19,73,73,82,1,55,46,10,55,84,19,19,64,1,1,64,10,10,64,73,55,82,46,64,82,37,64,10,1,1,64,10,46,46,37,37,46,37,19,27,45,64,64,73,19,64,82,46,84,64,37,82,5,14,1,46,20,0,0,0,0,0,0,0,0,0,0,0,0,0,0,0,0,0,0,0,0,0,0,0,0,0,0,0,0,0,0,0,0,0,0,0,0,0,0,0,0,0,0,0,0,0,0,0,0,0,0,0,0,0,0,0,0,0,0,0,0,0,0,0,0],"split_type":[0,0,0,0,0,0,0,0,0,0,0,0,0,0,0,0,0,0,0,0,0,0,0,0,0,0,0,0,0,0,0,0,0,0,0,0,0,0,0,0,0,0,0,0,0,0,0,0,0,0,0,0,0,0,0,0,0,0,0,0,0,0,0,0,0,0,0,0,0,0,0,0,0,0,0,0,0,0,0,0,0,0,0,0,0,0,0,0,0,0,0,0,0,0,0,0,0,0,0,0,0,0,0,0,0,0,0,0,0,0,0,0,0,0,0,0,0,0,0,0,0,0,0,0,0,0,0],"sum_hessian":[7.0379E4,5.7049E4,1.333E4,4.2236E4,1.4813E4,7.113E3,6.217E3,1.8667E4,2.3569E4,1.1133E4,3.68E3,4.101E3,3.012E3,3.305E3,2.912E3,6.918E3,1.1749E4,1.7683E4,5.886E3,4.526E3,6.607E3,2.998E3,6.82E2,3.177E3,9.24E2,2.157E3,8.55E2,2.15E3,1.155E3,7.59E2,2.153E3,3.221E3,3.697E3,5.255E3,6.494E3,9.641E3,8.042E3,4.26E3,1.626E3,2.579E3,1.947E3,4.383E3,2.224E3,2.035E3,9.63E2,3.43E2,3.39E2,2.046E3,1.131E3,7.85E2,1.39E2,1.991E3,1.66E2,5.45E2,3.1E2,1.778E3,3.72E2,8.88E2,2.67E2,1.51E2,6.08E2,1.681E3,4.72E2,3.214E3,7E0,1.476E3,2.221E3,3.82E3,1.435E3,5.154E3,1.34E3,2.566E3,7.075E3,5.008E3,3.034E3,1.057E3,3.203E3,3.99E2,1.227E3,2.171E3,4.08E2,3.81E2,1.566E3,3.856E3,5.27E2,1.616E3,6.08E2,1.123E3,9.12E2,5.65E2,3.98E2,1.31E2,2.12E2,2.82E2,5.7E1,5.16E2,1.53E3,8.5E2,2.81E2,1.34E2,6.51E2,1.31E2,8E0,7.56E2,1.235E3,1.32E2,3.4E1,4.68E2,7.7E1,3.3E1,2.77E2,1.547E3,2.31E2,2.26E2,1.46E2,7.9E2,9.8E1,7E0,2.6E2,1.21E2,3E1,4.38E2,1.7E2,1.014E3,6.67E2,2.1E2,2.62E2],"tree_param":{"num_deleted":"0","num_feature":"90","num_nodes":"127","size_leaf_vector":"1"}},{"base_weights":[-6.916216E-4,-1.7554048E-1,3.4739107E-1,-2.9976124E-1,-2.4445754E-2,1.5848221E-1,6.6672194E-1,-4.240819E-1,-2.3200041E-1,-1.12309285E-1,1.6647239E-1,6.0324308E-2,4.4157663E-1,5.249092E-1,9.635182E-1,-4.8489976E-1,-3.2066855E-1,-2.9701394E-1,-1.3515325E-1,-1.5416253E-1,9.9625126E-2,-3.5310942E-3,2.8500506E-1,-8.883546E-3,2.5036645E-1,3.2926413E-1,7.3425454E-1,3.1710878E-1,6.613057E-1,8.1594086E-1,1.1183057E0,-5.591385E-1,-4.3307924E-1,-3.4631082E-1,-4.496906E-2,-3.4374774E-1,-1.9911245E-1,-1.9572014E-1,-3.0534249E-2,-2.3099197E-1,-7.080837E-2,5.5777404E-2,3.9326784E-1,-7.509514E-2,1.2550686E-1,2.1768966E-1,5.779658E-1,-9.267982E-2,9.2961825E-2,1.3343368E-1,4.21006E-1,2.0297623E-1,4.6737525E-1,5.9349823E-1,9.777643E-1,2.2644441E-1,5.515788E-1,5.6135625E-1,8.801242E-1,7.0893365E-1,9.917559E-1,8.781386E-1,1.2311723E0,-2.8066535E-2,6.714987E-2,-2.3002667E-2,-1.6768025E-2,-1.901875E-2,-9.090853E-3,1.2011057E-1,-3.0932948E-3,-1.9321684E-2,-1.3028485E-2,-1.1376504E-2,-2.5484727E-3,-1.18937595E-2,-4.3487106E-3,-3.3395526E-3,1.1892277E-2,-1.50650535E-2,-8.406168E-3,-1.1246793E-2,-1.8779619E-3,-7.228954E-3,4.6025254E-3,1.1989213E-2,3.1295557E-2,-7.718656E-3,-2.6708454E-4,3.6021422E-3,2.3726255E-2,9.127251E-3,2.657846E-2,2.5154212E-2,4.6624642E-2,-1.3652727E-2,-3.082335E-3,-4.1652282E-4,8.69549E-3,-2.1000524E-4,1.1663157E-2,1.824731E-2,4.367728E-2,-2.8500406E-3,1.258844E-2,2.080803E-2,4.1136753E-2,1.7279232E-2,3.4695577E-2,3.257809E-2,5.3180493E-2,4.8245937E-3,1.7133558E-2,9.192585E-3,3.22812E-2,2.2560636E-2,3.5018425E-2,3.9457735E-2,6.147483E-2,3.4215543E-2,9.7960085E-2,1.6169878E-2,5.1491976E-2,3.750509E-2,6.1740547E-2,5.8279272E-2,7.878585E-2],"categories":[],"categories_nodes":[],"categories_segments":[],"categories_sizes":[],"default_left":[0,0,0,0,0,0,0,0,0,0,0,0,0,0,0,0,0,0,0,0,0,0,0,0,0,0,0,0,0,0,0,0,0,0,0,0,0,0,0,0,0,0,0,0,0,0,0,0,0,0,0,0,0,0,0,0,0,0,0,0,0,0,0,0,0,0,0,0,0,0,0,0,0,0,0,0,0,0,0,0,0,0,0,0,0,0,0,0,0,0,0,0,0,0,0,0,0,0,0,0,0,0,0,0,0,0,0,0,0,0,0,0,0,0,0,0,0,0,0,0,0,0,0,0,0,0,0],"id":12,"left_children":[1,3,5,7,9,11,13,15,17,19,21,23,25,27,29,31,33,35,37,39,41,43,45,47,49,51,53,55,57,59,61,63,65,67,69,71,73,75,77,79,81,83,85,87,89,91,93,95,97,99,101,103,105,107,109,111,113,115,117,119,121,123,125,-1,-1,-1,-1,-1,-1,-1,-1,-1,-1,-1,-1,-1,-1,-1,-1,-1,-1,-1,-1,-1,-1,-1,-1,-1,-1,-1,-1,-1,-1,-1,-1,-1,-1,-1,-1,-1,-1,-1,-1,-1,-1,-1,-1,-1,-1,-1,-1,-1,-1,-1,-1,-1,-1,-1,-1,-1,-1,-1,-1,-1,-1,-1,-1],"loss_changes":[4.2959346E3,8.818402E2,1.4236108E3,2.1711621E2,3.5564325E2,4.120687E2,3.6870337E2,5.7046387E1,1.05052734E2,1.2880096E2,1.3464977E2,1.448497E2,1.2526129E2,1.6809265E2,6.3847656E1,2.178247E1,2.3815918E1,4.5620605E1,4.2486244E1,7.763281E1,3.0815042E1,2.53673E1,7.751486E1,6.891426E1,5.8606705E1,4.806183E1,3.5683228E1,4.993788E1,7.789075E1,2.6670532E1,3.635327E1,1.05529785E1,8.744507E0,1.7211548E1,1.20573015E1,2.3893799E1,1.3582077E1,1.944838E1,2.395314E1,2.7836578E1,2.9801386E1,1.5166153E1,1.0954769E1,9.770531E0,1.8252533E1,3.5235855E1,1.9043335E1,2.478049E1,2.9888271E1,2.3990852E1,2.9997498E1,1.8331417E1,2.3644714E1,1.6513748E1,1.011615E1,2.564367E1,2.2567734E1,3.7395752E1,3.468933E1,2.6612122E1,1.36154785E1,1.939566E1,1.9337402E1,0E0,0E0,0E0,0E0,0E0,0E0,0E0,0E0,0E0,0E0,0E0,0E0,0E0,0E0,0E0,0E0,0E0,0E0,0E0,0E0,0E0,0E0,0E0,0E0,0E0,0E0,0E0,0E0,0E0,0E0,0E0,0E0,0E0,0E0,0E0,0E0,0E0,0E0,0E0,0E0,0E0,0E0,0E0,0E0,0E0,0E0,0E0,0E0,0E0,0E0,0E0,0E0,0E0,0E0,0E0,0E0,0E0,0E0,0E0,0E0,0E0,0E0,0E0,0E0],"parents":[2147483647,0,0,1,1,2,2,3,3,4,4,5,5,6,6,7,7,8,8,9,9,10,10,11,11,12,12,13,13,14,14,15,15,16,16,17,17,18,18,19,19,20,20,21,21,22,22,23,23,24,24,25,25,26,26,27,27,28,28,29,29,30,30,31,31,32,32,33,33,34,34,35,35,36,36,37,37,38,38,39,39,40,40,41,41,42,42,43,43,44,44,45,45,46,46,47,47,48,48,49,49,50,50,51,51,52,52,53,53,54,54,55,55,56,56,57,57,58,58,59,59,60,60,61,61,62,62],"right_children":[2,4,6,8,10,12,14,16,18,20,22,24,26,28,30,32,34,36,38,40,42,44,46,48,50,52,54,56,58,60,62,64,66,68,70,72,74,76,78,80,82,84,86,88,90,92,94,96,98,100,102,104,106,108,110,112,114,116,118,120,122,124,126,-1,-1,-1,-1,-1,-1,-1,-1,-1,-1,-1,-1,-1,-1,-1,-1,-1,-1,-1,-1,-1,-1,-1,-1,-1,-1,-1,-1,-1,-1,-1,-1,-1,-1,-1,-1,-1,-1,-1,-1,-1,-1,-1,-1,-1,-1,-1,-1,-1,-1,-1,-1,-1,-1,-1,-1,-1,-1,-1,-1,-1,-1,-1,-1],"split_conditions":[4.4057336E-1,-1.2130237E-1,1.002449E0,-6.831781E-1,4.4057336E-1,1.002449E0,1.8452626E0,-4.0224025E-1,-1.2130237E-1,7.2151124E-1,1.596355E-1,7.2151124E-1,1.5643249E0,7.2151124E-1,1.8452626E0,-1.1873312E0,7.2151124E-1,-1.2130237E-1,1.596355E-1,-1.2130237E-1,1.283387E0,4.4057336E-1,1.5643249E0,1.596355E-1,7.2151124E-1,7.2151124E-1,2.4071383E0,1.5643249E0,1.8452626E0,2.6880763E0,5.342087E-1,2.9690142E0,-1.2130237E-1,6.4373577E-1,-2.1234596E0,2.3090316E-1,4.4057336E-1,1.596355E-1,1.002449E0,-4.0224025E-1,-6.831781E-1,-6.831781E-1,1.002449E0,-2.0513358E-3,1.5643249E0,1.8452626E0,2.1262004E0,-6.831781E-1,1.596355E-1,1.596355E-1,2.4071383E0,-6.1694014E-1,2.4071383E0,1.7192708E-1,-2.8825822E-1,4.4057336E-1,1.596355E-1,1.283387E0,2.6880763E0,4.3737035E0,-5.282969E-1,2.6880763E0,3.249952E0,-2.8066535E-2,6.714987E-2,-2.3002667E-2,-1.6768025E-2,-1.901875E-2,-9.090853E-3,1.2011057E-1,-3.0932948E-3,-1.9321684E-2,-1.3028485E-2,-1.1376504E-2,-2.5484727E-3,-1.18937595E-2,-4.3487106E-3,-3.3395526E-3,1.1892277E-2,-1.50650535E-2,-8.406168E-3,-1.1246793E-2,-1.8779619E-3,-7.228954E-3,4.6025254E-3,1.1989213E-2,3.1295557E-2,-7.718656E-3,-2.6708454E-4,3.6021422E-3,2.3726255E-2,9.127251E-3,2.657846E-2,2.5154212E-2,4.6624642E-2,-1.3652727E-2,-3.082335E-3,-4.1652282E-4,8.69549E-3,-2.1000524E-4,1.1663157E-2,1.824731E-2,4.367728E-2,-2.8500406E-3,1.258844E-2,2.080803E-2,4.1136753E-2,1.7279232E-2,3.4695577E-2,3.257809E-2,5.3180493E-2,4.8245937E-3,1.7133558E-2,9.192585E-3,3.22812E-2,2.2560636E-2,3.5018425E-2,3.9457735E-2,6.147483E-2,3.4215543E-2,9.7960085E-2,1.6169878E-2,5.1491976E-2,3.750509E-2,6.1740547E-2,5.8279272E-2,7.878585E-2],"split_indices":[82,55,28,82,73,55,73,46,28,64,28,10,64,64,64,75,10,37,10,10,37,46,37,46,73,46,64,82,46,73,3,37,37,75,3,84,64,46,64,82,82,82,46,85,55,64,64,73,64,37,73,63,82,21,36,55,37,55,55,55,21,82,10,0,0,0,0,0,0,0,0,0,0,0,0,0,0,0,0,0,0,0,0,0,0,0,0,0,0,0,0,0,0,0,0,0,0,0,0,0,0,0,0,0,0,0,0,0,0,0,0,0,0,0,0,0,0,0,0,0,0,0,0,0,0,0,0],"split_type":[0,0,0,0,0,0,0,0,0,0,0,0,0,0,0,0,0,0,0,0,0,0,0,0,0,0,0,0,0,0,0,0,0,0,0,0,0,0,0,0,0,0,0,0,0,0,0,0,0,0,0,0,0,0,0,0,0,0,0,0,0,0,0,0,0,0,0,0,0,0,0,0,0,0,0,0,0,0,0,0,0,0,0,0,0,0,0,0,0,0,0,0,0,0,0,0,0,0,0,0,0,0,0,0,0,0,0,0,0,0,0,0,0,0,0,0,0,0,0,0,0,0,0,0,0,0,0],"sum_hessian":[7.0583E4,4.6983E4,2.36E4,2.5784E4,2.1199E4,1.4829E4,8.771E3,9.094E3,1.669E4,1.4518E4,6.681E3,1.1012E4,3.817E3,5.937E3,2.834E3,5.724E3,3.37E3,9.985E3,6.705E3,1.2124E4,2.394E3,2.745E3,3.936E3,8.073E3,2.939E3,2.76E3,1.057E3,2.354E3,3.583E3,1.454E3,1.38E3,2.349E3,3.375E3,3.083E3,2.87E2,6.757E3,3.228E3,4.246E3,2.459E3,6.308E3,5.816E3,2.084E3,3.1E2,1.766E3,9.79E2,3.202E3,7.34E2,4.429E3,3.644E3,1.745E3,1.194E3,1.443E3,1.317E3,6.72E2,3.85E2,1.699E3,6.55E2,2.462E3,1.121E3,9.07E2,5.47E2,4.44E2,9.36E2,2.347E3,2E0,2.642E3,7.33E2,2.553E3,5.3E2,1E0,2.86E2,4.463E3,2.294E3,2.708E3,5.2E2,3.059E3,1.187E3,2.167E3,2.92E2,2.976E3,3.332E3,1.031E3,4.785E3,3.19E2,1.765E3,1.88E2,1.22E2,8.26E2,9.4E2,8.5E2,1.29E2,2.881E3,3.21E2,6.08E2,1.26E2,6.49E2,3.78E3,1.619E3,2.025E3,7.34E2,1.011E3,1.064E3,1.3E2,2.28E2,1.215E3,1.153E3,1.64E2,1.95E2,4.77E2,8.2E1,3.03E2,8.03E2,8.96E2,1.34E2,5.21E2,1.376E3,1.086E3,8.92E2,2.29E2,8.91E2,1.6E1,3E1,5.17E2,3.29E2,1.15E2,7.9E2,1.46E2],"tree_param":{"num_deleted":"0","num_feature":"90","num_nodes":"127","size_leaf_vector":"1"}},{"base_weights":[3.0533577E-4,-1.11733004E-1,4.822137E-1,-2.2264946E-1,8.329005E-2,2.979086E-1,7.737659E-1,-3.3232993E-1,-1.2740816E-1,-1.7043225E-2,3.1920192E-1,9.249773E-2,4.568757E-1,5.971162E-1,9.5840883E-1,-4.1129872E-1,-2.402212E-1,-1.9174492E-1,-3.6310344E-3,-1.0830088E-1,9.29703E-2,2.0881572E-1,5.888637E-1,2.9007435E-2,2.9189897E-1,3.088862E-1,